248 32
200 -0.2777133 -0.35091928 0.062224086 0.14904799 0.49083915 0.16514067 0.07669849 -0.51190764 -0.09433019 -0.15377708 -0.012271948 0.01224155 0.03884527 -0.016505757 0.039594866 0.018147085 -0.0386059 0.04286474 -0.07188109 0.043544564 0.13267983 -0.26148868 -0.003825156 0.05530808 0.6521348 0.620367 -0.21867357 0.10928987 0.6342757 -0.2501176 -0.656613 0.45447063
239 -0.32102063 -0.3416256 0.14120181 0.27165538 0.5069339 0.1387337 0.10949253 -0.5378763 -0.04513186 -0.24189924 0.027075753 -0.04504129 -0.0017725431 -0.047324967 0.07336018 -0.11106287 -0.12765078 -0.0022014012 0.012501221 0.07565689 0.21506932 -0.26021555 0.09370015 0.021110578 0.5489414 0.62235385 -0.120700434 0.11407205 0.5824228 -0.2755546 -0.62946194 0.48929283
206 -0.31863928 -0.26734892 0.08320161 0.241667 0.4332477 0.13582508 0.05072781 -0.5644822 -0.12264886 -0.18509291 -0.02523732 0.008061398 0.0039615207 -0.067455165 0.009596662 -0.057130463 -0.11967889 0.03658835 -0.018273614 0.009386937 0.14335994 -0.22380948 0.06024621 0.016373103 0.5943103 0.6436706 -0.12922893 0.16122065 0.5767497 -0.3054523 -0.645104 0.52261263
79 -0.36066628 -0.1937512 0.1450737 0.19356915 0.38580948 0.06709251 -0.01707432 -0.5871283 -0.09637626 -0.2527852 0.06633348 0.0009138027 0.029612325 -0.05127076 -0.121286884 -0.09384385 -0.07010904 0.0122511955 -0.051562455 0.109122135 0.111470334 -0.17089863 0.16090068 0.013474579 0.6076107 0.59834164 -0.15634494 0.08919521 0.6629066 -0.318438 -0.6563755 0.4985582
31 -0.3166973 -0.37660858 0.080858454 0.15813883 0.42366767 0.16615064 0.092839845 -0.5377143 -0.12979801 -0.13668066 0.08066832 0.005533461 0.05313647 -0.031088661 0.087861694 -0.070032395 -0.04294944 0.028452296 -0.09707196 0.13284738 0.12383354 -0.20709808 0.16048755 0.025108209 0.6176245 0.637652 -0.101546794 0.120311715 0.6419176 -0.27675337 -0.6105582 0.4785842
60 -0.3316146 -0.1996309 0.11228795 0.17047946 0.43074185 0.16626145 0.09815359 -0.554541 -0.056821194 -0.23446883 -0.017408593 0.039881177 0.06511007 0.01221358 0.04994761 -0.08743089 -0.06825739 0.07267918 -0.118576616 -0.012799515 0.12760563 -0.24694084 0.050381776 0.020550344 0.6998135 0.6369055 -0.26332054 0.15691054 0.5952692 -0.23082232 -0.6201052 0.4504009
98 -0.32202226 -0.35608947 0.04607483 0.21968736 0.40389276 0.07510787 0.19497952 -0.515674 -0.08446611 -0.20754454 0.0044021816 -0.014858215 0.098479636 -0.028391793 -0.042449225 -0.056665983 -0.08574835 0.06331598 0.034462903 0.09116832 0.120135255 -0.26146144 0.07901365 0.005215593 0.54958797 0.61955744 -0.180337 0.2083225 0.6820299 -0.33155105 -0.6070779 0.5009298
172 -0.24007413 -0.27653903 0.0645094 0.093413934 0.46009454 0.049737357 0.1235924 -0.5798233 -0.12190755 -0.11047245 0.06454873 0.03462029 0.029315874 -0.036451258 -0.068076015 -0.111333005 -0.07290491 0.019276023 -0.049845774 0.08601653 0.09384021 -0.23528543 0.08872477 -0.033289883 0.64061755 0.6305223 -0.12279874 0.22808887 0.6718319 -0.26641935 -0.60488576 0.48610306
246 -0.3320824 -0.27683726 0.07562316 0.1420299 0.413222 0.01676912 0.13348009 -0.58482486 -0.04257276 -0.2152629 0.09555126 0.011694367 -0.0050278716 0.006683149 0.016782375 -0.060668983 -0.15864234 -0.05568922 -0.022085013 0.03116276 0.21274641 -0.22401194 0.1199881 -0.00367208 0.6147217 0.64599293 -0.044146437 0.09856359 0.63733864 -0.3003723 -0.62685204 0.43152815
156 -0.30460778 -0.35277063 0.07500223 0.22024329 0.4187448 0.14732961 0.1898052 -0.49584216 -0.11233533 -0.17483963 0.012184302 -0.023399219 0.10713784 -0.031140096 0.014858021 -0.11274449 -0.050313972 0.048689805 0.0030648538 0.029450202 0.15145594 -0.15295118 0.05898527 0.04165297 0.5819817 0.6294931 -0.14027318 0.08896661 0.64524466 -0.37450722 -0.65863854 0.46312016
49 -0.32910097 -0.40470782 0.026280273 0.1650876 0.45860082 0.117118284 0.16892172 -0.47801077 -0.033767313 -0.14230606 0.06341191 -0.03544768 0.14604937 -0.01612431 0.057245627 -0.07461113 -0.09966125 -0.03464595 -0.07364192 0.046632048 0.17273235 -0.24879313 0.11209444 -0.012758591 0.5462751 0.64975095 -0.035504095 0.08293875 0.6479951 -0.2952167 -0.6383881 0.51287204
94 -0.30267325 -0.30514476 0.10509339 0.16993754 0.37799093 0.06317407 0.14605886 -0.43159106 -0.04062236 -0.21038356 -0.026143482 -0.0276187 0.0972584 -0.029281385 0.060169984 -0.09021658 -0.13961108 0.010142504 -0.11019249 0.06694372 0.23972723 -0.16977262 0.13664094 0.0039317305 0.6515623 0.6154463 -0.17342415 0.10222127 0.63860756 -0.36861005 -0.6566453 0.5262394
245 -0.23584296 -0.40836138 0.14326335 0.27428523 0.5510017 0.13454416 0.108623564 -0.59122473 0.17592244 -0.039280493 -0.08939239 0.0021417034 0.021865217 -0.032641433 -0.12441564 -0.12868194 -0.095399335 0.10537703 -0.1939069 0.08394536 0.14896594 -0.0017381692 0.17656529 -0.10946697 0.64288455 0.79104334 -0.10498393 0.09868066 0.4206926 -0.19786249 -0.4538545 0.4724866
83 -0.36313343 -0.32704782 0.11648066 0.19757408 0.38355112 0.15900436 0.11065228 -0.5402337 -0.14350435 -0.15339728 -0.028125912 -0.05621355 -0.017440613 -0.02698862 0.009804903 -0.019437395 -0.11996664 0.025063306 -0.0475753 0.037864666 0.16161683 -0.2629398 0.04253888 -0.0015297153 0.54048187 0.6856441 -0.11904746 0.12787555 0.63344866 -0.32566625 -0.5909795 0.5406565
123 -0.38375768 -0.21535118 0.13311198 0.19194083 0.41740352 0.097196616 0.054676805 -0.6894197 -0.13389255 -0.21122962 0.031311456 0.022288619 -5.250448e-05 0.0052471394 0.04505234 -0.058935788 -0.10476217 -0.009008357 -0.078480124 0.1329147 0.11684029 -0.1153576 0.113094024 0.051576238 0.5885671 0.58861595 -0.0923669 0.18773983 0.6333313 -0.29941297 -0.5774677 0.501756
247 -0.20129381 -0.34628925 0.11515942 0.20805766 0.58157104 0.049185157 0.08964769 -0.63479877 -0.018771404 -0.14928299 -0.118436016 0.04603078 0.17888659 0.07575547 -0.03471795 -0.12288518 -0.035664033 0.07111817 -0.10725054 -0.019072434 0.049028616 -0.04615982 0.158943 -0.064149864 0.5657023 0.84131855 -0.10927697 0.08384773 0.48748383 -0.23418564 -0.4488134 0.42257297
55 -0.118775226 -0.39983404 0.13398139 0.27534038 0.50002396 0.026947705 0.010017067 -0.6810835 0.0728371 -0.04153509 -0.12683634 0.12651636 0.09738945 -0.051788136 -0.0011646033 -0.04225995 -0.0683875 0.03913929 -0.16210549 0.066373006 0.077667 -0.0610665 0.0815559 0.055630516 0.5584027 0.7413997 -0.11927432 -0.047731582 0.6144223 -0.2599655 -0.4548479 0.47089955
241 -0.23234637 -0.35656384 0.15639511 0.20098954 0.6160263 -0.014148766 0.0005309454 -0.67149425 0.090665 -0.11714125 -0.079722464 -0.045853492 0.16768306 0.025793923 -0.10916655 -0.15071659 0.013574005 0.06788324 -0.07121928 0.02173857 0.20099346 -0.06604647 0.11628285 -0.14315145 0.59515816 0.72783345 -0.1134172 0.06274034 0.5381601 -0.2525556 -0.42653227 0.39176452
4 -0.17163195 -0.4504572 0.19157113 0.19618244 0.46651274 -0.02909647 0.044205967 -0.67317057 0.06364091 -0.077742994 -0.18887629 0.05690219 -0.0440644 0.05724228 0.01944067 -0.08939461 -0.09545698 0.07469856 -0.05837627 0.018495029 0.09693217 -0.064150356 0.12917997 -0.05317202 0.57214713 0.7228098 -0.1862478 -0.021657249 0.6088444 -0.34079784 -0.46185437 0.41581556
230 -0.33741876 -0.38491705 0.15880483 0.32646927 0.4894563 0.15850729 0.027778696 -0.52127683 -0.011082544 -0.15656503 0.028621478 0.23511547 0.010741727 0.078755535 -0.00986916 -0.12907396 -0.060157705 -0.08051557 0.04573648 0.11996279 0.13956699 -0.08415942 0.032892648 0.00020914504 0.590325 0.6885082 -0.080150925 0.1371222 0.6707969 -0.26072532 -0.52535933 0.41111785
183 -0.3105386 -0.4089307 0.07062319 0.24957882 0.5979603 0.02633626 0.15732604 -0.51374185 0.0067032236 -0.16951367 0.06918107 0.19066334 0.03390785 0.060013205 -0.0055818744 -0.07002662 -0.122626714 -0.06196055 -0.020110095 0.04981296 0.14280336 -0.1861862 0.10583514 -0.025354063 0.5799618 0.65313244 -0.16941714 0.0893215 0.5217922 -0.33251894 -0.61076003 0.41459838
1 -0.11647363 -0.35113606 0.24594355 0.24434473 0.58107483 -0.0045032455 0.045899123 -0.6214593 0.00061351806 -0.059925616 -0.10782983 0.013175308 0.10313662 -0.012707666 0.080651715 -0.05088925 -0.031437106 0.033310216 -0.12129243 -0.041055966 0.09256652 -0.044947002 0.0835152 -0.09893092 0.60221547 0.7888899 -0.11386159 0.008117507 0.6000798 -0.112983145 -0.4788924 0.4602692
132 -0.2758756 -0.388297 0.1810265 0.23440695 0.5610668 0.023254229 0.0884275 -0.5917932 -0.02077699 -0.087059945 -0.08457466 0.014801763 0.044523217 0.08810578 -0.13679367 -0.10122906 -0.041833866 0.14484264 -0.1891751 0.025197856 0.05537754 -0.11481007 0.19154437 -0.08551131 0.4742692 0.83681154 -0.14217715 -0.03680952 0.59134084 -0.26818797 -0.457407 0.3434884
127 -0.22335638 -0.41050893 0.055779107 0.27397364 0.60282993 0.08317775 0.031038318 -0.64556706 0.02023671 -0.1174038 -0.110841274 0.040021874 0.04861367 0.07933903 0.07382548 -0.0028698782 -0.05538805 0.049199883 -0.10695838 0.07055057 0.11760307 -0.034207948 0.24429113 -0.09720444 0.5354309 0.742144 -0.10571457 0.052185852 0.53812844 -0.31010553 -0.3959428 0.46905854
9 -0.3878265 -0.29175252 0.0829222 0.11815858 0.52900904 0.13588572 0.0934121 -0.6175593 0.009607707 -0.14251657 0.10735365 0.2262148 -0.07728709 -0.020689612 -0.014544914 -0.03353991 -0.13781103 -0.06534732 -0.1491301 -0.037886027 0.21296619 -0.052714106 0.12719907 -0.080734 0.6016873 0.61769056 -0.031115977 0.20944516 0.57522726 -0.39349118 -0.5851698 0.37075323
118 -0.19705059 -0.3888857 0.14613691 0.25258112 0.5606817 0.049194593 0.03885681 -0.6239445 0.047949012 -0.11847598 -0.09827402 0.05713907 0.10869642 0.18546139 -0.039384514 -0.052221864 -0.069552705 0.09270026 -0.17080647 0.078188725 0.055424 -0.12816498 0.017996233 -0.118561566 0.5672723 0.74782085 -0.088416524 0.058046266 0.5337384 -0.24259934 -0.49128035 0.45811185
177 -0.25952005 -0.3802872 0.16070083 0.33204728 0.5189 0.04536002 0.09265326 -0.6866955 0.016278593 -0.029138671 -0.032365035 0.092405476 0.15295729 -0.0057271016 -0.082936734 -0.043232646 -0.10885931 0.08821708 -0.19378614 0.07227921 0.05642729 -0.13334396 0.16393243 -0.024450168 0.5127824 0.74118346 -0.17772375 0.02293543 0.53447133 -0.2870154 -0.41688055 0.47970906
155 -0.3208576 -0.24646845 0.10212173 0.26782477 0.52453494 0.09510432 0.08098828 -0.44331342 -0.15470414 -0.11528086 0.04443936 0.20958035 0.18330556 -0.00065397477 -0.08393748 -0.12456407 0.019156106 0.053364873 -0.042120837 -0.0151757905 0.11291765 -0.067192465 0.25955355 -0.095973715 0.6622888 0.71063155 -0.11729203 0.12160318 0.61888635 -0.20191391 -0.6508978 0.36954322
69 -0.3203912 -0.3338239 -0.052591365 0.25446102 0.50851434 0.19577642 0.081721194 -0.6694073 -0.08877442 -0.089353316 -0.09085375 -0.013565923 -0.08471422 -0.062113177 0.080860466 -0.09857757 -0.046666436 -0.0033980499 -0.087223314 0.06349217 0.1341286 -0.095771 0.08443638 -0.043958124 0.6563786 0.58202267 -0.06372184 0.07913163 0.644506 -0.19468063 -0.55537766 0.34716702
102 -0.15637724 -0.42399156 0.20430867 0.2855315 0.5129986 -0.041481916 -0.009092964 -0.693179 0.08718508 -0.0788118 -0.0063194814 0.0031857076 0.03439143 0.05867189 -0.06844011 -0.07017862 -0.13525349 0.06966439 -0.078411184 0.027671793 0.04569046 -0.07277248 0.1412396 -0.13526355 0.62706614 0.71333593 -0.11681853 -0.024029665 0.5405797 -0.23239158 -0.45554492 0.46777555
227 -0.43162492 -0.50456226 0.09273719 0.1300113 0.42713657 0.019037563 0.1825644 -0.6084501 -0.054750253 -0.07863393 -0.027342815 0.1824083 -0.07877749 0.18529071 -0.005539601 -0.067960724 -0.07838406 -0.016284509 0.038426783 0.13870701 0.12369096 -0.12436902 0.06333297 0.026214091 0.44959408 0.7080539 -0.13773221 0.10373298 0.5944244 -0.4584375 -0.57213056 0.42665341
121 -0.25381792 -0.28695178 -0.021615062 0.24774963 0.57302564 0.12527546 0.20723109 -0.6255913 -0.039767858 -0.16407539 -0.0700837 -0.06512195 0.031167993 -0.10705161 0.0042283046 -0.23894714 -0.13878937 -0.08033729 -0.17345476 0.13641076 0.062894784 -0.024408624 0.18806703 -0.03347949 0.57725674 0.5802751 -0.057754908 0.090632305 0.72240746 -0.16476084 -0.57987547 0.31562468
209 -0.3472091 -0.3230003 0.051371828 0.2621932 0.5855073 0.11063102 0.08452715 -0.49918094 -0.048670392 -0.10947699 0.008017989 0.16896789 0.03294709 0.027229533 -0.039041836 -0.07272769 -0.1616256 0.073937014 0.02633391 -0.016135871 0.137279 -0.15684824 0.03653837 -0.16663727 0.5444892 0.6930188 -0.19761308 0.006553129 0.57885444 -0.26715007 -0.64135873 0.42952135
203 -0.19282082 -0.33314592 0.16798553 0.21594213 0.49013662 -0.04291252 -0.010842688 -0.65934086 0.11612228 -0.06447649 -0.07485657 -0.0092816185 0.015585694 0.1134184 -0.05929365 -0.12136616 -0.12557228 0.056013905 -0.16896649 -0.027710682 0.025871467 -0.043528322 0.13153507 -0.04828756 0.6106875 0.77456146 -0.12708451 0.03012743 0.55931014 -0.34715942 -0.4229616 0.4697513
29 -0.3499007 -0.36800793 -0.0014957114 0.25979897 0.4925294 0.12709983 -0.0006168565 -0.5915926 -0.05466869 -0.18017663 0.062927306 0.24148817 -0.06070299 0.0098267635 -0.019495206 -0.09442328 -0.04598482 -0.0375501 -0.024767375 0.0253749 0.22350508 0.011820138 0.07265337 -0.11935653 0.57273954 0.61163914 -0.1469802 0.107515685 0.5945398 -0.21440749 -0.64063984 0.4793888
208 -0.27359492 -0.4358746 0.10125586 0.23242672 0.4896428 0.025394376 0.0049069226 -0.5801118 -0.058804 -0.14869545 0.03329879 0.17254661 0.15824196 0.049921747 0.013106262 -0.11149629 -0.22295536 0.034750488 -0.11198214 -0.019854639 0.105457105 -0.1386085 0.1316622 0.011682996 0.65722644 0.67161584 -0.17413561 0.040362023 0.5003765 -0.24622713 -0.6812198 0.28061602
220 -0.24135014 -0.42304707 0.15403783 0.2907469 0.59232426 -0.05417819 -0.00684265 -0.64132714 0.023281645 -0.084852025 -0.10422234 0.010141508 0.11472213 -0.028798304 -0.11644286 -0.078168534 0.01839688 0.040515993 -0.11405996 -0.004715589 0.20557444 -0.010179783 0.15068588 0.016165778 0.63849044 0.7154856 -0.14512181 0.050509028 0.49027768 -0.25863183 -0.38693094 0.46431947
56 -0.31657267 -0.29091623 -0.036015723 0.19684055 0.58399236 0.06586749 0.040253155 -0.53713655 -0.103913516 -0.14290869 0.004833588 0.20023373 -0.022944273 -0.04382104 -0.007064155 -0.123200834 -0.19353391 0.09811477 -0.020136824 0.0007644726 0.18244113 -0.09976129 0.10383382 0.03302557 0.5984832 0.6315364 -0.06399732 0.17523672 0.5914787 -0.31188345 -0.57432026 0.46737322
116 -0.26599497 -0.3339988 0.13410167 0.26225957 0.60402197 0.14610754 0.020543098 -0.5615636 -0.06313631 -0.117350854 0.102271326 0.19871244 -0.035003707 0.10369649 -0.04066416 -0.0011969234 -0.099355824 -0.044607595 -0.033168267 -0.040323235 0.18805236 -0.14972551 0.06002885 -0.0011202435 0.5086095 0.76040006 -0.08301382 0.10781314 0.57242775 -0.21728934 -0.6114169 0.4155767
25 -0.31874773 -0.32445067 0.15359698 0.1482616 0.46624184 0.101194344 0.15171307 -0.6424689 -0.128821 -0.15594572 -0.03520742 0.25047493 -0.0935353 0.07085664 0.08009169 -0.0852399 -0.08123833 -0.016608449 -0.039480865 0.044205584 0.14662778 -0.032194927 0.16726857 0.012396097 0.6343958 0.69126844 -0.12853509 0.102911554 0.5357102 -0.16141813 -0.59222704 0.48466524
195 -0.36833015 -0.36864206 0.06440468 0.15688513 0.54564834 0.15078707 0.05808736 -0.48732314 -0.088989414 -0.19723675 0.0060904454 0.21725218 -0.024845114 0.025451297 0.007538052 -0.0320256 -0.09687217 -0.053717792 -0.13306023 0.09903133 0.1840539 -0.06334342 0.087338366 -0.10549779 0.6077091 0.65990573 -0.15271877 -0.050043646 0.6063383 -0.31391385 -0.56530964 0.45590895
117 -0.28034753 -0.33856136 -0.051041134 0.27980635 0.50448585 0.017510189 0.12758775 -0.562252 -0.06685197 -0.17013456 0.07521198 0.009438725 0.116271116 -0.03753323 -0.12096004 -0.081710346 -0.10636698 0.035084162 -0.061314803 -0.046428356 0.08645132 -0.16021429 0.16948786 0.08755015 0.5951584 0.5589198 -0.14859247 0.16370289 0.7117272 -0.30333188 -0.5967498 0.3664968
199 -0.25806573 -0.40086108 0.08590917 0.10932264 0.6440052 -0.013349772 0.021712253 -0.66737884 0.0437353 -0.11389357 -0.1822468 0.00227156 0.05637448 -0.07145162 -0.07173033 -0.08447587 -0.07828588 0.0533792 -0.008829719 0.03566618 0.22952743 -0.10958145 0.07338464 -0.079988755 0.63539255 0.73463106 -0.20033352 -0.07910105 0.5209692 -0.23651174 -0.38509765 0.40075147
129 -0.3198201 -0.36725184 0.010327532 0.25112402 0.5515381 -0.10023949 0.15413778 -0.6646501 0.004036633 -0.07164387 0.0041196914 0.00887704 0.049865518 -0.16524564 -0.07938355 -0.019441 -0.011860773 0.1510604 -0.2503314 0.08482266 0.26428816 -0.044423096 0.00823408 -0.11027562 0.49008906 0.6788462 -0.03248244 0.09236509 0.6604621 -0.19753563 -0.47183645 0.34113958
22 -0.3446351 -0.34943563 0.0017095444 0.13651079 0.57556075 0.040131778 0.122486725 -0.53536 -0.10179809 -0.16255188 0.07144487 0.22396122 0.032320518 0.042770736 -0.002701718 -0.0043038125 -0.08117569 0.015671743 -0.011900703 0.074516214 0.15967809 -0.08416234 0.08133014 -0.15550649 0.61077267 0.6515479 -0.14549674 0.05622719 0.5883593 -0.2353341 -0.6471285 0.40073007
140 -0.3845397 -0.30945355 0.041451596 0.2017337 0.5056154 0.10004045 0.07855685 -0.4981556 -0.06645859 -0.22300236 -0.060930915 0.16565244 -0.00019396536 0.08324523 -0.0018897462 -0.046243493 -0.14090872 0.09566719 -0.11558245 0.036699466 0.20513514 0.02782791 0.13048315 -0.07638286 0.5681094 0.67556816 -0.28238413 0.067762375 0.57487226 -0.32729772 -0.69503474 0.32155436
190 -0.3713321 -0.3006886 -0.03020355 0.23015215 0.45471895 -0.045061316 0.05220016 -0.6017163 0.03507179 -0.30434564 -0.09466671 0.024843981 0.18288773 -0.1542036 -0.1689509 0.051442597 -0.020713424 0.1263691 -0.1224492 0.10754765 0.18393818 -0.0358678 -0.048202828 -0.06196635 0.61153865 0.72426635 -0.14284371 0.03369003 0.62545735 -0.19426636 -0.49819872 0.3429114
185 -0.37068158 -0.34049976 0.046862334 0.13500333 0.57561326 0.1615525 0.13647793 -0.57709557 -0.10596132 -0.14186601 0.008870422 0.24289191 0.010788602 0.012859935 0.03711499 -0.0007145574 -0.096189745 -0.0084273955 -0.08011334 0.043040648 0.1648548 -0.04469271 0.12260253 -0.09206173 0.60829735 0.66930515 -0.066842504 0.14966261 0.46271658 -0.33545488 -0.64709836 0.39873812
224 -0.40253198 -0.3307865 0.043917887 0.15324855 0.5643808 0.13759588 0.044251695 -0.5133466 -0.061567277 -0.15582123 0.0036269827 0.23607789 -0.049643792 0.031785812 0.10286008 -0.11328822 -0.026956283 0.016037049 -0.1548735 0.020008514 0.13554609 -0.13109647 0.039632086 -0.16274562 0.5632553 0.67297083 -0.18398961 0.013407415 0.5523606 -0.32074597 -0.62062395 0.45652342
15 -0.19052744 -0.3512934 0.009115356 0.2177899 0.641759 -0.022748917 0.050611015 -0.6794948 0.01264813 -0.13514774 -0.07352035 0.16810943 0.06568538 0.015152536 0.047388844 -0.06704351 -0.03464524 -0.059727658 -0.07094579 -0.068455674 0.0072237444 -0.05198169 0.13755804 -0.19190347 0.55761564 0.6273355 -0.2074493 0.076607734 0.59144056 -0.35906363 -0.5303189 0.39057067
61 -0.22980703 -0.3972117 0.17782389 0.239184 0.5101939 0.053196788 -0.024433518 -0.6811729 0.24661055 -0.15817316 -0.042136345 -0.010736917 -0.002512913 -0.12436394 -0.160499 -0.04326932 -0.062005527 0.17693383 -0.026619282 0.018057229 0.21613896 -0.05422453 0.08870031 -0.043248948 0.61720324 0.7387715 -0.0866271 0.070256546 0.5463825 -0.33182624 -0.4245754 0.31595242
59 -0.123537935 -0.44164637 0.14918849 0.20331539 0.63875145 0.043776624 0.02787345 -0.578032 0.0416546 -0.1460425 -0.14113866 0.09926096 0.09805524 0.029867023 -0.048169777 -0.21518505 -0.08905953 -0.0019316819 -0.16675225 0.0038441604 0.03734145 -0.03561121 0.09094372 -0.10369022 0.5816858 0.712469 -0.14979069 0.11468841 0.6148436 -0.24655482 -0.45872936 0.38265607
137 -0.40852475 -0.32525724 -0.06295079 0.15206155 0.55745745 0.04748048 0.11358775 -0.57947814 -0.05483568 -0.2103374 0.15018412 0.19303912 -0.02066859 -0.019830491 -0.059131876 -0.02035965 -0.09142276 -0.069633 -0.12417313 0.07422088 0.14284211 -0.023139631 0.086077675 -0.16613089 0.5615146 0.72331125 -0.22829188 0.10050212 0.59159875 -0.23508517 -0.53057617 0.3780329
122 -0.14735775 -0.42775506 0.15948607 0.26118478 0.5842055 0.0169129 0.042400084 -0.6263079 -0.010962799 -0.071749255 -0.16750064 0.0735147 0.10245995 0.040029738 -0.029419445 0.024172418 -0.16627845 0.08736354 -0.13097563 -0.0045733503 0.16106617 -0.108006425 0.14573844 -0.13688849 0.5574468 0.7431302 -0.13071422 0.03345953 0.57526 -0.29255885 -0.46035478 0.34970248
87 -0.40383685 -0.3118109 0.085858464 0.23170742 0.573789 0.10452775 0.121503055 -0.53608525 -0.13814592 -0.09494497 0.030801551 0.26763007 0.06835661 0.042219084 0.028897481 -0.031158805 -0.026352394 -0.024668004 -0.0811907 -0.022049475 0.0034134993 -0.09868658 0.081691906 0.008091631 0.661983 0.71317726 -0.09771525 0.1668597 0.5395796 -0.24101679 -0.5767285 0.354323
157 -0.19615974 -0.31851143 0.1742487 0.16716966 0.60903996 0.084371425 0.07063165 -0.6257155 -0.016830258 -0.1649867 -0.12934522 -0.063934304 0.11219315 -0.0075735245 -0.080421776 -0.17228822 0.14404233 0.1797813 -0.15201934 -0.07215857 0.2554585 -0.061941013 0.18432105 -0.04423656 0.5516354 0.80993533 -0.06656785 0.048434064 0.5695609 -0.25045896 -0.44245106 0.28879583
214 -0.15041979 -0.42675468 0.1074192 0.17544302 0.4927866 0.01754202 -0.10892809 -0.7381994 0.15400925 -0.20716476 -0.04705753 0.06750574 0.13068378 -0.1795056 -0.17559582 -0.07111811 -0.12344438 -0.027415756 -0.10209632 0.09647586 0.20890182 -0.11111742 -0.0035126077 -0.07314271 0.62578934 0.7032985 0.031615157 0.12712874 0.55668813 -0.2681945 -0.40261132 0.42923313
104 -0.16895486 -0.42286032 0.25626335 0.24268962 0.5917014 -0.0020542366 0.049784284 -0.7159755 0.15095799 -0.045948703 -0.06242113 0.040405557 0.14760153 -0.06110701 -0.09530892 -0.08131624 -0.041775215 0.01779909 -0.16213354 -0.016584493 0.080210105 -0.10563934 0.14052673 -0.07017732 0.5993765 0.7205831 -0.07105994 0.036009412 0.51110935 -0.250668 -0.42984834 0.40274265
5 -0.15824462 -0.41398355 0.14737606 0.19750704 0.53200746 -0.05289905 -0.01659895 -0.6267246 -0.019015092 -0.0412297 -0.121141255 -0.016652206 -0.018513303 0.08933803 -0.10288893 -0.069434196 -0.12560707 -0.019290289 -0.11008093 0.09221993 0.17447934 0.005821239 0.13463067 -0.17643742 0.5406527 0.83311385 -0.124304555 0.05402662 0.6582963 -0.27129245 -0.36670727 0.40131056
131 -0.14717191 -0.43134192 0.1269455 0.24873435 0.64649135 -0.0155858975 0.10088995 -0.67328286 -0.031002998 -0.14721699 -0.12758504 0.041823547 0.05273982 0.053374723 -0.1540505 -0.11285043 -0.098518595 0.12505183 0.006486664 -0.031191679 0.03982622 -0.056945972 0.16489373 -0.09673259 0.5229746 0.7186297 -0.12136251 -0.0020409136 0.4903528 -0.24566817 -0.48792934 0.4808729
124 -0.23153073 -0.37276208 0.20893008 0.21931826 0.56444156 -0.0056844996 -0.014955746 -0.5853549 -0.09051489 -0.011556546 -0.0807991 0.0823329 0.095568515 -0.045590878 -0.13699561 -0.050174914 0.12953076 0.12635385 -0.1040264 0.039030794 0.07701065 0.023880288 0.15478417 -0.02840182 0.6717613 0.7988454 -0.013656561 -0.032562055 0.47982895 -0.31028852 -0.4555559 0.4638277
39 -0.29680124 -0.4285415 -0.06635236 0.22468188 0.47942236 -0.019646047 0.1932522 -0.6184572 0.05399451 -0.1864196 -0.024948116 -0.15800512 0.022477949 -0.09617441 -0.08059955 -0.20043038 -0.0041365814 0.081686854 -0.2205712 -0.01024238 0.23396926 -0.099930875 -0.01745011 0.07275831 0.6165911 0.677876 -0.12852181 0.08354886 0.5323913 -0.24463135 -0.5698191 0.27415428
78 -0.07420159 -0.44093058 0.17506933 0.20183115 0.5279785 -0.008767355 0.0031463308 -0.592901 0.122527786 -0.16862221 -0.07462008 0.07586961 0.06871554 0.011441284 -0.025403028 -0.18642233 -0.13390262 0.06251785 -0.110110536 0.10649567 0.020721903 -0.17481439 0.23028633 -0.0857262 0.58445853 0.7887579 -0.124687016 -0.040886685 0.59122574 -0.24302395 -0.47852534 0.38982505
240 -0.29470527 -0.33367953 0.06622938 0.24851273 0.5072465 0.077720776 0.25336775 -0.5358281 -0.08128018 -0.11202647 0.045344945 0.2151507 -0.005097959 -0.09542662 -0.045810275 -0.023876099 -0.19953561 0.038107216 -0.08058603 0.06474141 0.12140725 -0.073814005 0.09126003 -0.032908123 0.60366404 0.6894397 -0.15081947 0.06554048 0.5517555 -0.3701785 -0.5849265 0.39294583
194 -0.26890823 -0.42303863 0.08812979 0.13369904 0.58495045 0.081272006 -0.014034235 -0.6506635 0.12590076 -0.1671518 -0.1805711 0.05380376 0.13949117 0.118033946 -0.17488115 -0.10573609 -0.009624325 -0.01813193 -0.19094738 0.058974184 0.0908755 -0.067458 0.22941911 -0.026417878 0.6312911 0.69046175 -0.1528789 0.019991562 0.53669804 -0.30573374 -0.43547702 0.36222035
80 -0.31660196 -0.4313098 -0.057327926 0.15831716 0.47170758 -0.055294372 0.22006696 -0.5772769 0.008312544 -0.10027461 -0.07858362 -0.13788989 -0.020854184 -0.1990035 -0.15385073 -0.16526511 0.035107292 0.05074698 -0.20058882 0.0340687 0.15225428 -0.19480565 0.035616737 0.021318285 0.5809591 0.71987486 -0.050875224 -0.061684303 0.58802193 -0.31289405 -0.53400403 0.331773
144 -0.14961904 -0.41397253 0.18813649 0.3160585 0.5916334 0.023979532 0.022882499 -0.5912544 0.087808244 -0.118600965 -0.15229999 -0.0012424792 -0.032749407 0.090691715 -0.029058905 -0.15201417 -0.03981107 0.08065187 -0.061906744 0.006138412 0.17401806 0.027504832 0.18424378 -0.07291845 0.5808402 0.7330634 -0.054269318 -0.012531377 0.5097769 -0.240371 -0.4957568 0.50192976
178 -0.37170488 -0.29101855 0.18418005 0.21258913 0.5855709 0.050193686 -0.005438925 -0.7263012 0.1413909 -0.095158964 -0.14777671 -0.020337902 0.10113705 -0.03904463 -0.12568197 0.06857091 0.02856621 0.09902004 -0.16312517 0.025174249 0.25741807 -0.09429163 0.11031295 -0.06879502 0.6877158 0.6585711 -0.025006102 0.09174969 0.5445541 -0.3686042 -0.31078252 0.30814603
58 -0.11522394 -0.32595825 0.16255899 0.2726981 0.5670701 -0.0038726227 0.017605651 -0.6440645 0.032264307 -0.0394975 -0.1978064 0.12455346 0.047295872 0.085427254 -0.102003455 -0.054124296 -0.09309112 0.06186232 -0.11353978 0.015929215 0.03365989 -0.093805626 0.119737014 -0.026897864 0.50765425 0.7536816 -0.011843607 -0.04921789 0.59482175 -0.28674385 -0.5037526 0.5395508
41 -0.2883211 -0.39948606 0.13257448 0.33713233 0.5423874 0.025171591 -0.06935996 -0.6518175 0.101571135 -0.24680364 -0.18503076 0.07629425 0.058123123 0.0316488 -0.18203834 -0.14526506 -0.12425167 0.102593414 -0.14342628 0.0076181586 -0.024298895 -0.085540585 0.25090963 -0.1423817 0.54831266 0.64863706 -0.17152323 -0.021266697 0.49027738 -0.22691669 -0.550054 0.45262906
233 -0.42750266 -0.37723935 0.11092649 0.32340547 0.5469392 0.042086877 0.1876538 -0.6153999 -0.0074271536 -0.25638795 -0.13143674 0.20728928 0.08903839 0.11536666 0.0016989012 -0.064265884 -0.07727059 -0.08497532 -0.030394718 -0.05383359 0.022553142 -0.07065632 0.107714355 -0.14110601 0.4789875 0.6996828 -0.22522895 0.08505517 0.5521263 -0.32916972 -0.5438752 0.3258101
151 -0.3025267 -0.38914025 -0.033471785 0.19486865 0.53106207 -0.0015289828 0.1138341 -0.5687451 -0.04987291 -0.21664399 -0.1067836 -0.20828581 -0.061019413 -0.1349208 -0.073238485 -0.16933614 0.06475558 0.00029744522 -0.19147812 0.064345986 0.23560944 -0.11847297 0.09784734 -0.013335185 0.6683467 0.72100544 -0.016909642 -0.0048272978 0.5002376 -0.15366721 -0.5865999 0.302677
85 -0.24090551 -0.3111134 0.100471616 0.16362475 0.50307333 0.03073659 -0.052843783 -0.628037 0.07939444 -0.1825083 -0.1042825 0.103187196 0.07437017 0.114742234 0.058314316 -0.089524575 -0.08530461 0.040868465 -0.1952766 0.12014918 0.009892128 0.011252236 0.25254136 -0.10421068 0.71919894 0.715406 -0.11265449 0.08940948 0.5069592 -0.20839745 -0.5448973 0.40724814
237 -0.28625545 -0.4063082 -0.10868327 0.27429077 0.43937695 0.089633994 0.13026641 -0.5737511 0.07288143 -0.10762431 -0.026974373 -0.09737879 -0.053932525 -0.09577165 -0.16989149 -0.14584683 0.05470866 0.13103056 -0.32634303 -0.010748857 0.18261927 -0.1126828 0.052911315 0.06452331 0.63361704 0.65554136 -0.031829722 0.14214908 0.5858628 -0.21403608 -0.51170564 0.44402725
196 -0.3153143 -0.36346182 0.07548991 0.23842123 0.5192787 0.051517624 0.14329995 -0.52935445 -0.10714291 -0.20297343 0.06883046 0.12547836 -0.1416591 -0.061801575 0.037557434 -0.08628898 -0.10064347 0.06164403 -0.023385324 0.065392025 0.14171483 -0.039890952 0.09205092 -0.1439805 0.52377695 0.7052476 -0.11567053 0.13918346 0.60178787 -0.37169704 -0.59654516 0.3590698
207 -0.34456646 -0.36173484 0.051819157 0.2772979 0.6179338 0.017873082 0.04940853 -0.6443648 -0.08647268 -0.07777002 0.022757873 0.18870066 0.029741397 0.062044863 -0.015373455 -0.08563905 -0.12825015 0.0051186257 -0.053096972 0.09077492 0.08563072 -0.12083876 0.17303157 -0.08834251 0.5225267 0.7136678 -0.15538158 0.04383547 0.59333 -0.20232747 -0.54355407 0.27462533
27 -0.29432145 -0.51621366 0.04745614 0.2350545 0.53978264 0.099177934 -0.004035757 -0.67104775 -0.01610879 -0.05545265 -0.028132359 0.07765792 0.05191161 0.027749978 -0.035252724 -0.022401113 -0.15187007 0.09400436 -0.05477115 0.009774709 0.0030429258 0.02643524 0.191005 -0.07411413 0.5397486 0.69788355 -0.13077362 -0.111655876 0.5695739 -0.22280484 -0.58015674 0.3345909
167 -0.28071186 -0.23992209 0.07801548 0.250595 0.6170876 -0.0049776793 0.15149882 -0.41314322 -0.16570707 -0.12617426 0.007244238 -0.05697676 -0.028562956 -0.057151593 -0.11004935 -0.031678155 -0.15776344 0.013945007 -0.06556707 -0.028931089 0.22428708 -0.11968968 0.22317742 -0.01309055 0.7022383 0.5410359 -0.12007715 0.15960765 0.72880965 -0.27915388 -0.58152765 0.40341562
99 -0.19980444 -0.3836172 0.06069363 0.23292512 0.61116683 0.008576734 0.02074922 -0.7236107 -0.058341216 -0.111645274 -0.18147582 0.06972813 0.07672259 0.114565164 -0.14342211 -0.005414984 -0.099062346 0.09754768 -0.13727841 -0.067667305 0.16351944 -0.13040562 0.23046878 -0.11282896 0.5590619 0.731343 -0.20068906 0.04993093 0.43273684 -0.34640473 -0.45509952 0.3556558
3 -0.24496116 -0.28867188 -0.079351336 0.31243086 0.3351246 0.07209937 0.0155826835 -0.5883324 -0.094068415 -0.060725443 0.059156187 0.06781698 -0.043017402 -0.16681193 -0.020579435 -0.07172561 -0.10957375 -0.033141404 -0.18604006 0.018113052 0.023965342 -0.16924255 0.008078793 0.058648143 0.7427447 0.73937726 -0.14266151 0.056157775 0.6580947 -0.21253574 -0.50982976 0.38508543
12 -0.21513729 -0.39741886 0.1079471 0.3151189 0.5608987 -0.036741603 0.008348148 -0.6320488 0.009029082 -0.078587495 -0.10997324 0.018457172 0.043143574 0.06857403 -0.03801778 -0.019788835 -0.15744412 0.12255768 -0.014355335 -0.0051887436 0.024459418 -0.03379488 0.16303167 -0.047241166 0.54627246 0.8537375 -0.14494002 -0.012168915 0.48486295 -0.16507058 -0.48431534 0.46332863
89 -0.2952707 -0.25568935 -0.15214974 0.33122867 0.52559716 0.14012195 0.19363832 -0.6059434 -0.06546571 -0.20488323 -0.050058037 -0.02261718 0.10036205 -0.087576546 0.07060736 -0.02887507 -0.07156548 0.08181919 -0.016126705 0.13718514 0.12417754 -0.11019455 0.16946454 -0.18183857 0.57318515 0.5961908 -0.015969362 0.053528987 0.71636033 -0.3894044 -0.45901972 0.36078376
52 -0.2139604 -0.3815458 0.067514844 0.04368086 0.5847807 0.052273896 0.019371016 -0.68953186 0.1381081 -0.11871292 -0.08627198 -0.016211603 0.06280724 -0.087327756 -0.11769207 -0.073049314 0.0913396 0.08305622 -0.16984764 0.009619761 0.21095215 0.0073464117 0.12176395 -0.12775068 0.608766 0.72651565 0.0026482586 0.16619314 0.535763 -0.3766992 -0.43844253 0.3461416
32 -0.24950142 -0.5082242 0.12297382 0.318959 0.5044796 -0.020832222 0.097134836 -0.524177 0.04384684 -0.09824623 -0.2935985 0.05522587 0.13733484 0.12651046 -0.10482039 -0.1886211 -0.1273976 0.017560005 -0.118993826 -0.108173035 0.13001786 -0.13335969 -0.012264729 -0.20146438 0.49424243 0.84590894 -0.020874288 0.10923559 0.5786271 -0.24237567 -0.476883 0.3222882
201 -0.19405158 -0.45107234 0.15278538 0.3144764 0.49564865 0.018460844 0.17651895 -0.52845293 0.1023026 -0.1298566 -0.1866452 0.12708226 0.1465113 0.1705107 -0.1331355 -0.12692572 -0.15477706 0.104099594 -0.14762774 0.031103114 0.16058084 -0.013805044 0.10236688 -0.070962235 0.6013304 0.72974676 -0.112333424 -0.04639831 0.6388198 -0.23549786 -0.43961474 0.38970238
184 -0.21007188 -0.39053628 0.07400867 0.154651 0.5429473 -0.016237782 0.03730714 -0.6645793 -0.0009985422 -0.2503462 -0.14927226 0.00839947 0.15383188 -0.12696545 -0.12289235 -0.15943867 -0.021574078 0.13890065 -0.059079308 0.06797567 0.23727453 -0.05366645 0.1291559 -0.058051925 0.628826 0.7944419 -0.023431992 0.07155346 0.471139 -0.30473003 -0.39854658 0.3207832
243 -0.33245918 -0.32426968 0.050181378 0.28369406 0.52363825 -0.038157348 0.09134868 -0.652073 0.028586052 -0.21208839 0.02273823 -0.12985687 0.003185356 -0.048490446 -0.08874854 -0.2526725 0.010424714 0.065904215 -0.21239668 0.04742357 0.15741111 -0.13018978 -0.013340333 0.070007265 0.7146516 0.6540324 -0.07607721 0.07792726 0.5525836 -0.15411323 -0.5076178 0.22440909
210 -0.29514763 -0.23939729 -0.06341657 0.2157769 0.41697899 0.07685187 0.03004671 -0.6281787 0.00547145 -0.16849491 0.03496487 0.009928845 -0.033411875 -0.0884485 -0.028387364 -0.27998164 -0.16075045 -0.078616016 -0.12464446 -0.096226215 -0.012525 -0.14661513 0.033377808 0.08303696 0.6266044 0.75038135 -0.083248794 0.04384195 0.6565268 -0.26741725 -0.5651167 0.30318323
120 -0.27544916 -0.4119591 0.105326764 0.04296776 0.5451412 -0.022509612 0.079391025 -0.60671055 0.17474341 -0.15998015 -0.16968176 0.021614498 0.08026286 -0.09349586 -0.1281805 -0.16658531 0.047700007 0.0679568 -0.16286096 0.0026040305 0.22516756 -0.10973532 0.16915521 0.0031581656 0.6064454 0.7409338 0.022998508 -0.049133398 0.52316123 -0.28882444 -0.47633013 0.4196858
109 -0.34720513 -0.3528158 0.03768764 0.23897834 0.56000924 0.012529931 0.0092678685 -0.5547685 -0.016988222 -0.20097774 -0.083141 0.18183164 0.040260635 0.018526401 0.07235279 -0.07523225 -0.03689807 0.048800923 -0.058442913 0.027038138 0.068244345 -0.046808008 0.23678893 -0.012861971 0.6330749 0.66886896 -0.25546435 -0.08954285 0.6153672 -0.17927855 -0.60690963 0.2947372
225 -0.20062873 -0.37245008 0.13522902 0.23096134 0.5368017 0.11166648 -0.025201986 -0.65218925 0.21780662 -0.16766223 -0.16597183 0.09646798 0.08973425 -0.08366115 -0.16109183 -0.17343305 -0.09882642 0.06824327 -0.06938037 0.055499706 0.3243025 0.006884243 0.018305061 0.104182385 0.61035484 0.74247646 -0.03482547 0.063349724 0.61968553 -0.24534371 -0.37339947 0.35156813
212 -0.24743481 -0.37110442 0.0970503 0.16609436 0.5578915 0.071666926 0.0418322 -0.61662287 0.26971892 -0.1099618 -0.021112971 -0.055806827 0.1571442 -0.023869574 -0.037318483 -0.09593337 0.07599444 0.17820975 -0.10280512 -0.007156839 0.20845993 -0.1270926 0.03392436 -0.1467262 0.6774872 0.7885473 -0.09851827 0.033445887 0.53315705 -0.20790811 -0.39673573 0.36778054
234 -0.25647795 -0.3225204 0.111400895 0.3357626 0.5603668 0.0971163 0.00232957 -0.57404965 -0.012687937 -0.15302855 -0.052944344 0.1813946 0.07643952 0.03152809 0.11380945 0.0054616113 -0.04759149 0.11508577 -0.0072443835 0.035234824 0.08875281 -0.06980991 0.073247544 -0.051188968 0.632848 0.6895979 -0.26798484 0.0029651688 0.5961111 -0.37430102 -0.5847219 0.20989606
38 -0.3006657 -0.41351497 0.03300573 0.118044056 0.5095041 -0.12413465 0.094698206 -0.58507127 -0.006923173 -0.25322285 -0.11567109 0.060686134 0.07697633 -0.14854261 -0.06423622 -0.10930642 0.041861735 0.20808929 -0.08258565 0.14589667 0.12649648 0.017419592 0.008574935 -0.11793166 0.66344213 0.6904987 -0.014624074 0.22338991 0.57268065 -0.14370778 -0.5565207 0.33031872
90 -0.32675388 -0.46649888 0.029435486 0.21687968 0.55221397 0.029156752 0.022480994 -0.5950992 0.025762366 -0.19227925 -0.089097165 0.062891975 0.1501217 -0.07958288 -0.07008534 -0.089469 -0.021247543 0.09847499 -0.14594208 -0.047497492 0.19849089 -0.059186507 0.03421165 0.07982301 0.6575848 0.73669744 0.10698887 0.10376031 0.53137326 -0.17754209 -0.38831717 0.38556367
150 -0.3949134 -0.29685512 0.021395288 0.18807827 0.40285397 -0.11175233 0.066382125 -0.7306021 0.079228915 -0.15417242 -0.0330524 -0.018109549 0.10928862 -0.027352497 -0.10996858 0.011970749 0.03270644 0.1880435 -0.1953471 0.07049375 0.23395514 0.0979269 0.0829344 0.06107351 0.56526124 0.676112 -0.08041351 0.10463291 0.5995907 -0.3088091 -0.4883313 0.39758196
126 -0.40949062 -0.40526667 -0.09326054 0.29222444 0.60763764 0.09778434 -0.03433583 -0.71812373 0.051561847 -0.124360844 -0.027847353 0.17922193 0.065041676 0.007985282 0.12885234 0.0011658281 -0.040200256 0.007824236 -0.07240261 -0.057241503 -0.015589275 -0.1807183 0.22899368 -0.028994672 0.5655252 0.6835206 -0.12872651 0.032166146 0.4858097 -0.20259872 -0.5014627 0.34749484
173 -0.20805354 -0.32657522 0.13059829 0.10167258 0.5845339 0.041923292 0.09595756 -0.7793361 0.2239391 -0.15936238 -0.09884451 0.036853775 0.14182512 -0.13628614 -0.17120412 -0.11550607 0.031806458 0.19851162 -0.06326133 -0.025042998 0.15995482 -0.16845703 0.15158586 -0.034884956 0.60952276 0.68326116 -0.094441675 0.071045555 0.55464447 -0.21174254 -0.419506 0.34572223
88 -0.25240165 -0.40003514 0.19943276 0.27487847 0.52436185 0.08524383 0.015331257 -0.65974635 0.07118149 -0.18997018 -0.060791478 -0.01356105 0.0898167 -0.07312275 -0.1793623 -0.0009565681 0.027637277 0.2153141 -0.090902984 -0.028952792 0.21714754 -0.017083518 0.17596534 -0.05062182 0.6837405 0.7432811 -0.11303464 0.14248727 0.5018718 -0.26875788 -0.3543471 0.32106546
18 -0.2608248 -0.3603939 -0.15594514 0.25518647 0.4829973 0.09087939 0.026778702 -0.61944443 -0.1042158 -0.21410657 -0.03665435 -0.058343444 -0.11661365 -0.009621988 -0.03734011 -0.026407056 0.13794793 -0.056495726 -0.24382113 -0.048530523 0.025472116 -0.11154579 0.07898612 0.04996181 0.63326603 0.6117102 -0.063930914 0.00032724478 0.65674853 -0.35916522 -0.52737796 0.3834442
84 -0.36212075 -0.23277003 -0.013732964 0.33575067 0.52953947 0.09071917 0.070808426 -0.5697911 0.0026268004 -0.20685782 -0.024295665 0.17229246 0.10083628 -0.1028098 0.11276911 -0.1250877 -0.14925699 -0.038042173 -0.26692018 -0.009786806 0.0644863 -0.08367084 0.3158112 -0.11087921 0.60438395 0.6769519 -0.0023417585 0.034510896 0.5390798 -0.3626081 -0.46805832 0.4339173
213 -0.24327035 -0.17452486 -0.09481454 0.41972664 0.35245025 0.1677389 0.26343957 -0.7498676 -0.051761825 -0.22588512 -0.016752915 0.028249254 0.06679162 0.027727444 -0.025318328 -0.14356086 -0.055196263 -0.041039366 -0.13133684 0.11361307 0.14372364 -0.16626751 0.13750243 0.112189576 0.6645516 0.7071522 -0.19489925 0.145063 0.60111505 -0.2415958 -0.4473318 0.2662144
82 -0.25410405 -0.3475637 0.0010741455 0.3104434 0.42777672 -0.012190622 0.10249713 -0.6556433 -0.072324395 -0.10629599 -0.09268957 -0.05384065 -0.055619314 -0.15009132 -0.15676536 -0.12358905 0.054542415 0.031014737 -0.17340153 0.07043594 0.22206116 -0.23937325 0.13966921 -0.040466923 0.7465726 0.6069618 0.09639403 0.1055415 0.5494575 -0.36139727 -0.53970665 0.19299988
179 -0.22189437 -0.4232809 -0.046225984 0.32659578 0.5038216 0.06818313 0.14410724 -0.61665994 -0.0671554 -0.20365033 -0.065156184 -0.013855175 -0.055240422 -0.16108856 -0.18610525 -0.11639629 0.176512 0.053211473 -0.21630362 -0.08997596 0.16367649 -0.09774411 -0.02849513 0.087589204 0.63984555 0.6265395 -0.07168881 0.04327396 0.56392485 -0.31023127 -0.49957618 0.36394268
108 -0.33192334 -0.43747798 0.011011794 0.16509849 0.4280985 -0.14893325 0.1387257 -0.636778 -0.0033924484 -0.07060324 -0.114577666 0.018798169 0.06122114 -0.11983493 -0.06631841 -0.0809216 0.017114248 0.1517213 -0.18811822 0.11281447 0.2155968 0.0013969183 -0.016504746 0.023578105 0.6566 0.69864523 0.0002691271 0.09553523 0.5538225 -0.24105321 -0.54339325 0.31056607
107 -0.32438007 -0.41160515 0.059650976 0.18242212 0.6356811 0.09648374 0.03910648 -0.6046444 0.17239083 -0.055380974 -0.13570072 -0.01305776 0.022598717 -0.025484502 -0.13463616 0.011612413 0.011645945 0.19437477 -0.19244498 -0.063754775 0.17525819 -0.101214945 0.05909528 -0.041064665 0.67448187 0.64262676 -0.02297953 0.16313216 0.5631004 -0.30013394 -0.3821154 0.36658633
169 -0.29623225 -0.25232542 -0.0856243 0.2328616 0.5181217 0.038219538 0.13167173 -0.6094943 -0.13832505 -0.15217863 -0.1176941 -0.058047242 0.12754017 -0.035097677 0.009652463 -0.2206397 -0.090192884 -0.015656522 -0.108293675 -0.0347143 0.10456251 -0.15973684 0.023345742 -0.059270613 0.6350619 0.5882629 -0.019360406 0.0822668 0.6756859 -0.4127859 -0.52891576 0.3093327
135 -0.24552763 -0.2977733 -0.027549792 0.26391467 0.58883566 -0.054937348 0.039994754 -0.63168657 0.054133855 -0.04114056 -0.053725615 0.068791464 0.17121597 0.14265612 0.10357094 -0.1612479 -0.2195632 0.07249937 -0.13122153 -0.03433115 0.16147178 -0.04210677 0.14674988 -0.18777782 0.5600071 0.7057618 -0.14656778 -0.022713127 0.55390733 -0.2759908 -0.5447314 0.40612447
168 -0.25932768 -0.36903524 -0.069560446 0.22917645 0.4940177 0.00046856882 0.2326549 -0.57117 -0.008543259 -0.09874276 -0.27486092 -0.11332648 0.07658775 -0.051438004 -0.08971869 -0.06594685 -0.034763105 0.10706892 -0.23873143 -0.026594868 0.23146209 -0.0709811 0.0022718215 0.11850742 0.6512144 0.63501924 -0.048702974 0.102565855 0.63748896 -0.18159649 -0.5641762 0.33342558
111 -0.3096712 -0.26978102 -0.14777985 0.30022648 0.49446177 0.1581191 0.07078107 -0.6330638 -0.0138826305 -0.1780191 -0.10289573 -0.09744571 -0.077556424 -0.006371941 0.12329786 -0.06588696 -0.15243523 0.02136855 -0.107458696 -0.072644375 0.059368175 -0.14678912 0.003116103 -0.020766264 0.6075671 0.64183533 -0.02945087 0.15795542 0.6146543 -0.3141604 -0.5381373 0.39225116
153 -0.26631692 -0.3815997 -0.046213772 0.26471946 0.45170844 0.074707985 0.28964764 -0.672473 0.023220304 -0.19555435 -0.13135412 -0.071013436 -0.18884416 -0.15722151 -0.1440014 -0.16111547 0.019648844 0.11996882 -0.25079876 0.12335665 0.16903958 -0.019812034 0.022590209 -0.0008956245 0.67572474 0.61423904 -0.06777157 0.039363425 0.48651332 -0.094427735 -0.5777762 0.4378389
100 -0.29819003 -0.33058125 -0.111039616 0.32672825 0.43394858 0.112757556 0.18687698 -0.5151207 -0.049584627 -0.26001376 -0.029054187 -0.015985403 0.10554654 -0.22030394 0.110684454 -0.03862306 -0.17048064 0.017981382 -0.060601942 -0.0072995764 0.015272895 -0.16285287 0.19001707 0.096633546 0.67696434 0.7671108 -0.109129064 0.05717042 0.6255873 -0.3370754 -0.4284044 0.2872964
103 -0.30036348 -0.38834128 0.06191786 0.30487216 0.4951891 0.13049798 0.19704475 -0.7396503 0.013986675 -0.16078393 0.03670525 -0.18508734 -0.033230342 -0.061311465 -0.05840414 -0.15074356 0.037706584 0.09884905 -0.19834365 0.0040329746 0.17733191 -0.11217666 0.049794674 0.08290435 0.6183768 0.63205355 0.07530131 0.039490692 0.44678864 -0.17151076 -0.6466257 0.2757269
13 -0.32803336 -0.2083044 -0.011526278 0.10877391 0.4032954 0.06401779 0.19504544 -0.5581604 0.060782045 -0.1817662 0.030086994 0.21042441 -0.061928786 -0.06123213 0.039241787 -0.060685992 -0.2151201 0.014150609 -0.13040033 0.11273117 0.27395988 -0.040129773 0.14824255 -0.09768008 0.5637055 0.7499667 -0.10432872 0.11770596 0.638719 -0.40909803 -0.5858413 0.35007644
28 -0.34660667 -0.40298194 0.07649924 0.2883629 0.5015084 0.05535866 0.0263524 -0.6011091 -0.04338328 -0.14342704 0.056779835 0.10612832 0.16455993 0.0854304 0.03568895 -0.028216274 -0.10372634 0.030599972 0.06293818 -0.006664688 0.09513523 0.04588594 0.17065927 -0.018043188 0.68234146 0.7458264 -0.13316233 -0.090246856 0.53908074 -0.3041941 -0.5938723 0.15791528
63 -0.26531747 -0.35846207 0.07772152 0.13371776 0.4989269 -0.00542051 0.023497941 -0.6116082 0.016096625 -0.22586249 0.066944316 -0.010648277 0.05750117 -0.13070571 -0.019042717 -0.31861684 0.017272916 0.22788411 -0.19747698 0.06103965 0.14848565 0.018719606 -0.008616911 -0.11160842 0.6592158 0.73270214 0.09755184 -0.020315818 0.5605372 -0.31364053 -0.48935196 0.2924318
219 -0.29053545 -0.2705724 -0.20559575 0.28945607 0.46528405 0.08831563 0.16942535 -0.6182432 -0.013924192 -0.15135339 -0.016652334 -0.0723945 -0.0049149827 0.024221009 -0.089577086 -0.12554637 -0.06685243 0.1210303 -0.051744968 -0.0133259185 0.07070729 -0.18444262 0.06213643 0.090168744 0.6405769 0.6435786 -0.09136046 0.02747015 0.7068439 -0.2573658 -0.5316081 0.29296353
163 -0.38432473 -0.37715077 0.04536532 0.15414234 0.4415393 0.035988733 0.097540215 -0.6506996 0.013642393 -0.280068 -0.021086406 0.044366807 0.08921942 0.0043960717 0.1361121 -0.13724029 -0.29751483 -0.0126380585 -0.12686272 -0.102266505 0.013815042 0.050871465 0.15250912 -0.18856096 0.6305743 0.6665606 -0.15201351 -0.026817389 0.5881346 -0.25652486 -0.50140446 0.38951468
221 -0.3891752 -0.38540298 0.07769716 0.08176049 0.59716666 0.022837957 -0.027743788 -0.68723744 0.068324134 -0.32626125 -0.18755019 0.0035034344 -0.011306287 -0.007173365 -0.080292225 -0.14614007 0.03257568 0.093249284 -0.056853425 -0.11563725 0.20867868 -0.10042065 0.09409594 -0.034307092 0.63331634 0.6369674 0.053675853 0.1521541 0.5407574 -0.18829909 -0.3564824 0.48954052
14 -0.43500203 -0.17536569 -0.05559781 0.2585493 0.47868848 0.030012524 0.13348646 -0.69449425 -0.012210827 -0.059743136 -0.078179255 -0.06574044 -0.108760186 -0.120619126 -0.19209 -0.24106938 -0.034568317 0.19343469 -0.20327242 -0.025899483 0.11521016 -0.19556889 -0.07681373 -0.025711868 0.70968264 0.68114567 -0.09763865 0.046342272 0.494291 -0.27839723 -0.47976837 0.31639504
92 -0.37724134 -0.40772358 0.062582545 0.24113859 0.37913096 0.013457899 0.19989876 -0.7424096 -0.017882336 -0.14565752 -0.059837125 -0.12242121 -0.042453926 -0.17812899 -0.11482626 -0.08427468 -0.057698946 -0.003072157 -0.26892376 0.087538205 0.15914547 -0.11657634 -0.08123838 -0.04070249 0.68510234 0.6693708 -0.030312415 0.014765391 0.4909421 -0.23997203 -0.4793593 0.3037181
70 -0.40862644 -0.23263267 -0.01037719 0.18245375 0.54752964 -0.16146106 0.21661437 -0.7102282 0.10917564 -0.17594093 -0.009296729 -0.1450528 0.027761793 -0.0070406673 -0.14399044 -0.12338403 0.004746094 0.10799858 -0.20273346 -0.0148832295 0.24507587 0.011107263 -0.029817313 -0.06457025 0.64152586 0.6748058 -0.060446523 0.036635805 0.52693194 -0.14231507 -0.5211468 0.32847333
141 -0.35794404 -0.35334915 0.010183173 0.29198757 0.4862345 -0.05445076 0.13165861 -0.5285062 -0.0745344 -0.19961163 -0.042516846 -0.09876443 0.054370817 -0.064686544 -0.13602626 -0.20163456 0.056929987 0.034618314 -0.15809162 0.008748004 0.22626328 -0.2118164 0.06923449 0.10178446 0.77783024 0.63341093 0.061351318 -0.0083898 0.6028602 -0.28669342 -0.43025383 0.27835613
160 -0.31941763 -0.3440295 0.03311234 0.2591664 0.41795817 -0.05454751 0.2647201 -0.65277493 0.050755635 -0.11784783 -0.012618714 -0.11368118 -0.16006352 -0.060519435 -0.012662552 -0.20989354 0.06442753 0.043900717 -0.17197932 0.00066564506 0.13255918 -0.20320717 -0.030617323 -0.058303364 0.7169634 0.6702361 0.0041275527 -0.03323687 0.57323426 -0.3118474 -0.47860676 0.27355263
182 -0.25561014 -0.5090474 -0.09278892 0.30479786 0.30909327 0.04215963 0.13887997 -0.60478723 0.0092188595 -0.21159923 -0.0997505 -0.0586771 0.035438865 -0.14102136 -0.14039119 -0.091818444 -0.13999182 -0.025296059 -0.2559312 0.024345903 0.00061969593 -0.05707412 -0.039754666 -0.028186828 0.65622294 0.6061068 0.009476693 0.108896926 0.6296132 -0.3724387 -0.6121322 0.25202668
2 -0.35712257 -0.23032513 0.087323494 0.20986465 0.49792665 -0.14879295 0.01437978 -0.7219849 0.01885744 -0.23355642 -0.03283666 -0.00881318 0.11493469 -0.13909572 -0.077022344 -0.011238025 0.021330075 0.20393501 -0.19226319 0.099919386 0.17631435 -0.016433408 -0.024620142 -0.03806935 0.5915571 0.69614094 0.06817425 0.08467551 0.53174967 -0.206061 -0.54598707 0.36882532
81 -0.2825405 -0.19639944 0.004113522 0.188308 0.64365906 0.031609256 0.063202344 -0.41645935 -0.05321737 -0.27409902 0.041670755 0.18156585 -0.13193855 -0.1402483 -0.11657586 -0.021602118 -0.23228206 0.0074857743 -0.17694637 -0.03845974 0.19517116 -0.068924196 0.17698099 0.004826117 0.61076534 0.7247564 -0.18907328 0.045213457 0.6059958 -0.38258305 -0.6071616 0.28202167
222 -0.2234304 -0.33805525 0.020046623 0.26994798 0.55573297 -0.068495035 -0.048374992 -0.6648981 0.083913654 -0.18461733 -0.13449812 -0.021556465 -0.018286282 -0.18873022 -0.024697468 0.03815648 -0.032721676 0.22289315 -0.16102362 0.052616425 0.27723983 -0.025931008 0.050022162 0.07232991 0.6650026 0.66993207 -0.08281198 0.08769708 0.48072827 -0.29131818 -0.4585223 0.41954643
74 -0.35459185 -0.42737594 0.09259579 0.37287712 0.40267166 -0.12795097 0.15503584 -0.6058728 0.099176034 -0.2600668 -0.15649429 -0.012594576 0.043769713 -0.2050217 -0.048475306 -0.0811169 0.037930552 0.08467102 -0.07369057 0.08990716 0.18746917 -0.09201173 -0.026394017 -7.010833e-05 0.6989655 0.6429643 -0.00783941 0.028992245 0.4796814 -0.19782528 -0.5074521 0.45325968
192 -0.28625226 -0.34235856 0.059873104 0.12670888 0.46615684 -0.04227782 0.09794656 -0.646066 0.00032938438 -0.21978205 -0.051747788 0.020037891 0.106600076 -0.14694111 0.007603973 0.15066151 0.022124173 0.107358895 -0.2733798 0.023502002 0.21455696 -0.026251776 -0.07629796 -0.05569117 0.7663416 0.71462315 -0.06740892 0.14705746 0.53227067 -0.16314575 -0.4368687 0.3751363
35 -0.29061654 -0.416894 -0.009446248 0.30399874 0.5511071 -0.030368691 0.22570229 -0.6425069 -0.14337867 -0.16473028 0.0033123163 -0.064020835 0.041357767 -0.0718442 -0.14540303 -0.083393045 0.013041018 0.11409604 -0.31687698 -0.03249668 0.24757831 -0.11673095 0.024699166 0.054471653 0.6681879 0.5973406 0.016515221 -0.021028312 0.5751767 -0.13101599 -0.36847147 0.4644209
204 -0.32936692 -0.42736956 -0.08940506 0.24757558 0.4369381 0.028826961 0.14605837 -0.6362975 -0.20667285 -0.20746265 -0.16595939 -0.066929705 -0.006138448 -0.08147598 -0.173455 -0.09826656 -0.013095338 0.09899662 -0.11938648 0.039105143 0.10953588 -0.049065985 -0.0027898944 0.005983864 0.6418596 0.6115997 0.08802739 -0.011898578 0.59976673 -0.22654085 -0.539382 0.39185926
217 -0.4114155 -0.36540884 0.107740454 0.32948014 0.5344284 -0.08528821 0.2249194 -0.65902066 0.018644515 -0.21789153 -0.11671772 -0.01346607 0.03653394 -0.04468266 -0.079838306 -0.06620888 -0.03716337 0.10127514 -0.14847839 0.14425988 0.1706155 0.03443014 -0.059732486 0.13850328 0.63452137 0.6928943 0.041583184 0.1337821 0.43715817 -0.2523962 -0.4866888 0.3216133
44 -0.42509562 -0.37355357 0.013759198 0.23469779 0.54182607 -0.0868003 0.12336467 -0.5031383 -0.009696474 -0.13062371 -0.11091279 -0.02972394 0.10532956 -0.13410273 -0.026801486 -0.032412063 0.01979793 0.17700714 -0.20997684 0.18399942 0.17267701 -0.08207662 -0.093197875 -0.01030391 0.64313954 0.82779545 0.031248717 0.13829409 0.50577986 -0.148407 -0.53377956 0.23454526
101 -0.36211136 -0.20655087 0.08106515 0.3304614 0.56134427 0.101561405 0.010416634 -0.5331978 0.09228079 -0.043039735 -0.035478927 0.15888643 0.13102779 0.029366093 -0.028504224 -0.0043823128 -0.0701542 -0.11959088 -0.10616496 0.078511834 0.029094413 -0.07466777 0.11643286 -0.17881206 0.57791066 0.8244174 -0.04364195 -0.11010228 0.6679616 -0.2992996 -0.51226074 0.2727624
57 -0.23042113 -0.19606845 0.030481055 0.2659884 0.5254865 0.016691541 0.057874102 -0.665591 -0.08186196 -0.15489335 0.05990847 -0.18168722 -0.0475325 -0.022146318 0.09757634 -0.23935276 -0.10456733 -0.073712304 -0.13339636 0.080710225 -0.116490535 -0.036509834 0.14863534 -0.055030357 0.6676102 0.59736 0.012598021 0.1926732 0.65732414 -0.3026887 -0.6134712 0.33018458
232 -0.13002439 -0.2705573 -0.11887188 0.2513307 0.47936755 0.012442069 0.10202935 -0.70164037 -0.09396742 -0.3195999 -0.05958573 -0.14655225 -0.014427146 -0.057441123 -0.10096911 -0.024528196 0.006444752 0.09311113 -0.21375944 0.037472207 0.13899684 -0.14615305 0.04255505 -0.13511072 0.6670564 0.56962264 -0.054635663 0.061391033 0.58631974 -0.34712458 -0.6142138 0.2657504
115 -0.24056688 -0.23268464 -0.09957294 0.27794042 0.39144176 0.021498874 0.15840855 -0.6439299 -0.029401824 -0.31333247 -0.09627499 -0.019769948 -0.0043922258 -0.16873778 0.06635137 -0.10876241 -0.07882326 -0.03677742 -0.09321267 0.03199811 -0.024402302 -0.19024473 0.043675024 -0.018239262 0.6527511 0.7095956 -0.09054264 0.037882607 0.61328053 -0.22754915 -0.55328697 0.38278535
134 -0.24323039 -0.36910802 -0.18424706 0.25214994 0.40926003 0.13605888 0.08531759 -0.6989586 -0.122091055 -0.11796303 -0.111729726 -0.07150373 -0.15081729 -0.114460014 0.04517053 -0.115255564 -0.211136 -0.013540034 -0.12173329 -0.059954513 0.102680415 -0.15507287 0.13369463 -0.105119646 0.5698043 0.75539714 -0.06997832 0.14024858 0.5743727 -0.1643604 -0.5839504 0.29782003
130 -0.23096542 -0.20808643 0.030443156 0.24054995 0.48597357 -0.044171598 0.15309852 -0.71303564 -0.075854525 -0.1490424 -0.0039195465 0.0073358365 0.017894607 -0.15473805 0.18785664 -0.044563323 -0.060041636 0.09038942 -0.081695095 -0.05420303 0.18425272 -0.26953956 0.22299814 -0.048967127 0.5199626 0.48740926 -0.1256017 0.03996346 0.79521763 -0.23270679 -0.6334825 0.39197648
86 -0.16701135 -0.35742858 -0.14118467 0.24115546 0.41197252 0.13792637 0.1420388 -0.6594678 -0.020603275 -0.28966713 -0.10547651 0.002990615 0.04293541 0.027718531 -0.014141454 -0.11522288 0.023742968 -0.0446156 -0.14585282 0.027919875 0.10823732 -0.13831715 -0.035018474 -0.006202272 0.70434755 0.62466556 -0.023734508 0.00483991 0.7258148 -0.20666054 -0.52989507 0.22571056
165 -0.3047262 -0.41926697 0.021424394 0.31915563 0.5790453 -0.05220876 0.0900942 -0.5740255 0.0660226 -0.28869146 -0.1273113 -0.15315627 0.044374637 -0.087985516 0.003984667 -0.014931424 0.006816979 0.21933174 -0.17874554 0.08417926 0.15697251 0.057532974 -0.06717021 -0.008579523 0.63668716 0.61099315 -0.11135871 0.16485496 0.5586679 -0.16489007 -0.55440825 0.33231202
10 -0.3967242 -0.4118407 0.06681337 0.14703837 0.48591638 -0.1138329 0.117442615 -0.73738515 0.123464115 -0.18010743 -0.08561363 -0.017686523 0.0087155625 -0.10504836 0.008785316 -0.036723908 -0.008879194 0.19421016 -0.14052092 0.03899889 0.14265047 -0.066528715 -0.13799608 -0.1338618 0.6498711 0.65022826 -0.11245655 0.0981063 0.5967623 -0.08370465 -0.52164197 0.22195922
91 -0.3190252 -0.38176563 -0.0516491 0.26745918 0.48672286 -0.11106061 0.13887337 -0.71729964 0.11549469 -0.18003686 0.11220861 -0.017782606 0.1206282 -0.08568243 -0.08123853 -0.0994306 0.02547952 0.27962074 -0.123566344 0.15684527 0.2291956 -0.055293262 0.013497218 -0.018425794 0.5676574 0.6603679 0.018658908 0.17894517 0.47976786 -0.1497974 -0.5532161 0.43850696
146 -0.20452587 -0.20344496 -0.1600844 0.33095318 0.3853968 0.17868759 0.03815053 -0.63740337 -0.14985625 -0.083805025 0.00460308 -0.14030059 0.0059457514 -0.00650823 0.10617881 -0.007362107 -0.08742639 0.038994316 -0.038372684 0.0082942 0.17609766 -0.13961098 0.07315556 -0.023892377 0.66440374 0.73819613 -0.017525487 -0.06789539 0.6224653 -0.38891873 -0.563155 0.35093027
198 -0.17112635 -0.42887807 0.10690342 0.2832531 0.5606767 0.016758732 0.02416564 -0.62619454 0.04722566 -0.23041588 -0.027495258 0.06649803 0.03746749 0.16338493 0.11475389 -0.11202049 -0.113820545 -0.088583596 -0.08234342 -0.08480289 0.19769341 -0.064908735 0.21311876 -0.021405563 0.56078935 0.7208481 -0.10955225 0.020208856 0.5151911 -0.29552254 -0.55884165 0.34899378
235 -0.2885939 -0.33041188 -0.09546417 0.31646523 0.48140347 0.11471954 0.13338773 -0.6973503 -0.13514209 -0.18007915 -0.12557095 -0.095278345 -0.024608875 -0.09422498 0.07323482 -0.06800217 -0.13283981 -0.023452912 -0.10935917 0.02686824 0.05144966 0.016391272 0.18295427 0.05117377 0.6371614 0.5453555 -0.038862918 0.10612078 0.71567917 -0.16237335 -0.54288375 0.31812575
191 -0.28224927 -0.3944672 -0.031078376 0.27207375 0.4412847 -0.13054077 0.07302824 -0.668211 0.018346865 -0.13175724 0.07504395 0.12574567 0.14018387 0.12707396 0.17423739 -0.036947098 -0.16948006 -0.04412641 -0.16673653 -0.066723436 0.056617893 0.063363485 0.06668526 -0.043205876 0.51674426 0.66113544 -0.12636548 -0.0004888519 0.67979157 -0.3043244 -0.50638425 0.49392793
189 -0.23696703 -0.21710889 0.10580537 0.14704911 0.5442964 0.041898146 0.17096 -0.67406774 -0.21839814 -0.17742719 0.054341175 -0.09527995 0.008193642 -0.030613383 0.07788428 -0.09148567 -0.09330321 0.099914804 -0.12206935 -0.029248683 -0.030549698 -0.16721319 0.13288954 -0.036811214 0.6377138 0.6385314 -0.16298367 0.1395036 0.64860034 -0.34793648 -0.5339038 0.28950158
21 -0.23811471 -0.26121086 -0.09516023 0.37728184 0.43597183 0.07315004 0.23518384 -0.7105055 -0.1298842 -0.22537512 -0.072643146 -0.06157732 0.03244868 -0.08971578 -0.029350813 -0.2097212 -0.054191034 0.04113847 -0.0735421 -0.052555583 0.06507015 -0.119267516 0.062440995 -0.056477524 0.5831572 0.5992126 -0.06465147 0.021403827 0.62406135 -0.33760878 -0.5444316 0.34528467
164 -0.3451852 -0.44327262 -0.06828531 0.29506293 0.34088868 0.07263351 0.13820828 -0.73306376 -0.02681908 -0.242206 -0.15492429 0.06305132 -0.036827613 0.03854381 -0.07451288 -0.09819882 -0.07713388 0.07415054 -0.14019728 0.006144076 0.14841601 -0.30747733 0.052572872 0.06370101 0.6978999 0.5581589 -0.03258586 0.123262055 0.5886022 -0.26237676 -0.46941867 0.26434714
128 -0.21391757 -0.3188857 -0.058785502 0.17747161 0.43331218 -0.002036293 0.02723014 -0.5500344 0.09821762 -0.2330142 -0.024249535 0.08482499 0.0026464532 0.003756296 -0.0906411 -0.10485574 0.008577462 0.2007896 -0.23437962 -0.034312125 0.23754112 0.022282496 0.106406204 -0.1391554 0.60791963 0.73438966 0.12922105 0.2025667 0.63037884 -0.24777846 -0.60451746 0.3121014
152 -0.18271571 -0.245666 -0.08182954 0.24387087 0.37424305 -0.026057221 0.076998934 -0.705037 -0.1717755 -0.16749221 0.007172959 -0.11621564 0.06516389 0.011298966 0.051973235 -0.057657078 -0.019360952 -0.09155022 -0.048406325 0.048669163 0.19289964 -0.107871994 0.0536075 -0.044384465 0.56299436 0.6482016 -0.10231985 -0.04110912 0.77303284 -0.35225853 -0.56426054 0.36527508
162 -0.06908297 -0.30954903 -0.060033735 0.3159897 0.43356517 -0.022657499 0.25079364 -0.7243023 -0.02281344 -0.26219457 0.045519024 -0.008339176 0.08930979 0.033406887 -0.06061226 -0.04365982 0.055443007 -0.043105368 -0.068171374 -0.07093172 0.11102585 -0.27823055 0.0030898885 -0.009366851 0.7380755 0.6650924 0.07034901 0.13189654 0.53239125 -0.3363076 -0.50664663 0.280286
36 -0.34314942 -0.37238812 0.013521515 0.1974216 0.4072485 0.0724431 0.09603013 -0.7323411 -0.0063091377 -0.20978828 -0.11516183 -0.18767555 -0.12679893 -0.006306944 0.009765161 -0.079669185 -0.016434148 0.069002315 -0.2102875 0.052916452 0.13779783 -0.049996946 0.005271527 0.018209891 0.7900946 0.510867 0.0962491 -0.008244222 0.48264837 -0.39227042 -0.5549107 0.3506667
51 -0.20205967 -0.4245073 -0.14482082 0.2230743 0.50590307 -0.000795655 0.18650146 -0.64229834 0.03953824 -0.20963013 0.046678014 -0.17278199 0.02994356 -0.0872597 -0.12531938 -0.14998019 -0.18209538 0.07899876 -0.21620975 0.11944537 0.27005613 -0.1534521 -0.09114718 0.06942334 0.69360256 0.6979386 -0.05457248 0.020880923 0.4698328 -0.18112615 -0.5180033 0.31989372
40 -0.22211324 -0.24893329 -0.118670404 0.33278057 0.44509444 0.014547713 0.055322908 -0.6116032 0.012417983 -0.10914212 -0.020985287 0.20116358 -0.007128702 -0.042224348 0.10271663 -0.090552546 -0.037959993 0.042477705 -0.15644984 -0.0117070135 0.07400425 -0.068749465 0.045493416 0.062677994 0.5796241 0.70822877 -0.15047863 0.17312138 0.75093865 -0.38203242 -0.43718037 0.34565985
37 -0.40958142 -0.28359365 -0.15257289 0.36614054 0.45421568 0.03048274 0.17849718 -0.64813334 -0.11046476 -0.14171402 -0.024735657 -0.17863798 -0.05530057 -0.094801456 -0.018918766 0.022208247 -0.10691299 -0.0042140023 -0.026948715 0.038928226 0.09492964 -0.20856869 0.1841273 -0.063501164 0.6132538 0.6762669 -0.051043402 0.13412732 0.6799437 -0.35193834 -0.42052424 0.22183196
106 -0.23953722 -0.33992657 0.033244316 0.32458964 0.31684273 -0.0034637097 0.2216524 -0.6598804 -0.07733241 -0.19881894 -0.026544726 -0.046307888 -0.18406421 -0.04731481 -0.09434344 -0.04386832 -0.061460387 -0.054588206 -0.13210264 -0.15797462 0.16040224 -0.13368367 0.041742012 -0.04689059 0.78938043 0.61849034 0.0058168103 0.10780901 0.6318598 -0.29826316 -0.45024708 0.32567173
46 -0.19011489 -0.41330656 -0.0042286348 0.28862634 0.37951192 0.07952868 0.144008 -0.67841274 -0.01728361 -0.21331762 0.0772634 -0.013606112 0.06088225 0.09007525 -0.092682235 -0.064390264 -0.06888789 0.022005938 -0.30930215 -0.0008175829 0.16650169 -0.12450288 0.038143948 -0.013732826 0.6830118 0.58763707 0.08095738 -0.0290622 0.6870923 -0.27526507 -0.5080071 0.24950692
180 -0.28923953 -0.42863715 0.13373718 0.27491772 0.53249764 -0.0410245 0.043828398 -0.5404725 0.121623255 -0.1531047 -0.003208416 -0.009726043 -0.08003274 -0.0875319 -0.016303323 -0.1543295 0.017804021 0.14406721 -0.14850084 0.08744755 0.32451573 -0.06346839 0.07880356 -0.013883206 0.67965215 0.6800097 0.099102065 0.14294222 0.64727396 -0.14465165 -0.42973897 0.30113733
197 -0.32584894 -0.3959397 0.09745513 0.35756558 0.44881853 -0.047555648 0.20299534 -0.56470954 0.01959901 -0.23189592 -0.16832049 -0.23801637 -0.046321534 -0.06617804 0.042815953 -0.097897895 0.09226614 0.05011003 -0.10157934 0.03746802 0.19925916 -0.048689976 -0.028859474 0.041729942 0.6773527 0.7426244 -0.052214883 0.1327959 0.5084339 -0.26581144 -0.4565979 0.35376653
218 -0.3467388 -0.2978836 0.001997275 0.3021312 0.42415363 0.047199015 0.06060855 -0.68903553 -0.018756349 -0.10297737 0.043297853 -0.1733751 -0.100189306 -0.010828562 -0.09224878 -0.17725772 -0.01642378 0.1357651 -0.21524304 -0.11937653 0.107653975 -0.16900626 -0.035362646 0.0076548164 0.71426064 0.61551905 0.039955825 0.037546307 0.54194003 -0.24202728 -0.6120142 0.2658946
77 -0.3992559 -0.29636464 -0.023485953 0.17687458 0.516116 0.014467391 0.18005826 -0.6196715 0.09203617 -0.10225782 -0.033225723 0.10363032 0.071026705 0.13913037 0.100355834 -0.15103628 -0.14078467 -0.01229029 -0.07775769 -0.0067949435 0.02444162 0.038046647 0.22933654 -0.1328547 0.5807813 0.66419923 -0.074161984 0.013887621 0.6702432 -0.36047938 -0.53207475 0.2986787
139 -0.27356258 -0.24847957 -0.0801433 0.24890615 0.5554982 -0.059808467 0.094289534 -0.5745843 0.051532462 -0.35970777 -0.04967699 -0.004579818 0.038451243 0.076555125 0.014525572 -0.06905007 0.051889196 0.07705877 -0.17388009 0.08560997 0.2734799 -0.14270483 0.0428167 -0.16373643 0.4904955 0.82604825 0.02609756 0.14474486 0.6614399 -0.21212582 -0.3216951 0.4464816
216 -0.41315633 -0.45656914 0.005486635 0.25244585 0.47108266 -0.08704037 0.08867605 -0.68325746 -0.07612983 -0.17385861 -0.043359883 -0.13165325 -0.052959852 -0.09553695 -0.040940635 0.0024817018 0.043312036 0.13229606 -0.26413524 0.16444652 0.12834114 -0.031758085 -0.019963918 -0.024353033 0.57269573 0.70552874 -0.041871462 -0.0036477472 0.56812996 -0.2536785 -0.42085236 0.32391357
67 -0.25926194 -0.23476277 -0.0818868 0.30230185 0.42494255 0.034075215 0.19574341 -0.6333507 -0.078844205 -0.04588358 -0.05159981 -0.16324924 -0.07657726 -0.061302233 -0.12872538 -0.07220001 0.023694437 0.08683571 -0.19784628 -0.00074651174 0.22079755 -0.100852914 -0.003950782 -0.005878943 0.7046471 0.662364 -0.008536797 -0.009312827 0.6216794 -0.29415452 -0.5584368 0.29766434
75 -0.1688207 -0.28845733 -0.04486726 0.3169834 0.36942205 -0.026587443 0.1857585 -0.6577659 -0.018776692 -0.23859534 -0.10037369 0.014775143 0.041754402 -0.015907519 -0.12959862 -0.08144499 0.069276914 0.0108067095 -0.12850024 0.044650614 0.030946773 -0.15992728 0.05075566 -0.05001846 0.68255985 0.58687156 0.09788999 0.057372466 0.74166876 -0.19512817 -0.57617545 0.3335069
71 -0.16758005 -0.34572297 -0.019917328 0.3207436 0.44679216 0.06453999 0.20486073 -0.6073885 -0.14447922 -0.20358554 -0.14467634 -0.08250033 -0.005853773 -0.005563196 -0.07886864 -0.105344966 -0.08083062 0.05480476 -0.2096638 -0.030014133 0.15128025 -0.18435717 -0.021860072 0.021512572 0.7224388 0.6088057 0.10273244 -0.028080247 0.50086874 -0.30850616 -0.6392103 0.33127475
76 -0.17998312 -0.28759462 -0.1173262 0.39061067 0.38711825 0.19949338 0.14378288 -0.6393219 -0.02377613 -0.1372292 0.036991917 -0.094285764 0.12057694 -0.19679187 -0.014711498 -0.069944225 -0.14061613 -0.016529752 -0.22803533 0.021647856 0.2123342 -0.092712134 0.10660944 -0.12923276 0.5992213 0.6051387 -0.020878451 -0.006982597 0.6839502 -0.23289134 -0.64105034 0.32461956
34 -0.24895829 -0.29321292 -0.017360508 0.2558464 0.55424875 0.09502152 0.14802106 -0.5898915 -0.07229596 -0.2305782 0.05096611 0.21042275 -0.064768516 -0.16977526 0.018118009 -0.121844254 -0.08038286 0.017068725 -0.008744472 -0.024092017 0.15625717 0.0040225764 0.13835447 0.011507027 0.5309067 0.6798566 -0.05796877 0.08668708 0.69277394 -0.3499659 -0.5251844 0.31603235
114 -0.081463546 -0.32590377 0.025534606 0.27914527 0.48257658 0.13584349 0.18325906 -0.6653388 -0.21583956 -0.2800174 -0.03760537 -0.017945694 0.047594376 -0.09183686 0.020249506 0.04496445 -0.082266435 0.10307586 -0.28351805 -0.022751646 0.1824942 -0.19337338 -0.0501495 -0.074654244 0.6963332 0.6582146 0.033145458 0.094308786 0.66793597 -0.1603159 -0.4524029 0.2510144
43 -0.21830009 -0.33081993 -0.049242247 0.39470848 0.33053243 0.037344676 0.0053109447 -0.6870122 -0.051817432 -0.26582772 0.063428916 -0.079916306 -0.029711148 -0.023084309 -0.12030148 -0.11023367 -0.008260462 0.023584168 -0.20587987 0.00057129055 0.11621457 -0.20450203 0.02060654 0.011108439 0.5533696 0.6514028 -0.0066792932 -0.03277863 0.6397265 -0.3416922 -0.6241398 0.29471913
159 -0.40451744 -0.18842813 -0.06934316 0.21349524 0.5301725 -0.09524634 0.11960911 -0.7367384 -0.0057031806 -0.25854158 -0.1266742 -0.049267877 0.20617366 0.0017444936 -0.19319445 -0.13009958 -0.027978817 0.04642405 -0.19562839 0.14165512 0.16017714 0.0073211254 -0.16202289 0.066110246 0.59227306 0.6606667 -0.026039762 0.19643255 0.6042823 -0.23510684 -0.42384574 0.37046608
148 -0.26647308 -0.345484 -0.051337324 0.19798946 0.62729496 -0.15746844 -0.044046804 -0.5432889 -0.06829763 -0.19827701 -0.071860105 -0.060063172 -0.036448013 -0.10103281 -0.052138556 -0.12517272 0.016256724 0.12612256 -0.044536628 -0.055900373 0.19580787 -0.091950856 -0.15477307 -0.08145789 0.6519997 0.7342049 0.05937746 0.10748867 0.60231364 -0.09544456 -0.53235674 0.36919087
113 -0.3077017 -0.37808624 -0.045136973 0.26750723 0.46652168 -0.121086314 0.04871216 -0.8384515 -0.08497198 -0.11113748 -0.09672552 -0.054301534 0.15220131 -0.10174848 -0.086123064 -0.087254226 0.027235406 0.16205412 -0.14072014 0.0559428 0.3433404 -0.14638376 0.03550818 0.06668345 0.46147943 0.7617403 0.042438302 0.12758633 0.48682654 -0.16091031 -0.5465943 0.24943472
112 -0.31498793 -0.37766564 -0.0011980116 0.22029999 0.40222168 -0.061844632 0.13689364 -0.5604195 0.07172222 -0.3154171 0.025020426 -0.046265982 0.07098557 -0.117237486 -0.092213534 -0.11570751 0.15319335 0.040649828 -0.119571306 -0.024097798 0.20447272 0.040582903 0.02172266 -0.024045747 0.61916894 0.8880774 0.02154715 -0.06386598 0.54272974 -0.23321572 -0.4616876 0.33945552
174 -0.2511025 -0.3480817 -0.047944196 0.3425858 0.43500784 -0.041403838 0.14503472 -0.6527926 -0.021500615 -0.237352 -0.16711356 -0.04014151 -0.110135496 -0.09910919 -0.08576794 -0.033447254 0.13950762 0.030458199 -0.15239032 0.18039753 0.16753134 -0.2523381 0.043249454 -0.0011294221 0.7110226 0.49642763 -0.05163599 -0.019702723 0.6868926 -0.303786 -0.50690645 0.31704095
48 -0.31996956 -0.21023846 0.06256771 0.27404723 0.5362994 -0.016278014 0.005837708 -0.7210861 0.115758106 -0.36081165 -0.036566254 0.06305551 0.104423694 -0.11760092 -0.07239367 -0.06281283 0.13955297 0.1457994 -0.18284364 0.18116613 0.16848893 -0.10471928 0.05916927 0.008205524 0.55972284 0.7033694 0.17218679 -0.022801997 0.49470472 -0.18468155 -0.55823815 0.38318288
65 -0.18930142 -0.34053543 0.048113324 0.22538005 0.5417989 -0.022210697 0.11606486 -0.6139134 0.13821122 -0.27802587 -0.13848725 0.1499315 -0.039855804 -0.1501424 -0.15855142 -0.09949444 0.006880524 0.17930754 -0.093310416 0.16218746 0.2017756 -0.05457013 -0.045204245 0.036442563 0.5960411 0.69555146 -0.012298166 0.07805401 0.6463108 -0.20180164 -0.41419107 0.4320389
33 -0.32561246 -0.48132008 0.0320356 0.29062063 0.43125486 -0.10981874 0.08034626 -0.5720059 0.07618016 -0.34737483 -0.049645353 0.05530703 0.07818874 -0.07429198 -0.0024647554 -0.020472419 -0.038501535 0.1678885 -0.13648926 -0.079202145 0.16934493 -0.05891081 0.22132921 -0.029682534 0.6751325 0.63260275 0.10460319 0.07241601 0.58264804 -0.2950263 -0.4119482 0.37642926
7 -0.25983024 -0.3680678 -0.109869 0.29636955 0.26792958 0.0475364 0.070965536 -0.67646605 -0.10303219 -0.3176402 -0.1132545 -0.10065738 -0.090236895 -0.038228095 -0.11552601 -0.056676973 -0.02566579 0.101400204 -0.073142245 0.07926119 0.11578745 -0.13395049 0.05820166 0.0032321198 0.60521525 0.73920184 -0.092249826 -0.026918741 0.6012909 -0.2734182 -0.57402986 0.304161
96 -0.29569232 -0.5037349 0.16909046 0.25451413 0.46749136 0.034256734 0.17343016 -0.64460504 0.11589764 -0.25572902 0.0036954684 -0.044732034 0.22073972 -0.14482191 0.013286952 -0.13445686 0.06224321 0.203924 -0.29482087 0.0025023678 0.15625432 0.10439869 -0.06560245 -0.117570795 0.53867316 0.5842969 -0.043910094 0.25203538 0.642115 -0.37065494 -0.4667857 0.30597496
238 -0.37040392 -0.36270624 0.087042525 0.33535933 0.47154552 -0.06534005 -0.07593108 -0.5200272 -0.05813694 -0.22670285 -0.18681099 0.12454006 0.08389189 0.15679376 0.053196486 -0.21981563 0.009847329 0.11040316 -0.08386387 0.14533085 0.15853785 -0.057102136 0.11932048 -0.1961121 0.6708292 0.6748228 -0.021401225 -0.06672522 0.6762153 -0.3032557 -0.42236876 0.30510786
181 -0.33992925 -0.3754622 0.10260235 0.3993333 0.534216 -0.14416698 -0.0006694282 -0.5877254 -0.09301466 -0.0952726 -0.15993412 0.20929374 0.14276518 0.14193223 -0.05789671 -0.090044975 -0.03861223 0.09758283 -0.24502032 0.028139183 0.0466029 -0.18991238 0.05987284 -0.16737722 0.55502266 0.71908116 0.07640466 0.0006966058 0.5331246 -0.2745274 -0.5442419 0.30459046
110 -0.26408178 -0.22570339 -0.03164309 0.3157776 0.41982323 0.080718026 0.17180924 -0.7562177 -0.1777159 -0.16089222 0.03914537 -0.038589325 -0.00564728 0.030238101 -0.076774575 -0.12419329 0.021594891 0.08164721 -0.11393582 0.054859914 0.09960235 -0.18090194 0.04530839 0.0011601141 0.6484371 0.6444693 0.0001464246 0.06348595 0.71359205 -0.21608011 -0.45697874 0.24301235
24 -0.3693623 -0.4374118 0.04993059 0.10444313 0.59356433 -0.07827604 0.012425274 -0.6699368 -0.07027901 -0.30236807 -0.028100071 0.009299447 0.044175282 -0.084581204 -0.035138693 -0.070375666 -0.036389302 0.14582168 -0.20742317 0.07217418 0.21145007 -0.037080348 0.032878116 0.042501442 0.52238435 0.70298845 0.10919244 0.14478666 0.5677523 -0.16968958 -0.38409057 0.4508487
175 -0.2166087 -0.30304605 -0.023668637 0.18973903 0.39033088 0.044001944 0.14766783 -0.6971861 -0.10201909 -0.24500404 -0.18601842 -0.020207223 -0.029810159 0.07914471 -0.10572718 -0.13092339 0.020068945 -0.069716066 -0.3115874 -0.034412485 0.28660065 -0.14409506 0.054979958 0.06803676 0.55880326 0.6066769 -0.04260302 -0.03067113 0.79390526 -0.25084722 -0.55101603 0.22307475
62 -0.30202496 -0.3678323 -0.079731345 0.31513125 0.35291207 0.02168568 0.09036845 -0.72246265 -0.01578734 -0.25593472 0.007689379 -0.1254425 0.037727818 0.055472292 -0.20942624 0.039027575 -0.047450773 0.12240667 -0.08500132 0.011130538 0.21929121 -0.17090811 0.058965065 0.036266245 0.6285558 0.5771529 -0.036727518 -0.010195181 0.6245975 -0.22255194 -0.6456158 0.24457036
186 -0.2960635 -0.29065236 0.00044089835 0.37650517 0.3333103 0.070547774 0.1623288 -0.686253 -0.059854303 -0.29469305 -0.06621106 -0.06586201 -0.011953248 0.031555995 -0.11747258 -0.09213357 -0.01760682 0.018853014 -0.13422237 -0.00898909 0.23545763 -0.16888021 0.05139629 -0.1386319 0.69857436 0.565604 0.04507359 0.08883636 0.6082442 -0.27353284 -0.51404643 0.35421205
149 -0.22313128 -0.28066182 -0.08930551 0.45555475 0.44860834 0.10244716 0.066485636 -0.57004315 0.020885292 -0.12524404 -0.14923945 -0.06334193 -0.025044905 -0.07120431 0.13579139 0.07470172 -0.010867431 0.04262389 -0.16584042 0.112963825 0.07479213 -0.1462423 0.21020319 -0.010598837 0.5523806 0.59970075 -0.04476095 0.15890719 0.67352194 -0.2877598 -0.7275216 0.31946015
158 -0.20969486 -0.2822597 -0.1111643 0.3517415 0.5214156 0.1288681 0.08321517 -0.68482435 -0.016701002 -0.22470386 0.059809126 -0.12813777 0.04099895 -0.0021268495 -0.10229187 -0.01028697 -0.21129407 -0.12445112 -0.10317415 0.078290515 0.21443775 -0.16895173 0.029266022 -0.09875424 0.68427396 0.5948645 0.092347875 0.09872634 0.58526796 -0.261326 -0.5007284 0.3614461
125 -0.44718692 -0.3830678 0.10858488 0.30100974 0.5187407 0.1013735 0.17587043 -0.61141175 0.06885897 -0.22031498 -0.06657283 -0.060659982 0.034265593 -0.1411962 -0.011720068 -0.15638548 0.014954555 0.16890389 -0.15001763 0.017436277 0.31708187 -0.0040735635 -0.14560759 -0.09542657 0.4864199 0.7289978 0.14055425 -0.059698034 0.47903696 -0.37310305 -0.4883172 0.388178
171 -0.22274247 -0.21413603 0.16791996 0.21194802 0.52033776 -0.08654287 0.06505603 -0.6463858 0.16836452 -0.18402313 -0.12410503 0.04898279 0.064799145 -0.12344773 0.03063066 0.061838984 -0.039138116 0.17504899 -0.22582203 -0.019597232 0.2518894 -0.13209768 -0.12447453 -0.04612864 0.718837 0.7444479 -0.041638054 0.061908495 0.5549185 -0.27590293 -0.4104287 0.33203515
64 -0.28010467 -0.31519547 -0.14055659 0.14351296 0.48624986 -0.025635296 0.14414562 -0.6192764 -0.011704179 -0.20393269 0.033794913 0.1388691 -0.018512713 -9.628797e-05 0.094525434 -0.12553085 -0.1650329 0.073436 0.007201584 -0.035754275 0.15311888 -0.012381945 0.17092891 -0.0042798123 0.60589564 0.67438984 -0.041325774 -0.009633825 0.61463547 -0.3608039 -0.554077 0.38586223
231 -0.29235724 -0.38613918 0.06464148 0.35244307 0.43776956 -0.008844082 -0.0208089 -0.7096001 0.08835639 -0.11775156 -0.13682652 0.10228387 0.0462639 -0.1445117 -0.007915567 -0.22877015 0.054282516 0.37927642 -0.15727283 -0.015190294 0.2598932 0.0746835 0.04495496 -0.004714503 0.6291775 0.58360153 -0.03692375 0.19288094 0.5519031 -0.27826044 -0.44771382 0.43463942
133 -0.11339717 -0.34725496 -0.014731059 0.23643619 0.48219284 -0.053598017 0.17220521 -0.69898444 -0.048323624 -0.2801435 -0.024380924 -0.06499283 -0.048741013 0.05377221 -0.13792215 -0.00885454 0.05407569 -0.036564574 -0.19014812 0.019623503 0.10789325 -0.18419807 0.0023004017 -0.09235979 0.7108817 0.4777233 0.061727926 -0.08010861 0.70107937 -0.25306135 -0.6167693 0.29564106
42 -0.2581698 -0.35037413 -0.16294576 0.321025 0.47108874 0.09015304 0.08773212 -0.6427639 -0.15029736 -0.19208357 -0.0056428756 -0.12481999 -0.08482023 0.006698991 -0.12539805 -0.11374199 -0.07881899 0.059308887 -0.11486192 0.048947744 0.024090502 -0.13058789 -0.054856226 -0.17268708 0.63944715 0.689349 0.14253354 0.07152429 0.6208754 -0.26591033 -0.44081703 0.39089334
236 -0.38130692 -0.17213354 -0.009252771 0.30117467 0.50512254 0.18309963 0.062135942 -0.6532009 -0.039511144 -0.29526517 -0.014757454 0.012794541 -0.0021722089 -0.09025546 0.01900033 -0.108403385 -0.15245292 0.096858956 -0.13434479 -0.071245335 0.097112894 -0.03320494 0.083334394 -0.07659933 0.5066051 0.6084723 -0.1631435 0.025582947 0.75284624 -0.19862442 -0.48551652 0.441602
45 -0.3548463 -0.28345305 -0.037115883 0.24018723 0.46864778 0.024241885 0.020125862 -0.6408032 -0.12270766 -0.20911448 -0.05135358 0.18853143 0.110195585 0.0015122431 0.07529675 -0.074606985 -0.1459887 -0.025930054 -0.22114012 0.009437884 0.12021445 -0.019700443 0.22458583 -0.09961998 0.49277675 0.77601653 -0.03905301 -0.060010772 0.6024975 -0.23745759 -0.47002923 0.47072512
223 -0.3147 -0.25661498 0.04021242 0.1965234 0.37288952 -0.079723805 0.057664126 -0.5844286 -0.00022048005 -0.27016062 -0.12647374 -0.008348077 -0.029673891 -0.040859584 -0.03811462 -0.026332865 -0.15170456 0.26659662 -0.14773504 0.053771265 0.26659852 0.026611896 0.17055577 -0.076306194 0.6459182 0.7574523 0.11465765 0.09468919 0.61435133 -0.3380942 -0.4580592 0.33979657
244 -0.20739812 -0.22428375 0.036872875 0.3596468 0.4347254 -0.01982608 0.22557563 -0.6693039 -0.073638834 -0.283577 -0.045028325 -0.08879455 -0.09989395 0.040240876 -0.08496926 -0.15426569 -0.062359795 0.09600403 -0.16010275 0.09432254 -0.010827254 -0.24609096 0.005590902 -0.04352987 0.7500738 0.5443796 0.009068397 0.11415847 0.70078045 -0.19203101 -0.5243737 0.25118682
205 -0.3187271 -0.4590592 0.11873905 0.4002721 0.5061985 -0.1190929 0.011200623 -0.59300184 0.06397909 -0.28419855 -0.016072484 0.028124565 -0.013997416 0.18956359 0.0879392 -0.048210625 -0.2011067 0.077159844 -0.20643398 0.031341635 0.21813773 -0.05063456 0.10134654 -0.015892182 0.5389561 0.7149722 0.03330864 0.13378106 0.6026973 -0.26914486 -0.44988382 0.2330909
20 -0.17136061 -0.38913828 -0.016239077 0.19416232 0.36356226 -0.01218516 0.19233516 -0.5928349 -0.06933362 -0.33569926 -0.11168913 0.08073798 -0.077328354 -0.005026257 -0.058915265 -0.08358061 -0.19817439 0.20933437 -0.14147294 -0.049112935 0.18150307 -0.23103139 0.13787037 -0.088675484 0.67686176 0.73243636 0.07708643 0.1514526 0.6157048 -0.22294477 -0.45741707 0.30088404
47 -0.17750625 -0.11297144 -0.010924108 0.23259565 0.6571168 -0.01027317 0.19887757 -0.6473232 -0.030735046 -0.23867975 -0.14141893 0.16223095 -0.0047021518 0.0023993202 0.21633396 -0.15941878 -0.2688525 0.045197207 -0.08688037 0.10154992 0.19914508 -0.106549874 0.13939634 -0.0022003981 0.6902298 0.5877858 0.07587455 0.0369447 0.5293586 -0.3191627 -0.5726269 0.34839532
54 -0.28737068 -0.39144012 0.0093654515 0.2694957 0.4339118 0.05782726 0.25542882 -0.62002695 -0.11087041 -0.24286957 0.06646089 -0.024284992 -0.030410985 0.033330318 -0.06565925 -0.08986808 -0.13087335 0.13163118 -0.26347968 -0.009962631 0.13762476 -0.12259279 0.13570394 -0.015533568 0.75221455 0.5787401 0.006229334 -0.100375086 0.7099182 -0.11970562 -0.39194727 0.3146794
119 -0.46262968 -0.36398795 -0.026183149 0.30810612 0.38568422 0.08931087 -0.07435915 -0.54987574 0.11044493 -0.1936269 0.033360135 0.07528847 0.05094878 -0.059312806 0.14147311 0.005823095 -0.048767634 -0.053554285 -0.12676963 -0.2443148 0.07624033 -0.08317265 0.054806586 -0.06899674 0.5660508 0.722749 -0.03830881 0.132385 0.7904316 -0.25571263 -0.4450406 0.33395073
242 -0.3358376 -0.14887388 0.011166699 0.24208507 0.34263715 0.09959366 0.13774066 -0.68978053 -0.056673612 -0.088537425 -0.21925162 0.02747857 -0.07586194 -0.13068075 0.067190155 -0.077651374 -0.074393496 -0.088214524 -0.07954904 -0.004672351 0.06702399 -0.09088457 0.23311307 0.07838682 0.55266947 0.80230826 0.0509884 0.14556669 0.7150057 -0.17477477 -0.5809547 0.29536647
26 -0.29569677 -0.42583477 -0.13052633 0.2419616 0.36914882 -0.17337444 0.06887046 -0.5768024 -0.022718946 -0.17212011 -0.1340913 0.14734915 0.10310658 -0.03338365 -0.051174223 -0.10396403 -0.07050494 0.24354203 -0.08425178 -0.11318906 0.18451226 -0.07410987 0.062694475 -0.09331817 0.70925236 0.6675294 0.08985712 0.108324155 0.6630273 -0.22063 -0.4126483 0.41086578
16 -0.33298516 -0.2634654 0.043860614 0.26151654 0.5746427 -0.03366694 0.066320926 -0.6269191 -0.038106292 -0.19757362 -0.08190008 0.16183414 -0.012385882 0.07592415 0.121355936 -0.042723715 -0.22310038 -0.017327694 -0.118677065 -0.15486206 0.16659623 -0.066196516 0.18100215 -0.044171695 0.49346912 0.67541337 -0.0009590606 0.013188028 0.6592512 -0.21678045 -0.60162216 0.3110557
226 -0.22540301 -0.3249141 -0.00416718 0.30069748 0.4670352 -0.023858314 -0.043848835 -0.6271987 -0.015801873 -0.15756537 -0.009702466 0.12223724 -0.015762178 0.03655418 0.1501579 -0.20721315 -0.09201533 0.16444445 -0.3258225 0.048795793 0.25019577 -0.15991421 0.07480122 -0.13296826 0.49945137 0.90678614 -0.14127468 0.08388014 0.48283872 -0.34215707 -0.47057602 0.23843244
188 -0.16887629 -0.37808245 -0.011989964 0.29209274 0.36520982 0.10136909 0.14597219 -0.75096005 -0.109417304 -0.387353 -0.082513906 -0.042328183 -0.09595868 -0.03372072 -0.10210008 -0.06967638 -0.018282905 0.036935106 -0.21567143 -0.08669801 0.1340811 -0.2001725 0.0024805462 -0.1631355 0.5727328 0.5840604 -0.075816706 0.05723893 0.6836565 -0.28826743 -0.46796674 0.33972776
105 -0.22028585 -0.3652585 -0.13978599 0.24447364 0.39893925 0.027176695 0.17378038 -0.5805373 0.105774686 -0.35173923 -0.01870189 -0.091572195 -0.10396726 0.097078025 -0.09789847 0.07232256 0.03373877 0.08952891 -0.19992296 -0.0047713174 0.067313954 -0.19730102 0.20793101 -0.09444265 0.499478 0.8738191 0.14930212 0.08338154 0.5834974 -0.22896129 -0.544715 0.3355786
53 -0.43790552 -0.27888283 0.13058023 0.3441205 0.5806906 -0.047210224 0.13810232 -0.58725405 0.11891671 -0.19238663 -0.06754953 0.10269783 -0.032858547 -0.09639152 0.049578536 -0.15207662 0.050536893 0.27016985 -0.24585932 -0.092339665 0.19017762 -0.051088348 -0.04209932 0.07512967 0.5405162 0.6754696 0.037777558 0.06385778 0.6509915 -0.18745849 -0.41583937 0.35346723
202 -0.27171355 -0.46123722 -0.033905987 0.17945707 0.5204928 0.1667795 -0.010236639 -0.5937399 -0.043027487 -0.25368652 0.030572692 0.065533236 0.056235015 -0.17473187 0.16104756 -0.14119336 -0.1862357 0.067054816 -0.062170584 0.05655 0.04426963 -0.08305932 0.09942618 0.026608119 0.5055511 0.66830456 0.048369087 -0.066703685 0.749426 -0.27749023 -0.54425275 0.27975032
145 -0.17982377 -0.33746558 0.053513985 0.34222326 0.315542 -0.14020735 0.054316267 -0.59695524 0.032194197 -0.12249166 0.0013386831 0.22441034 -0.02297169 -0.10016757 0.011312489 -0.09813986 -0.017437873 0.18410675 -0.2881512 0.0046629165 0.18794195 -0.22997311 0.12373811 -0.09281758 0.66342306 0.68241405 0.07592089 0.15920478 0.7487084 -0.15688302 -0.48831868 0.30173784
93 -0.36657077 -0.37809196 0.14527361 0.15138437 0.52488333 -0.06626624 0.008243056 -0.6391609 0.14106722 -0.36879703 -0.12812974 -0.01816152 -0.000752328 -0.12737225 -0.044593155 -0.14129126 -0.08788261 0.13956307 -0.13034491 0.1038266 0.21724167 -0.049140003 -0.14707562 -0.049262285 0.5508711 0.6883997 0.067552224 0.016331978 0.58642393 -0.24498644 -0.54367805 0.27735862
161 -0.40371218 -0.32570994 -0.018711505 0.06330329 0.5349513 -0.1507971 0.06386231 -0.5217008 0.09784782 -0.23504299 -0.12413405 -0.007995573 0.13311715 0.084363416 -0.06391146 0.05349992 -0.1263978 0.11844662 -0.3009436 -0.11968689 0.17910522 -0.18233868 0.06131212 0.02375417 0.65426594 0.6652966 0.09494647 0.0309405 0.71682006 -0.18672468 -0.4436977 0.36885267
30 -0.13795973 -0.2666585 -0.04778865 0.3273337 0.6249412 0.020420609 0.0652906 -0.53709024 -0.065762416 -0.22188362 0.056740135 0.14554961 0.07174009 -0.07394115 0.11566701 -0.016329965 -0.1331362 0.08528316 -0.06745885 -0.107713185 0.05891809 0.037156824 0.09034278 0.13698828 0.5920028 0.67573875 -0.06539967 0.07266797 0.68582046 -0.44982922 -0.5392951 0.2717784
229 -0.25501233 -0.3990434 -0.03187567 0.3066919 0.52827954 -0.0628094 0.15111756 -0.60867965 -0.037347276 -0.35275072 -0.12049514 0.13289821 0.106400855 0.1353425 0.08281994 -0.096696354 -0.11353144 0.16512734 -0.27719238 0.10644581 0.25729373 -0.1026906 0.14781135 0.009559134 0.6246397 0.7473375 -0.110552594 0.039786603 0.5634282 -0.28726602 -0.29358852 0.23736934
8 -0.2011215 -0.32974273 -0.12521161 0.2231254 0.48973492 0.021100048 0.21676481 -0.50148493 0.07244997 -0.31436434 -0.09366188 0.1342115 -0.07604819 0.032110654 -0.040929012 -0.028122192 0.072287574 0.3062232 -0.21800257 -0.09329098 0.020315925 -0.0984674 -0.03354886 -0.001328031 0.61833084 0.725861 0.018507902 -0.008052143 0.6107395 -0.26289377 -0.5487641 0.42292017
23 -0.2939138 -0.30393115 0.0829152 0.4143092 0.45208076 -0.12592871 -0.010349338 -0.6114725 0.0006048674 -0.3939166 -0.06209038 0.11710825 0.033560462 0.056489695 -0.0928347 -0.17456262 -0.054459453 0.19533125 -0.3124218 0.032868292 0.22192521 -0.09415399 0.16126093 0.008079928 0.49807626 0.72031105 -0.07344509 0.017944966 0.5181171 -0.3137409 -0.5207526 0.33129546
228 -0.2616023 -0.22175829 -0.019150864 0.29813626 0.51598245 -0.20203291 0.10178531 -0.6174073 0.017093634 -0.22094275 0.03728076 0.10503138 -0.035662077 -0.09315741 0.04289891 -0.042644877 -0.15766041 0.07418527 0.0043858737 -0.1733117 0.009220265 0.033683475 0.1564669 -0.0001628309 0.42674446 0.7687045 -0.08815687 0.109166786 0.6469411 -0.44873855 -0.6343621 0.2921048
6 -0.3052735 -0.27953023 -0.005015206 0.31024024 0.48214805 -0.045715623 0.07409189 -0.5377356 0.044112302 -0.23045576 0.075976565 0.16803531 -0.07180386 -0.20418139 0.040367797 -0.16054395 -0.18064551 0.020783927 0.019042099 -0.1245836 0.17240529 -0.10152936 0.14489132 0.0017132886 0.47267297 0.7723164 -0.06577238 -0.088656746 0.79829645 -0.31553352 -0.47642085 0.2819712
176 -0.19996795 -0.31689593 -0.11169799 0.285243 0.6892784 0.035491202 0.1357331 -0.5323528 0.012087506 -0.26932055 0.17597914 0.06585896 -0.059516113 -0.032973535 0.15319432 -0.051848248 -0.13030644 0.03434994 0.02839841 0.07481004 0.025739199 0.0745995 0.11006308 0.08757745 0.5712082 0.76386213 -0.051167592 0.027285736 0.69954574 -0.43056282 -0.345319 0.31382856
72 -0.37247324 -0.35204488 0.04166774 0.26251358 0.4280719 -0.15623166 0.017327119 -0.5959467 -0.11086318 -0.36888587 -0.07361242 -0.0742213 0.09350732 -0.059734967 -0.013689706 -0.07306725 -0.11196221 0.1962289 -0.17147021 -0.07305538 0.18059374 -0.13164645 0.109969586 -0.019311376 0.636637 0.77308565 -0.052804153 0.085129686 0.61889416 -0.23797862 -0.36413506 0.23276222
136 -0.12968569 -0.3566864 -0.091720685 0.32428467 0.4385123 0.14109667 0.13692957 -0.62352043 -0.00746715 -0.32937917 -0.02098228 -0.09569317 -0.18195471 0.09285081 -0.1560421 0.034367915 -0.12681939 0.18212527 -0.08047694 0.12037959 0.15629664 -0.036682434 0.10828034 0.006435659 0.66394436 0.73378795 0.025685094 0.113843806 0.7702465 -0.06689636 -0.46529722 0.14852406
215 -0.23989792 -0.30672777 -0.009044284 0.29501468 0.620543 -0.027252018 0.06772371 -0.6403716 0.034990694 -0.16951005 -0.19853558 0.10444006 0.06352849 0.097330645 -0.0032622488 -0.1128983 -0.040179413 0.3026282 -0.21381165 0.033161953 0.15004437 -0.26118428 -0.051935878 0.05562091 0.40288463 0.6709684 0.11932837 0.083692096 0.6168013 -0.35549614 -0.5477585 0.34484613
154 -0.33811802 -0.36997515 -0.0608287 0.11201752 0.47994712 -0.053848837 0.05954424 -0.7293486 0.0419576 -0.15304948 -0.06694003 0.16374294 -0.051952604 -0.09233377 0.13995995 -0.032040242 -0.1852712 0.17890342 -0.087170444 0.038500935 0.12886718 -0.14265008 0.16624892 0.020677643 0.5163972 0.56717837 0.029061813 0.041980438 0.7661607 -0.32015824 -0.5444113 0.24093395
66 -0.38304415 -0.0804217 -0.03065243 0.23835377 0.4746795 0.07248847 0.19928893 -0.6238662 0.04733588 -0.2236899 0.0040779547 0.11660007 0.09340793 -0.10908888 0.09755188 -0.08180423 -0.12647875 -0.01624176 -0.092901036 -0.108244725 0.04127971 -0.08396875 0.095263004 -0.081493825 0.5689418 0.7880769 0.052550893 -0.043780323 0.62086594 -0.37820894 -0.45961028 0.41619563
170 -0.30736768 -0.35696772 -0.022864977 0.31654423 0.4680343 -0.035602145 0.24052358 -0.6246611 0.084302016 -0.25450477 0.010960848 0.21097183 -0.06926511 -0.14060394 -0.029389083 -0.059110608 -0.063656196 0.22601436 -0.24128695 0.060157932 0.08760842 -0.23156282 0.1358848 -0.22306918 0.5754921 0.5921178 0.032282926 0.023853816 0.6918606 -0.26121846 -0.41587132 0.3513923
142 -0.23571102 -0.25167185 0.06947396 0.19002615 0.32704616 0.14214817 0.2472057 -0.8095514 0.0034231273 -0.21535546 0.057160664 0.07228172 -0.005312122 0.099627495 -0.02531098 -0.017552372 -0.12413008 0.28159577 -0.09024798 0.060418297 0.026341237 -0.15209487 0.007465849 0.07599579 0.6784895 0.7325405 0.16620244 -0.0028403366 0.63814276 -0.24139225 -0.48239183 0.19642784
68 -0.286302 -0.21646266 -0.031851534 0.27392468 0.5995214 0.00669674 0.14077367 -0.5834876 0.0019488499 -0.20792075 0.06518322 0.116625026 -0.012205364 -0.077665746 0.19610621 -0.028880013 -0.05720528 0.20197365 -0.15480083 0.06271401 0.15651548 -0.14759724 0.23396908 -0.016867954 0.51541644 0.693356 -0.02422841 -0.0072522354 0.67346716 -0.35513568 -0.49490422 0.28949758
95 -0.3556878 -0.33628556 0.14330512 0.16530712 0.5731773 -0.18765423 0.01277102 -0.56399703 -0.051877674 -0.36056808 -0.05670952 -0.021412805 -0.022810837 -0.18077835 -0.053228337 0.012524239 -0.14245662 0.191698 -0.32740253 0.05681785 0.027709985 -0.10385659 0.03421109 -0.070629306 0.598553 0.7281709 0.08629469 0.17584792 0.5326077 -0.28185382 -0.44072503 0.37229842
211 -0.15368018 -0.35488874 0.03212077 0.37776923 0.36934063 -0.14021783 0.16203618 -0.65232974 0.043545377 -0.31389573 -0.03379452 0.20266135 0.02396454 -0.003122701 0.048692927 -0.07942644 0.03284853 0.152077 -0.17315753 -0.18294206 0.25193602 0.081675984 0.067539886 -0.10646884 0.6022387 0.78999025 0.044710584 0.078420974 0.4566348 -0.1964187 -0.5618944 0.41348386
187 -0.19097589 -0.3805161 0.087860964 0.20337121 0.4135796 0.0029725076 0.2846708 -0.65246606 -0.043241832 -0.30352738 -0.025248313 0.11770283 -0.062594354 -0.065387495 0.07924033 -0.06574574 0.10848869 0.18920133 -0.20358983 -0.05688072 0.12953033 -0.077136554 0.06643787 -0.059571125 0.60446924 0.68923366 -0.027055148 0.057315093 0.743039 -0.2043482 -0.42020968 0.2827511
17 -0.38605776 -0.42927554 0.062859744 0.2620068 0.5727251 -0.07847181 -0.067992404 -0.53428453 0.05469397 -0.26833686 -0.0019403504 -0.015859997 -0.09798294 0.036708456 -0.016032478 -0.19624078 -0.09846879 0.24005938 -0.17595619 0.056242783 0.13183558 -0.1151923 -0.13484713 -0.01149512 0.6025168 0.70287186 -0.020570863 0.0832276 0.67678577 -0.18692689 -0.37572393 0.31392735
193 -0.36619917 -0.39784694 0.04127356 0.31037614 0.576986 0.090464585 0.02629733 -0.6091083 0.023819814 -0.35799533 -0.114968054 0.06591077 0.055891294 -0.00087764877 -0.037065513 -0.11675062 -0.012021126 0.15737143 -0.2680094 0.049635563 0.10454248 -0.18506338 0.11783755 -0.10858968 0.48606005 0.60183823 0.11732532 0.021591231 0.5835075 -0.32034266 -0.44541258 0.42206222
0 -0.2440099 -0.19734491 0.10218912 0.08447114 0.49288923 -0.010958428 0.20744365 -0.6323848 -0.015469287 -0.25734803 -0.11815319 0.002496052 0.060499795 0.11306071 -0.07037083 0.073048204 -0.1547334 0.29589427 -0.25432327 -0.057500478 0.11033227 0.01534723 0.061344385 0.12090459 0.4788834 0.7254151 0.1970179 0.004628872 0.75732195 -0.26513603 -0.5365031 0.39478123
138 -0.18489274 -0.3076866 -0.06023621 0.11833698 0.4316015 -0.13768321 0.08510581 -0.5537002 0.047610674 -0.367366 -0.17571908 0.13560075 -0.045416895 0.03015995 0.05764596 -0.15239626 0.025015466 0.1907497 -0.2097594 0.064556 0.014655122 -0.20646179 0.05053356 -0.0056169233 0.650489 0.82190526 0.05510536 0.16377018 0.5949023 -0.37590337 -0.5111836 0.19361924
50 -0.23025574 -0.3157851 -0.23143582 0.14626779 0.36750135 0.0077932584 0.007039552 -0.73129123 -0.09432766 -0.196553 -0.037896983 0.048117746 0.09067694 0.16720824 0.11022722 -0.26292166 -0.083512336 0.3136329 -0.08799848 0.053752284 0.23465084 0.020506652 0.020658687 -0.022099202 0.7451058 0.63569176 0.03725548 -0.014051576 0.5982548 -0.4017868 -0.31699955 0.49792325
11 -0.14287758 -0.38591564 -0.0069131516 0.18321303 0.43700683 -0.07469826 0.07380135 -0.6423701 -0.08368946 -0.33421853 0.061688907 0.08584871 -0.060081713 0.050211813 -0.062175967 -0.18546565 0.009311528 0.20393333 -0.40516812 0.03724486 0.09590069 -0.112931065 0.12690032 0.07311313 0.4483511 0.78457886 -0.04720883 0.19570763 0.72162646 -0.20041233 -0.43101594 0.34145966
166 -0.20643832 -0.27364373 0.098193415 0.30573836 0.30529624 0.22369316 0.12457871 -0.7002521 -0.15994586 -0.30037212 -0.13687381 0.1395034 0.0271042 -0.07305028 -0.10406005 -0.08007622 -0.09023066 0.23232743 -0.17250243 -0.098599695 0.22893889 0.01543975 -0.046934403 -0.08667958 0.5838753 0.74833363 0.06983731 0.044845406 0.66205555 -0.35461167 -0.5269266 0.14144503
143 -0.24439992 -0.42332408 -0.047015376 0.20685753 0.41738087 0.043629847 0.12846997 -0.6541738 -0.1454138 -0.31146792 -0.027160108 0.10627059 -0.03119421 -0.10959694 -0.13556673 -0.046258338 -0.23946162 0.25815338 -0.23637748 -0.0667728 0.09189981 -0.128972 -0.007820833 -0.097741954 0.6165911 0.67838395 0.032270875 0.018197516 0.63368 -0.3696426 -0.3747422 0.29563186
147 -0.19862211 -0.22730263 0.034232616 0.31498894 0.57929134 -0.13199396 -0.06513082 -0.4327877 -0.06411945 -0.30393076 -0.0050242394 0.11981895 -0.00671861 0.03489393 -0.09357334 -0.04331049 -0.05835747 0.24222018 -0.27473983 0.01488298 0.08696397 0.009227671 -0.050212827 -0.09776189 0.735154 0.66613865 0.076243505 0.029417563 0.73623735 -0.32662913 -0.4445946 0.296711
73 -0.23186725 -0.2730669 -0.16715968 0.2549653 0.43800524 0.1559908 0.078181796 -0.5567793 0.14725548 -0.3086579 -0.089757994 0.08003873 -0.0526847 0.08407667 -0.06447988 0.0007887288 -0.02635823 0.30152988 -0.15101613 -0.05172618 0.17498663 -0.09168575 0.14669779 -0.19429395 0.69941586 0.6762051 0.13027653 0.06329091 0.6924664 -0.14192772 -0.52050155 0.30032542
19 -0.2633687 -0.4096829 0.030757131 0.16115145 0.31241608 0.09649621 0.044554044 -0.7048751 -0.066364616 -0.3212033 -0.024735574 0.030726736 0.034463618 -0.027327674 0.011529069 -0.04610816 -0.020753492 0.29502434 -0.15995575 -0.11086624 0.13088192 -0.16060819 0.12903772 -0.054761987 0.5744316 0.77017844 0.05226763 0.090892 0.6546259 -0.25645587 -0.45762315 0.22928326
97 -0.249772 -0.4846878 -0.0035864683 0.26635712 0.31499466 0.006795752 0.11730601 -0.532619 0.009753225 -0.13266648 0.044813033 0.05478157 0.07570531 -0.056786425 -0.04704547 -0.08665118 -0.031571258 0.2682248 -0.18541707 -0.0048075304 0.05474495 -0.112594515 0.11559507 -0.25924882 0.6827058 0.65336293 0.18269028 0.20552117 0.80684096 -0.2937572 -0.42219806 0.2565222
