170 32
162 -0.5157811 -0.39809838 0.2812833 -0.13728964 -0.037904177 -0.092906706 0.1847876 -0.021998428 0.5659154 -0.67244124 0.49594325 0.13811935 0.25036734 -0.14144513 -0.1780996 -0.15906772 -0.047484398 -0.08266803 -0.2785289 -2.0250882e-05 0.29974356 0.039061073 -0.112200335 0.52823305 -0.2949735 0.2978874 0.39190173 -0.050072357 0.052983444 -0.005353115 -0.4265988 -0.24098782
40 -0.4654166 -0.40339133 0.28102157 -0.14702804 0.012100622 -0.07510225 0.18256453 0.0057218974 0.6248667 -0.5967184 0.47694892 0.2820535 0.28646213 -0.1356016 -0.17858358 -0.15056473 0.026939485 -0.07184041 -0.25258094 -0.032368984 0.27727777 0.07648831 -0.13760856 0.5597377 -0.2979196 0.34379622 0.34357473 0.009845183 0.05952376 -0.00087755936 -0.49438265 -0.21335578
63 0.9705596 -1.1370573 1.3940593 -0.7173638 -0.79274446 -0.73468685 -0.03491353 0.4064102 0.58170414 -0.64185697 -0.69823444 -0.0069933226 -0.15948392 1.246218 -0.5237074 -0.89919317 0.07110941 0.24853055 0.9944736 -1.1072745 0.20135534 -0.73282164 0.3972072 -0.007060853 0.29372257 0.058721013 -0.12878515 0.37957442 1.0461625 -0.44524553 -1.3411108 -2.0166516
142 0.62012607 -0.3626658 -0.98565936 -0.8760113 -0.1552665 0.7038947 -1.2128694 0.87204623 0.6775786 -2.1371045 1.9460107 0.028550843 -0.9218902 -0.5941751 -0.60619855 0.1337199 1.3831153 -1.2926644 0.25574806 0.715876 -0.57244724 -0.15974313 -0.52381593 0.78307587 -0.2441672 1.320989 0.3797093 1.1245028 0.18062054 0.46478397 -0.57275045 -0.20666902
98 -0.07390295 -0.26996738 -0.292217 -0.28879258 -0.23134501 0.2577588 -0.5715326 0.36541066 0.08216344 -1.3320166 0.9913305 0.007722318 -0.63852984 -0.3137374 -0.28759566 -0.28885165 0.89380306 -0.79968137 -0.40505198 0.5555966 0.15358378 -0.3685183 -0.17227712 0.36680606 -0.30878225 0.782204 0.29777694 0.5333974 0.11893826 0.32471332 -0.84290737 -0.105650924
64 0.19599196 -1.234354 0.97263914 -0.3145029 -0.6472458 -0.24154757 0.40531403 0.08765921 0.78213686 -0.39756432 0.0917377 0.46780676 -1.4068502 1.7130176 0.4836332 -0.057645466 -0.37045947 0.42514056 1.0414118 -0.9893564 -0.20153357 -0.6914024 0.8330071 0.65624803 -0.37985685 -0.23757333 -0.028706014 0.16772534 0.40771624 0.7189948 -1.1138849 -1.9224496
141 0.21398649 0.019342097 -0.21263629 -0.2737214 -0.42069483 -0.23586929 -0.4181662 0.014321167 0.11471008 -1.2942172 1.3731527 0.16185792 -0.49880993 -0.2632685 -0.56671524 0.13603364 0.89092636 -1.505593 -0.2638529 0.6033339 -0.08124557 -0.7338593 -0.07950594 0.62728953 -0.31141487 0.9565097 0.13171631 0.90549564 0.27320156 0.3393791 -0.6725936 -0.16767089
61 0.64593166 -1.4829992 1.9733659 -0.3331754 -0.49612707 0.24769793 -0.50011444 -0.97629166 1.2577789 -1.1240623 -0.8702641 -0.04821049 -0.6890031 0.4409646 0.5003711 -0.27865738 -0.71254194 0.33472854 0.7715596 -0.66266996 -0.9153427 -0.59892434 1.113671 0.44440225 -0.41788992 0.4463017 -0.12839215 0.047837596 0.8379522 -0.06745515 -0.9187854 -2.8076508
122 0.68096703 0.038970474 -0.3180603 -0.5317753 -0.5222981 -0.26286554 -0.29900426 0.37497717 0.09583416 -1.7358626 1.3592768 0.16178323 -1.2650154 -0.29383367 -0.5110443 -0.16395964 0.24217112 -0.5368171 -0.4173821 0.8268163 -0.23244767 -1.0985732 -0.38032138 0.44813994 -0.027630214 1.4614633 -0.31828052 0.63964987 0.4469262 0.33122352 -0.7861105 0.09388716
120 0.24420688 -0.015979212 -0.39112195 0.46376297 -0.21839827 0.44910464 -0.5442982 0.28531832 0.14102055 -1.5577953 1.6747425 0.3057276 -0.6792767 0.13385028 -0.8055096 -0.07932616 0.69551975 -0.9509952 -0.5476686 0.46057272 -0.3227262 -0.22695969 -0.21938652 0.10533099 -0.16818325 1.1298176 -0.1985621 0.55546296 0.5872232 -0.010833667 -0.87466353 -0.22854468
119 0.2882811 0.19635195 -0.07315811 -0.09708917 0.23319067 0.111167856 -0.6322055 0.40813425 0.020704553 -1.3056668 1.1257428 0.15607883 -0.9918065 -0.39158028 -0.51167727 -0.25555986 0.371031 -0.97742385 -0.29254302 0.19348434 0.14892557 -0.548119 -0.66260177 0.59933627 -0.3817748 1.2866528 0.34364852 0.9448967 0.431127 0.46518996 -0.43781158 -0.32227466
128 -0.0642259 -0.38930365 0.5345337 -0.13076198 0.07457026 0.24869919 0.30123731 -0.13097051 0.6315418 -0.47796017 0.012608216 -0.15258116 -0.48492873 0.19970106 -0.02902485 -0.42477733 0.7368836 -0.032964 0.0011202113 0.23515454 0.24715066 -0.58475345 -0.26697105 -0.45019713 -0.26725957 -0.317837 -0.16306975 0.10554047 0.24698177 0.19070491 -0.2872672 -0.5173081
7 -0.42960972 -0.3268405 0.078320995 -0.290051 -0.0063846675 0.09874004 0.026569614 -0.120332345 0.5277818 -0.5884285 0.47459257 0.47121558 0.11995101 -0.10271789 -0.19119647 -0.37130693 0.11246057 -0.39364257 -0.35053378 -0.03577328 0.2602065 -0.061469976 -0.17460133 0.4122942 -0.17706837 0.30127618 0.35031545 0.040798634 0.043812986 0.06983486 -0.6514276 -0.2179516
13 -0.354824 -0.74930227 0.24269181 -0.08503846 -0.040278483 -0.10807763 0.2718878 -0.15805963 0.43477994 -0.6580229 0.44254526 0.22863925 -0.01300669 -0.28018507 -0.005281856 -0.15137284 0.0322475 -0.11789724 -0.32787463 -0.03393177 0.23460343 -0.015525421 -0.2775185 0.38809288 -0.26729843 0.020635616 0.28900063 -0.074009106 0.24487062 -0.053526618 -0.36801264 -0.27061376
153 -0.08323215 -0.20572765 0.5188693 -0.23048094 -0.06961817 0.3039989 0.18439396 -0.017916476 0.5259314 -0.41771477 0.048323188 -0.048361715 -0.43702447 0.37519085 -0.08714228 -0.3920621 0.7144876 -0.047020633 0.063853264 0.13758142 0.43930086 -0.5799422 -0.27272978 -0.24257742 -0.45846826 -0.16940898 -0.2209698 0.009059561 0.03914452 0.013111001 -0.30216998 -0.3544785
150 1.2592396 -1.2291465 -0.011487821 -0.14851049 -1.1329168 -0.45038718 -0.4849848 0.9502375 1.115297 -1.0129923 -0.07924113 -0.5304553 -1.4652257 0.28203642 0.9270823 0.4528996 0.9240922 0.23066516 0.378538 -0.49159223 0.87532973 -1.5136589 -0.10831258 0.4596339 -0.08825387 1.7843597 -1.6326512 -0.7270936 0.10819697 -0.16842903 -0.32175526 -1.6876323
106 -0.33792412 0.016499398 0.52039003 0.06644298 0.73491067 -1.1288497 -0.44255778 1.2938616 0.05658259 -1.0405766 0.92505157 0.20289917 0.084705785 -0.27718735 -0.72172695 0.35145462 0.59126747 0.101262055 0.012377824 0.99326366 0.14171007 -0.1791596 0.49653995 0.028108954 -0.7335347 0.41858032 -0.10140626 -0.019073881 0.5327707 0.7509998 -0.6464028 -0.284429
53 0.8252942 -1.0400351 0.3446427 -0.36031333 -0.58687836 0.59417295 0.28411305 0.23119028 1.2253882 -0.49465576 -0.079796985 -0.33591783 -0.15447447 0.37405524 0.6153766 0.37521324 1.0493581 0.15544221 0.42908975 -0.9672596 1.0952933 -0.31720844 0.21398774 0.049748965 -0.21975061 0.8389238 -0.44082066 -0.3497695 0.15834163 0.16541411 -0.41460136 -2.3144944
18 -0.10794019 -0.6289852 0.24095894 -0.5913671 0.3996969 0.23675439 0.2558416 0.08249814 0.27307948 -0.1208064 0.29271796 -0.113384925 -0.26257795 0.22954695 -0.19089647 0.14638942 0.61216146 -0.12305881 0.09585085 0.06261217 0.12682968 -0.03509877 -0.2940443 -0.30521482 -0.63389647 0.07161662 -0.21205871 0.17608565 0.17366327 0.0047012167 -0.43508375 -0.3022351
55 0.77119195 -1.1504897 -0.082529336 -0.26852772 -0.58816946 0.023236638 0.21039921 0.31301638 0.29642904 -0.11397816 -0.089953735 0.0053570825 -0.7124049 0.12944959 0.46820152 -0.9595827 0.40793708 -0.47606513 -0.09595486 -0.31246558 0.16212253 -1.1556983 0.42163113 -0.44890818 -0.26159665 0.73769367 -0.40490067 -0.4710557 0.54507387 0.46294624 -0.6579554 -1.7511579
66 1.0335624 -1.0250864 0.0062717968 0.35182735 -0.35407925 -0.74693555 0.0071089063 0.5151408 0.80569386 -0.9416981 -0.8700539 -0.26424336 -0.6347492 0.1686127 0.28382286 -0.32242444 0.16488875 -0.21205539 0.32610235 -0.2376734 0.31388718 -0.25917023 0.39950037 -0.08612246 -0.80133593 0.18008669 -1.0238668 -0.29018557 0.26438037 0.72438025 -0.8357493 -2.0345042
67 0.48966688 -0.95984894 0.12756813 -0.44853058 -0.27079043 -0.50655115 0.05125553 0.055892643 1.1575619 0.27103323 0.13512908 -0.21692935 -0.16354217 0.05254082 0.65167624 -0.3575259 -0.23434955 0.7066373 0.4345129 -0.24642274 0.35971075 -1.3360982 -0.107382424 -0.008690837 -0.43265417 0.59801614 -1.4642453 -0.63964456 0.71978205 0.31298217 -0.8378877 -2.1716049
34 0.17590429 -0.52935994 0.83803374 0.091619045 0.29952225 0.09639127 0.08522648 -0.34948877 0.55470365 -0.34238824 0.37576988 0.30177465 -0.16328385 0.51639813 -0.18151997 -0.48640928 0.61650264 -0.3361744 -0.17615598 0.06409257 0.42219236 -0.45125937 -0.16585392 -0.52140933 -0.11228602 0.07502394 -0.546938 0.033242967 -0.14508854 0.3788652 -0.25158188 -0.46491176
58 1.190152 -0.56696045 0.7847253 -0.48886657 -0.6663766 -0.30555648 0.98894906 0.33771235 0.79676884 -0.5784151 -0.0016144072 -0.06238336 -0.5867854 -0.018147325 0.021251671 0.056145873 0.12562667 0.59909487 0.26623914 -0.11940128 -0.048477568 -0.583609 0.43678066 -0.38024998 -0.28459263 1.0241168 -0.38450333 -0.22524457 0.6851844 0.70619494 -0.35752156 -1.5517992
71 0.27864328 -0.9208874 1.0874975 -0.88265985 0.5251544 -0.29721922 1.2351025 -0.27961555 0.26185623 -1.1458504 -0.5571421 0.62432384 -0.55834717 1.2828478 0.17146994 -0.3971294 0.20118973 0.7536796 0.42289457 -0.5570919 0.29756477 -0.6285631 0.77844733 0.84682834 -0.8318128 0.27371466 -0.81487274 0.2932263 0.13454483 -0.6092716 -1.2613044 -1.9160229
155 0.12634055 -0.55097115 0.7719915 0.07666099 0.33303243 0.117635064 0.14815795 -0.34915045 0.55131555 -0.41387784 0.33988878 0.19823542 -0.1491586 0.46419874 -0.11658325 -0.4173279 0.63555926 -0.297687 -0.17915203 0.05645973 0.34353945 -0.51451826 -0.14440876 -0.5765778 -0.11862901 0.05976625 -0.4840714 0.08763738 -0.07521032 0.41032347 -0.25482875 -0.4829918
93 0.044225395 0.21779768 0.3622543 -0.2606312 0.22709909 -0.69385254 -0.16639286 0.7002586 0.013892663 -1.0458913 0.86108744 0.13151863 -0.336871 -0.26316902 -0.7287648 0.097832575 0.26698297 0.05496786 0.008132785 1.1974466 -0.36566657 -0.2824829 0.25470886 0.3430265 -0.5391038 0.49982083 0.12946752 0.30702445 0.7624534 0.65568113 -0.6569008 -0.3308412
59 0.52239144 -0.95985717 0.56580365 -0.26440826 0.11651357 -0.29144144 0.054769427 1.1628599 1.1794531 -0.33776972 -0.14593172 0.062392168 -0.5953732 -0.14883898 0.30863947 0.0794082 0.55415136 0.074276485 0.22898336 -0.63857317 0.4957467 -0.8295012 1.2767229 -0.063644655 -0.27264607 0.47683573 -0.7220014 -0.74589384 0.6296979 0.081630655 -0.22182459 -1.631894
151 -0.2606684 -0.45884967 0.6535429 -0.3785467 0.07985238 0.2137821 -0.36777917 0.08404858 -0.275344 -0.11924845 0.3327664 0.117142625 -0.05898786 0.08525587 -0.47888577 0.043116193 0.07721129 -0.041747414 -0.41445333 0.4864316 -0.041850086 -0.049916893 0.08590016 0.62865657 -0.26646942 0.28659573 0.0580302 0.30171296 0.10436439 0.26407656 -0.72662306 -0.3460158
167 0.01309404 -0.3530605 0.3942147 -0.20078056 -0.30165225 0.15959947 0.39371005 0.3752282 0.5573214 -0.20687746 -0.22316211 -0.015528488 -0.4208754 0.09544842 0.3997639 -0.3943669 0.5341589 -0.15900818 -0.16279565 0.30246165 0.30626363 -0.347206 -0.16518751 -0.21980098 -0.21064931 0.0732279 -0.25256002 0.017630666 0.31907427 0.003344987 -0.4054236 -0.8941084
108 -0.79207873 0.051091325 0.25876063 0.02809961 0.1277117 0.01551768 -0.14636774 0.19240516 0.36241427 -0.33296165 0.5206176 -0.17581446 0.3763795 -0.23885897 -0.22003047 -0.108779445 0.41442433 0.006779682 -0.6648878 0.2700845 0.38334882 -0.18666735 0.3189166 0.66059744 -0.4991214 0.65978795 0.3608883 0.002805173 0.4165779 0.3473771 -0.88212824 -0.2652047
70 0.33632553 -0.98704565 0.17772102 0.073481604 -0.32921726 -0.70418596 -0.05650797 0.44348216 0.1606696 -0.58856326 -0.09879357 0.17855377 -0.30190927 0.3717892 0.7294475 -0.35935128 1.0986017 0.27020776 1.1915231 0.0504479 -0.21258791 -0.4705338 0.09241794 -0.17725311 -0.2363596 1.0898733 -0.29178095 -0.6005413 0.33189136 0.2876363 -0.19390506 -2.0766819
22 -0.35513824 -0.54993093 0.11339944 -0.73960316 0.33920395 0.38291022 0.17835453 0.23845065 0.040890645 -0.13427472 0.25813425 -0.05140875 -0.1224585 0.37819546 -0.13560067 0.3288719 0.43920583 -0.1479158 -0.06797268 0.39054635 0.3673166 0.11338438 -0.16002606 -0.029145557 -0.39820376 0.12810013 -0.16491745 0.24038985 0.38239244 0.1620112 -0.40809417 -0.2947864
160 0.09462324 -0.60370904 0.7872056 0.045262847 0.3460181 0.13618934 0.1409162 -0.36383128 0.5354835 -0.467087 0.31183323 0.14999527 -0.094442345 0.44383523 -0.12928852 -0.36584744 0.57553816 -0.3351894 -0.121614635 0.04970955 0.32085633 -0.54836184 -0.11386193 -0.5549691 -0.060025908 0.10108466 -0.5208388 0.0065026367 -0.088589914 0.45254853 -0.26870173 -0.5321803
169 -0.34831718 -0.15392269 0.16528699 -0.21625094 0.0005209131 0.2258317 0.10240853 -0.13863851 0.548324 -0.749268 0.32799602 0.374513 0.20852976 -0.03557281 -0.23302518 -0.4260811 0.13147591 -0.10111743 -0.22000064 -0.032208614 0.20742057 -0.3035619 -0.114004925 0.42493802 -0.1927881 0.003243353 0.48383516 0.20640522 -0.07926107 0.11388763 -0.6121279 -0.2883536
95 0.007861351 -0.0907817 -0.14354175 0.29477575 0.47695974 -1.2052836 -1.3145508 1.4075446 -0.4881252 -1.8570434 0.7675461 0.5087301 -0.40877807 0.26620084 -0.53975654 0.33966535 1.5137105 -0.44520122 0.49502316 0.82369584 0.039495375 0.07437202 0.5502716 0.6048596 -0.6443739 0.67268276 0.22725685 -0.040283978 0.30693537 0.632261 -0.27719533 -0.71155787
109 0.0036158185 -0.7220159 0.51009727 -0.22238219 0.39610538 0.18085043 0.18651387 0.01650998 0.31013724 -0.32702622 0.41923228 -0.05902611 -0.074926704 0.08077674 -0.019342653 -0.041864943 0.45058414 -0.11494532 0.03719772 0.057395093 0.20867065 -0.21772838 -0.12638077 -0.49766466 -0.30539468 0.106378935 -0.40663794 0.2959372 -0.095202856 0.2137428 -0.30799037 -0.47075123
79 -0.46112683 -0.2739111 -0.0008607804 0.05371848 0.7364802 -0.7221604 -0.8687179 1.4280852 0.3285862 -1.1811386 1.7730864 0.1438735 -0.15997796 -0.2249403 -0.8080762 -0.0046176254 1.214348 -0.8172247 0.6441432 1.501068 -0.49717826 -0.9130228 -0.07789382 0.51895005 -0.36583316 1.459325 -0.45658427 -0.13431665 0.67586327 0.7020898 -0.43271184 -0.14064975
144 0.6055389 0.14093025 -0.39933324 -0.79312164 -0.026938455 -0.06021847 0.08827679 -0.114184156 0.4073227 -1.431662 1.3172289 0.5459935 -0.67369646 -0.49984914 -0.6894624 -0.44403797 -0.056026075 -0.78225046 -0.22274639 0.4551427 -0.8649576 -0.61533034 -0.22440366 0.13266532 -0.23558101 0.70460355 0.25486824 0.8261417 0.5802083 0.51039875 -0.8521613 -0.42108452
45 -0.21141641 -0.51264644 -0.13337044 0.69063514 0.41776362 -1.2015296 -1.2563115 0.2635586 -0.1307264 -1.5479574 0.15748164 -0.277504 -0.0042835744 -0.008172654 -0.35067186 -0.24101107 0.22651455 -0.39891845 1.052509 1.3364414 -0.86415315 0.29431581 -0.48138505 0.9492621 -1.0148274 0.66034967 -0.8397842 0.42138985 0.017628036 0.7180286 -1.1979362 -0.8829576
80 0.32434058 -0.097829685 0.1423356 0.04465044 0.79248405 -0.48281416 -0.6216645 1.59182 0.76694316 -1.6986933 0.80814654 -0.15022685 -0.69148713 -0.6607353 -1.3195096 0.44766778 0.40569702 -0.97878253 -0.20212454 0.9303084 -0.124366775 -0.2698749 0.8552002 0.58568335 -0.7734262 0.28035933 -0.51234746 0.4776168 0.6898358 0.8702995 -0.6948201 0.111613825
5 0.061370775 -0.53244996 0.12416094 -0.7162476 0.4878774 0.29699928 0.35134506 0.11395403 0.3886152 0.030625 0.33113295 -0.22019969 -0.42783543 0.3833803 -0.33085307 0.10314343 0.7299018 -0.1042603 0.28638425 0.10143176 0.04665496 -0.053045817 -0.3182804 -0.30261517 -0.9287729 0.0061671427 -0.05470122 0.14858209 0.1286733 -0.126554 -0.46850893 -0.3230791
131 0.3572759 -0.024065958 0.39319992 -0.5501141 -0.3694894 0.28508434 -0.60303384 1.2030451 1.3242706 -1.3324018 1.7713536 -0.6670704 -0.46181878 -0.45224005 -0.3688793 2.0937538 1.1859621 0.52215433 0.31576 0.32736906 0.8274515 -0.8206675 -0.35831577 1.1575708 0.08080171 2.278391 -0.90015155 0.10201592 0.34991145 -0.17076164 -0.0027362097 -0.001296367
127 -0.0931927 -0.60606354 0.6756229 0.24705206 0.68994844 -0.14910454 0.14129353 0.21655428 0.19288917 -0.08984096 0.5659936 0.10077144 -0.19169396 -0.35813493 0.32282978 -0.049197115 -0.15146787 -0.08106973 -0.22586031 -0.44739056 0.57541984 0.028493509 -0.4510236 -0.25987515 -0.33364722 0.6344592 -0.27611348 0.99341583 0.057423662 -0.0028683222 0.017852487 -0.7734251
110 0.20855501 -0.7377353 0.81379163 -0.116719514 0.20202222 0.11542017 0.032205712 -0.093543164 0.5046164 -0.4599049 0.50025755 0.13031882 -0.13917018 0.103655875 0.01798435 -0.24547571 0.29923058 -0.29337785 0.035768077 -0.051172804 0.22006916 -0.3696126 -0.1795206 -0.6320763 -0.16620968 0.040956594 -0.43767944 0.13662554 -0.3188031 0.27822495 -0.16261716 -0.67801124
92 0.046576135 -0.0921137 0.29879633 -0.41954198 -0.044589482 0.06920023 -0.045611806 0.19337359 -0.107431814 -0.41404647 0.7665156 0.2731951 0.25193718 0.005250437 -1.081808 0.50451267 0.09824419 -0.05376503 -0.5025462 0.5458747 0.6851079 -0.08504164 -0.37918535 0.010973035 -0.043769594 -0.0064019575 0.2560465 -0.1450347 -0.12146833 1.0415024 -0.60884166 -0.6894378
161 0.17752488 -0.75656754 0.7885529 -0.096600115 0.19678466 0.15500544 0.043292597 -0.13948816 0.5182202 -0.47545248 0.42283374 0.0690777 -0.10238848 0.08778886 0.0046779974 -0.17735301 0.2727995 -0.33082125 0.063823126 -0.05964111 0.13787548 -0.4493886 -0.1665425 -0.6185684 -0.15360767 0.059810605 -0.48772117 0.13787207 -0.1937449 0.3306314 -0.17723818 -0.69058114
30 -0.27754483 -0.4123148 0.10274642 -0.7435083 0.36312327 0.5266367 0.13360012 0.38105047 -0.27731094 0.016379667 0.41577235 -0.10173247 0.22320658 0.54233646 -0.40115124 0.44879258 0.6125464 -0.06821735 -0.22346802 0.5586588 0.3625602 -0.22937848 -0.21569322 0.14991826 -0.23242423 0.08390063 -0.16364509 0.4133508 0.54101914 0.48320937 -0.4488806 -0.45440555
158 0.087883726 -0.7879577 0.8270904 -0.7189755 0.07715343 0.053535193 -0.70163417 0.48181194 -0.52644676 0.1594558 0.194651 -0.37872595 0.3134544 0.5116042 -1.0098808 -0.2198688 0.19379696 -0.2463306 -0.1868447 0.3355822 -0.09846318 -0.07127483 -0.14051223 0.4680929 -0.039530024 0.30668664 0.023820622 0.624603 0.60528874 -0.19210683 -0.89876693 -0.2271142
62 0.10428718 0.13647941 0.7197858 0.14985485 -0.43235648 -0.26693282 0.36962306 0.7265974 0.9303869 -0.58752126 -0.29297146 0.1852894 -0.09825457 0.8457892 0.21332878 -0.46091178 0.37576997 -0.37870494 -0.84056836 -0.021503998 -0.42111942 -1.0872424 -0.702789 -0.032153163 -0.08368853 -0.02426734 0.4971419 -0.25214186 -0.7347735 -0.2461833 -0.6174186 -0.7969695
36 -0.080952205 -0.5406539 0.914364 -0.61214966 0.31248406 0.0403347 -0.57490605 0.59743625 -0.2722752 0.153643 0.11235535 -0.1618313 -0.17908849 0.9051529 -0.2697313 0.48432654 -0.006966542 -0.33418462 -0.87041056 0.7754065 -0.75161886 -0.34814292 -0.39475405 0.62915653 -0.20425817 0.2426823 0.21742348 0.3117723 -0.030879924 -0.11695717 -0.85174614 -0.5123249
116 0.008088023 -0.56921077 -1.1811802 -0.67600244 0.8111896 0.2513998 -1.0303192 0.38462555 0.9552975 -1.3387786 0.7995486 0.7688558 -0.8468568 -0.8243931 -0.46927264 -0.80223125 -0.36388907 -2.124374 -0.47514328 -0.25864106 -0.38049445 -1.2907945 0.5072714 0.14152117 -0.26908726 -0.63088924 -0.4405923 0.4302543 0.80411106 0.22865209 -0.88541764 -0.75502527
136 0.5690044 -0.21071166 -0.19003527 -1.71059 -0.41701797 0.7824786 -1.0082515 0.62581056 2.951526 0.080145516 2.5621855 -1.0630922 0.20289797 -0.5127873 -0.1184201 2.0831594 -0.3856741 0.97043574 -0.4184532 -0.048608154 1.3906076 -2.2503655 -1.556681 1.2286178 0.031631812 1.6013339 -2.3857806 -0.23412558 1.009971 0.12488533 -0.51521736 -0.67307794
154 -0.07442642 -0.17529126 0.3245774 -0.46312118 -0.13290411 0.4447247 0.51801497 0.31347677 0.3629943 -0.037485924 0.17350574 -0.015432887 -0.45074913 -0.17562683 -0.10044675 -0.29048574 0.56019235 -0.26835713 0.28312838 0.26250777 0.05262525 -0.077523075 -0.24714343 0.02005212 -0.6348612 -0.10890773 -0.2603238 -0.1323952 0.26143432 -0.11347045 -0.3512573 -0.8273806
117 -0.18443419 -1.001316 0.34370854 0.16618073 0.15657829 -0.09375821 0.24318604 0.17455032 0.3217384 -0.4448775 0.979043 0.14290111 -0.03209068 -0.3741327 0.17074774 -0.022836072 0.0008729333 0.21723801 -0.3043685 -0.15612577 0.174368 0.33632433 -0.097686335 -0.3130455 -0.33533853 0.19922838 -0.49807084 0.5372799 -0.16061325 -0.41727185 -0.27155775 -0.5732981
76 0.07989938 -0.78159463 0.80005133 -0.6000312 0.10064375 0.38315287 -0.6087485 0.064416625 -0.4908905 0.15887274 0.43337902 0.13784714 -0.033130046 0.5622629 -0.718161 0.20189533 -0.047167737 -0.3340459 -0.2873625 0.52220696 -0.25934485 -0.015663275 0.091390826 0.60876924 -0.29656568 0.42161274 -0.044917706 0.21670094 0.30267942 0.5986412 -0.5620842 -0.39747152
113 -0.2601844 -0.6763392 -1.8344648 -0.2191674 0.34947175 -0.3846709 -1.3709495 -0.6122077 0.18559395 -1.2004365 0.7142572 0.56943417 -0.30917364 -0.19364837 0.23449372 -1.26084 -0.13657688 -1.5205733 0.4442578 0.28996968 -0.7296966 -1.0413424 -1.098973 0.2790917 -0.44337657 -0.20575306 -0.70636886 0.43947014 0.35392573 0.3298916 -1.2620128 -1.4928982
130 0.21907105 0.11104556 -0.7290666 0.2972418 -0.08771932 -1.3956555 -0.59345436 0.47644496 0.041945767 -1.300346 0.7530676 -0.28307733 0.2839167 0.18454449 -0.66452837 0.19844441 0.33180073 0.059757356 0.011507287 1.2226005 0.3351496 -0.16674593 -1.2094122 -0.0066804052 -0.94902337 0.1620253 -0.42533708 0.19498238 0.38837364 1.601285 -1.1078098 -0.796839
134 0.38055277 -0.3829079 -0.505841 -1.1261964 0.686427 0.29858992 -1.1392747 1.4373412 2.7869692 -0.114520736 1.8245935 -0.6475919 0.15277934 -1.0047047 -0.99897987 0.9727944 -0.98151505 -0.52586514 -0.84833324 0.294301 0.8322724 -1.695925 -0.3699148 0.74763906 -0.725265 -0.1686117 -2.3813992 -0.032400467 1.2710787 0.934013 -0.92143023 -0.411062
14 -0.2214465 -0.39363834 0.4641299 -0.25422466 -0.11943851 0.2208933 -0.2771837 0.15904458 0.24486813 -0.15146884 -0.14509408 -0.13502337 -0.32113963 0.16019917 0.257901 0.10704178 -0.013530978 -0.2778419 -0.05201999 0.6160876 0.39291626 -0.03931575 0.11985226 -0.31621405 -0.09842165 0.218052 0.06309637 0.5029708 0.47351566 0.11716798 -0.42216986 -0.4726725
125 -0.15417814 -0.9809302 0.55944985 0.022435276 -0.082546115 -0.8250058 0.5882506 -0.40117148 0.38267514 -0.08313417 1.0355619 -0.0114584 0.26151344 -0.5686036 0.31990117 0.47520784 0.38122794 -0.531805 -0.08693578 -0.08741843 0.27700418 -0.13103434 0.22203597 -0.14888608 -0.4044949 0.13515109 -0.641871 1.1246207 -0.34357515 -0.46686313 -0.0973008 -0.58516526
114 -0.66237384 -0.46560425 -0.94841474 -0.7857255 0.54627967 0.0020694605 -0.91357267 0.04849987 0.17962094 -0.8929417 1.358463 1.2210453 -0.3710039 -0.3274966 0.20356166 -0.95332986 0.5026133 -1.3280008 0.3665723 0.06296695 -0.6770623 -1.5748985 -0.14347793 -0.0678366 0.27199122 0.33741683 0.13100216 -0.11997456 0.8186816 -0.10599527 -0.34617957 -1.083608
37 -0.07435375 0.23210542 0.06402345 0.22331993 -0.6472276 -1.1806958 -0.29240373 1.7487469 -0.13204244 -0.63697743 0.8858222 0.683097 0.074056946 -0.49668804 -0.42567173 0.023855105 0.3589337 -0.32726386 -0.3511673 1.114857 0.6568009 0.31448436 -0.27829418 0.15170075 -0.9041843 0.39118844 -0.5549412 -0.20048612 0.49147937 0.88311446 -0.4178491 -0.8657834
39 -0.09550336 -0.47741002 0.47584388 -0.048502468 -0.10637759 0.10661798 0.18906766 0.2630445 0.46065187 -0.1845797 0.007231894 0.08125432 -0.15589803 -0.034943394 0.5501704 -0.13096325 0.12764087 -0.3130273 -0.02001817 0.19829437 0.3982536 -0.10705469 -0.03487048 -0.4478095 -0.16628136 0.38628122 -0.3982189 0.53774637 0.4977116 0.036717273 -0.20173584 -0.79241854
132 -0.039722666 -0.29956096 -0.9765454 -0.7001433 -0.09957546 -0.4775842 -1.2092574 0.03005499 1.6042358 0.2868663 1.4299861 -0.8107871 0.6670083 -0.135257 0.0182051 0.3890502 -0.8817863 0.6130243 -0.340281 0.66879565 0.91464466 -1.5761075 -1.870965 0.6687854 -0.78452164 0.12877129 -2.313385 -0.27448055 0.80866504 0.9387041 -1.3468258 -1.211062
44 -0.6256881 -0.74760455 0.23337354 -0.07706615 -0.2518506 0.11032498 -0.13747986 -0.12524685 -0.21332943 -0.4402605 0.16483197 -0.13714777 -0.4191795 -0.3891118 -0.56474936 0.28963435 -0.3509363 0.02596231 -0.04579049 0.14189771 0.14688331 -0.48584503 -0.2284317 0.19781911 0.10055623 -0.18298502 0.15534203 0.453999 0.14137681 -0.21880242 -0.37933683 -0.7112125
19 0.061760824 -0.38707134 0.61807555 -0.17477979 -0.2752465 0.23854804 -0.7661824 0.3648084 0.2487302 0.4168667 0.57363486 -0.13579443 -0.13096069 -0.19634624 0.19878781 -0.010811109 0.06280115 -0.20172764 -0.16148862 0.94512856 0.5737259 0.4436347 0.3448004 -0.2854635 -0.042554516 0.1847317 0.40874878 0.4682984 -0.06044739 -0.1416468 -0.8035612 -0.8766482
149 -0.15079997 -0.5007276 0.33695105 -0.5077212 -0.23362674 -0.3252959 0.0106668845 0.1902292 0.6647069 -0.1997509 -0.15432163 0.3499733 -0.43010712 0.5601572 0.2031239 0.26426446 -0.20075445 -0.67490715 -0.25648108 0.11730163 -0.12917508 0.03072152 -0.570362 -0.4198583 -0.259464 0.28096294 0.40581432 -0.07386512 0.44070643 -0.10122909 -0.4535629 -0.38554022
41 -0.3888459 -0.43795153 0.15822875 -0.39257196 -0.08358037 -0.016028814 -0.06391526 -0.2701985 0.09001223 -0.48724318 0.3416974 0.45925823 -0.055734042 -0.094156936 -0.18494089 -0.10686921 -0.057480797 0.002654407 -0.5170965 -0.23047636 0.18622153 -0.019554852 -0.032097913 0.19368552 -0.031232063 -0.08152753 0.2554514 0.469663 -0.0076404177 0.04324802 -0.50108284 -0.6468672
10 -0.14504759 -1.5563805 0.31090674 -1.0942997 1.9964288 0.75462216 -0.43438503 1.5736685 2.0900466 -0.4194726 1.1950747 0.2614003 -0.3279608 -0.6691191 -0.034884598 0.6288083 1.09785 -1.0005119 1.0956835 -0.46738482 -0.98450845 -2.0092483 1.1524115 -0.47644493 0.43667734 0.058495846 -0.45000798 -0.79232895 1.4319841 -0.34235924 0.6013856 -1.7213584
17 -0.12481732 -0.17003068 0.64127386 -0.81105703 -0.54023135 0.46652958 0.08447286 0.45550165 0.104517184 -0.29606286 0.4989829 0.0825478 -0.62347335 -0.21225443 -0.19720975 -0.3767332 0.35742095 -0.02816633 0.26504245 0.1663889 0.48030496 0.0042179152 -0.33244908 -0.22851756 -1.1110038 -0.3746193 -0.14831173 -0.49790052 -0.34879208 -0.29632038 -0.5976799 -0.54754275
6 -0.21202788 -0.6060106 0.15702257 -0.68038756 0.17334352 0.08140919 0.229654 0.13077971 0.293808 -0.0015907987 0.16935354 0.16785663 -0.39691707 0.4212472 0.0033308214 0.146677 0.47572482 -0.26185465 0.02842613 -0.037845496 0.18517452 0.20631579 -0.29578212 -0.20365505 -0.6246274 0.12249368 -0.057489567 0.22317506 0.48923087 -0.011497685 -0.5315478 -0.16873911
85 0.32091013 0.6129998 0.42449093 -0.5006385 -0.40040052 -0.8213301 0.2760381 0.21330868 0.39757392 -0.7831577 1.0272077 0.072457336 -0.052354004 -0.32480386 -0.81217086 0.44473785 -0.5087074 0.68276083 -0.6752415 1.0574335 0.0038669123 -0.6740589 -0.39562076 -0.093552515 -0.4830123 0.17282382 -0.06174161 0.15691316 1.27906 1.1267532 -0.5944988 -0.35299808
42 -0.48110405 -0.54964834 0.35171434 -0.13254374 -0.08580343 0.09412482 0.396668 -0.2703058 0.14961821 -0.4289636 0.108521625 0.008542807 -0.4487414 -0.51532316 -0.3856977 -0.038186733 0.1810957 -0.05796969 -0.12019691 -0.06207027 0.11018504 -0.08740268 -0.2977169 0.59575427 -0.11660629 -0.20847242 -0.04870539 -0.11223492 0.31570098 -0.06478325 -0.36288738 -0.80892277
124 -0.3956168 -0.7572403 0.042496268 -0.5349183 -0.18697421 -0.13867435 -0.077455014 -0.21227461 0.41135564 -0.21620521 0.16744205 0.48798913 -0.32213193 0.44448987 -0.37075934 0.33218172 -0.22156939 -0.5803942 -0.115789875 -0.14637785 0.13110936 0.07261059 -0.365151 -0.13292767 -0.27181265 0.36582607 0.53071266 -0.15481295 0.48477098 0.31360006 -0.55011535 -0.1486526
101 -0.4323916 -0.060521897 0.561766 0.47118697 -0.5612206 -0.6533241 -0.18601061 -0.52680105 0.7237135 0.6165099 0.96738493 -0.5057384 0.63188845 -0.5561273 0.28088728 0.55764097 0.5941909 -0.8982876 -0.40707457 0.67720896 0.80578023 -0.32824287 0.88828105 0.33464605 -0.17049327 0.29797584 0.38442293 1.0317668 0.21442054 -0.062521264 -0.62169254 -0.9303974
143 0.016686024 -0.08651641 0.51166886 -0.36659336 -0.30324635 0.45567608 0.5533807 0.3702328 0.372671 0.07847262 0.1965188 0.29922354 -0.3240731 -0.17282383 -0.16212258 -0.6284402 0.43309504 -0.48711312 0.16896892 0.18931225 -0.008007037 -0.08889003 -0.1964768 0.25142378 -0.6772705 -0.021708615 -0.38735726 -0.27371204 0.069725916 -0.12182815 -0.35066712 -1.014603
4 -0.19185184 -0.4534147 0.5522418 -0.3318596 7.404799e-05 0.3265688 -0.45728353 0.381407 -0.2916297 0.17860366 0.18034388 -0.18323685 -0.11865285 0.2706772 -0.21994464 0.16902106 0.3791969 -0.04171567 -0.3630557 0.47670886 0.16560982 -0.3027632 0.033643395 0.05502172 -0.2731941 0.17392865 -0.06489997 0.56753916 0.43995196 0.2670052 -0.5066193 -0.38792485
166 -0.51067513 -0.6217164 -0.01898785 -0.43776372 -0.50500953 0.7842788 -2.3462903 -0.2085274 1.6971922 -0.6279135 2.2372847 -0.53330934 1.0380858 0.21680659 0.8188412 1.9054551 1.9696312 0.6996599 1.9916594 0.5382157 0.22579186 -0.37539494 -2.1047692 1.2809101 0.50445724 2.27654 0.016965756 0.13707381 0.72890514 -0.0065528867 0.0018180662 -2.681515
73 0.27630472 0.24366684 0.48384765 -1.6498063 -0.22368512 -0.6529914 -1.2116573 -1.0326419 0.08408628 -1.8326536 0.97203165 1.2153792 -0.89913344 0.7139837 0.07353662 1.6220955 0.83415216 1.3806715 -0.95770556 -1.7370123 1.9101859 -0.9560158 0.4624971 1.2082272 0.14649786 0.087789334 0.7473882 0.017215464 0.48998144 -0.5564008 -0.80182576 -3.1645923
148 -0.6573772 -0.09835817 0.1403422 0.1544224 0.069784656 0.11700063 -0.43585587 0.23519215 0.7021186 -0.05480927 0.59401643 -0.5597868 0.30383882 -0.45718053 0.112537004 0.02137596 0.4207273 0.24912968 -0.5818489 0.4321721 0.7445102 -0.08159939 0.41435072 0.32712698 -0.3418512 0.40652153 0.54502517 0.18336873 0.3422975 0.19558002 -0.8142875 -0.6664112
28 -0.08798516 -0.37154165 -0.22769004 -0.12040332 -0.03109741 0.59504175 0.19563074 0.0067494023 1.3375016 -0.5232515 -0.3925783 1.3413053 0.3486226 0.7947164 -1.1895032 -0.57343227 0.28825265 0.32269502 0.09531209 0.64531696 0.22819039 -1.0307351 -0.2530827 0.25879994 -1.0990248 0.22863993 0.7037176 0.658852 -0.70207894 -0.3570724 0.17544031 -0.27689892
77 -0.3173251 0.2413104 0.6889562 0.2302928 0.961161 0.030486805 -0.060951736 0.30787998 -0.05614888 -0.15425521 0.21932285 -0.23631448 -0.43263578 -0.012093385 0.318636 -0.060567465 -0.95609576 -0.4819933 -0.057663757 0.3090692 1.6663083 0.06841817 -0.29030865 0.037629332 -0.09530959 0.9220195 0.52873373 1.0138026 0.40917465 -8.669843e-05 -0.09253159 -1.0596514
52 -0.45005855 -0.32362273 0.34590545 -0.6939777 0.4470756 0.747829 0.19040145 0.47064137 0.06419349 -0.4283607 0.22315234 -0.13697343 0.42298594 0.5127117 -0.2909813 0.6080772 0.41342983 -0.6455836 -0.23101887 0.6290817 0.5922122 0.18951233 0.056205895 0.14922322 -0.10170557 0.00708238 -0.04492793 0.20168953 0.52020967 0.59240705 -0.45809317 -0.73596936
38 0.7053802 -0.18701054 -0.2278414 -0.9169533 0.18458654 0.086932555 0.33962822 0.68091196 -0.24432528 -0.024961209 0.59048706 0.08142852 0.9997672 0.17022954 -1.4993218 0.24815148 0.36065087 -0.3146062 -0.17570351 0.27579534 0.35480425 0.10956818 -0.65159947 -0.2284261 -0.038090155 0.19294809 0.283536 0.5855101 0.44733965 0.9538412 -0.7979986 -1.0058923
24 -0.5653893 -0.12189238 0.90461516 -0.5907796 0.4504176 0.21827562 -1.1764243 -0.1809798 1.5188422 -0.5485948 1.7711474 0.0626631 1.1596231 -0.3139259 -0.09467589 1.1966234 0.7774564 0.89266104 1.6264035 1.2251242 -1.0391515 -0.010274866 -0.8174136 0.294597 0.14150235 0.79740465 0.97230554 0.5292973 1.701902 0.78218925 -0.17122197 -2.534464
51 0.06827527 0.21385382 0.1432307 0.061397187 -0.17001078 -0.6751618 -0.79551476 -1.4344883 0.0063979365 -1.5480015 1.8045468 1.7078938 -0.3658837 1.1086831 -0.44719937 1.3800502 0.41522074 0.59558207 -1.0896481 -1.342442 0.6275418 -0.4616988 1.2054346 0.18849687 -0.022534287 -0.4992254 -0.43029156 -0.049022682 1.1796751 -1.4635323 -1.3476932 -3.5673869
29 0.02171775 -0.05128446 0.043917164 -0.8223927 0.36758673 0.41195133 0.20752968 0.8977775 0.45402429 0.14132714 0.84451985 -0.13628417 0.7329818 0.7132674 -0.3320062 0.8530215 0.3255477 -0.49782455 -0.8403317 0.51668143 -0.32429186 -0.22072442 -1.0672524 0.018832864 -0.18984252 0.019564746 0.42599303 0.21270177 0.0070773433 0.65928847 -0.6433328 -1.1360104
146 0.040835835 0.40639597 -0.043778554 -0.36180338 0.25478417 -0.5660053 0.25832134 0.19285284 0.4356385 -0.30854672 1.2352302 -0.12905484 0.5094907 -0.25680378 -0.686254 0.085218094 -0.28766817 0.32979053 -0.5522371 0.22246753 -0.11095085 -0.35787597 0.118190184 0.49259052 -0.728514 0.91698253 0.1310964 0.1639013 0.16721675 0.41744187 -1.060437 -0.48352283
168 -0.21087289 0.26138252 0.88032544 0.40293416 0.5951574 -0.0071546095 0.5109659 -0.043249346 0.054708093 0.12902181 0.24966745 -0.24289052 -1.2634029 -0.9124978 -0.586815 -0.30282632 0.24586911 -0.34885502 0.037286125 -0.70032924 0.71953446 -0.09715316 -1.0872785 0.7928137 -0.6892087 0.38657835 0.030735914 -0.045790724 0.37544167 -0.25819883 0.077863604 -1.3475643
11 0.13445273 -0.096991345 0.43733245 -0.36563694 -0.31394583 0.056947466 0.11976319 0.7468137 0.91620916 -0.7157684 0.10077078 0.12057237 1.0815679 0.5860248 -1.2251229 -1.2694769 0.5616769 -0.13131824 0.49983582 -0.43919003 0.32617638 -0.657557 -0.58104783 0.19311188 0.22516455 -0.29889375 0.55910116 0.81227547 0.13635677 -0.41127345 -0.70653385 -0.1346361
152 -0.47432292 -0.36199746 0.11338642 -0.57350373 0.035569686 0.107912846 0.24700674 0.22100481 0.1741752 -0.6993701 0.6491079 -0.012434831 0.025569785 -0.20957932 -0.028229402 -0.18790002 -0.57980025 -0.14356084 -0.13394865 0.6853188 0.9021096 0.40485278 0.19059548 0.33730084 0.015637983 0.1796998 0.32042626 0.013439064 -0.36123624 -0.2188786 -0.45574933 -0.7822467
90 -0.34672037 -0.035060894 0.011177037 -0.9682037 0.64300823 -0.7977605 -1.0721536 1.1523538 1.6176211 0.46018374 1.8334411 0.17641214 0.6727878 -0.33302385 -0.20172055 0.8454725 -0.40265936 0.7218534 -0.3616622 0.28006163 0.96315867 -1.6827059 -0.2322387 0.50138026 -0.44408187 0.241611 -1.7303201 -1.0489949 1.191291 0.3658196 -0.514118 -1.0287904
8 -0.56194156 -0.85672 0.18470421 -0.20329164 0.009448265 -0.13014401 0.21509011 -0.07325437 -0.02401168 -0.22996667 0.27955332 -0.1180817 -0.4290297 -0.17117926 -0.5526324 0.0023563935 0.18295923 0.13237713 -0.4422798 -0.17966306 -0.020668495 -0.12404974 -0.18560603 0.20423765 0.14296213 -0.1917852 -0.16266099 0.6584531 0.013639809 0.048680384 -0.20511696 -0.84780794
165 0.09175486 -0.23004119 0.052457992 -0.43525127 0.45834845 0.048323207 0.25652885 0.59422576 -0.3369313 0.21656668 0.035538338 -0.15011492 0.0935852 0.49950212 -0.31935275 0.6774318 0.6675499 -0.32151046 -0.6415925 0.78070873 0.4303029 -0.22760527 -0.35875207 -0.34377715 -0.12500212 0.287889 0.214073 0.27643117 0.29875657 0.33877745 -0.7922327 -0.8542597
97 -0.5872007 -0.07421166 0.102616586 1.7384824 -0.19155006 0.7606114 -0.31657875 0.040716663 0.785543 -0.08639446 1.4740336 -0.24050516 0.424807 0.19893397 -0.18879226 0.2088618 0.28921944 0.25386754 -0.9450099 0.32651046 0.23047473 0.57127684 0.5308729 -0.51349175 -0.15864329 0.6262048 -0.22581618 0.31269658 0.9247222 -0.7546215 -1.0404885 -1.037186
0 1.084566 -1.098052 -0.020976303 -0.3992986 0.09356699 1.7729989 -1.6042739 1.3799156 2.3332253 -2.8047545 -0.2559546 -0.9063947 -0.31105843 0.321414 -0.37689665 3.0840228 0.9414348 -1.9631193 0.69754314 -0.77894515 1.2481897 1.009147 0.06124917 1.3761091 0.039894767 0.30776098 -0.7743904 0.6977176 -0.113031104 0.123002365 0.25098392 -1.7036841
164 -0.39068472 -0.40771416 0.8488267 0.15227027 -0.9859132 0.25555784 0.15206958 0.34425768 0.29837957 0.031149972 -0.10699297 1.0030686 -0.021279732 0.047989752 0.5067986 -0.38580275 0.07856278 -0.9516304 -0.32863468 0.37376788 0.68933946 -0.010242997 -0.020495983 -0.0046795406 -0.0167561 0.6313423 -0.9646639 0.07293599 0.80919963 0.19381256 0.016962497 -1.0082655
102 -0.8283468 -0.43553993 0.48870808 -0.20197508 0.9254793 0.020695461 -2.2296078 1.0030987 1.4200553 -0.27860358 1.7028031 0.49719194 1.1604385 -0.11207678 0.14098603 1.2103513 1.5300215 -0.02244756 1.2833315 0.3083639 0.09644118 -0.09425478 0.030158248 0.66027147 0.09427348 0.6197551 0.3663015 -0.41569015 1.0957221 0.23063782 0.22514074 -2.4643674
75 0.47042954 0.3274786 0.018280508 -1.5042518 -0.34817377 -1.9173795 -0.41829136 -1.6342316 -0.064654894 -1.054987 1.0129097 1.1782774 -0.41453546 0.059829973 0.1211514 1.2200986 0.4569295 -0.4359447 -0.5377148 -0.84398276 0.73725504 -1.3744385 1.297862 0.9699342 -0.24395381 -0.74332523 0.26598433 1.057899 0.4359774 -0.64060104 -0.8603524 -3.0791893
139 -0.24927296 -0.11043865 0.5862652 -0.01590798 -0.5510509 -0.5949294 0.9283206 -0.7732496 0.35119995 0.20738253 0.5992561 -0.2922386 -0.52937347 -0.9120126 -0.57493675 0.42028695 0.9608982 -1.0982143 0.23843154 0.09181308 0.25654697 -0.2898438 -0.017181266 0.84564453 -0.48728985 -0.2779492 -0.48400107 -0.17456079 0.01911706 -0.6218595 -0.3000457 -1.0998412
111 -0.50707346 -0.18161412 0.16620235 -0.049210846 -0.30597946 0.4958377 0.4983555 0.59098804 1.1573346 -0.44577122 0.7916843 0.60038376 -0.059107408 1.2013249 -0.41976142 -0.5715184 0.18893412 0.018565344 0.70508075 -0.39494023 -0.14400975 -0.6831349 -0.20908816 0.7901059 -0.29843077 -0.57026505 0.59010905 0.7962131 -0.42869505 0.72980577 -0.49244565 -0.08614562
126 -0.060413856 -0.80943865 0.2818441 -0.8768235 -0.292378 -0.46460322 -0.23738617 0.10844139 0.53147596 -0.23347338 -0.042219352 0.28367895 0.23060288 0.50297713 -0.81004125 -0.06391991 -0.104212865 -0.80741173 0.17430027 -0.4088056 0.25368202 0.26774198 -0.6631149 -0.42890537 -0.00988098 0.40854612 0.59539396 -0.03691054 0.98163956 -0.14977145 -0.7777072 0.020966355
16 1.0094445 -0.7519198 0.24448049 -0.5416615 1.1947949 0.9437707 -0.8483306 1.6993518 2.7658615 -2.2134342 -0.37843975 -0.6117397 -0.11513309 -0.44454205 -1.2885486 2.233492 -0.69434476 -1.9115305 0.15339509 -0.16776441 0.39232174 0.6827336 1.0151838 0.8022356 -0.5893992 -1.0376716 -1.2019678 0.8167261 0.9130035 0.9683214 -0.31714058 -1.3978189
137 -0.6030963 -0.46353936 -0.5022201 0.23454536 0.12262093 -0.2687753 -2.038382 -0.44722915 0.99805766 -0.21944737 0.9717727 -0.31386974 1.1326448 0.011155257 0.39276397 0.27054408 0.48947653 0.17684421 1.0853839 0.9123276 -0.092442505 -0.017546577 -1.4966369 0.7064292 -0.41262013 0.26740924 -0.3424836 0.2998471 0.8598413 0.90148175 -0.8367776 -2.5489647
88 1.1449194 0.5608858 0.1329938 -1.224972 -0.18176697 -0.6093825 -0.020998586 -0.59780973 -0.14132115 -2.0884988 0.9510738 1.2854459 -1.3984016 0.19058365 -0.42051676 0.7304702 -0.7542396 1.0907633 -0.8730723 -0.6438058 0.1765902 -0.60506725 0.63219887 0.15184894 0.009976153 -0.05006739 0.17751394 0.7994697 0.95968205 -0.4495755 -0.9409662 -2.5046685
12 -0.32634643 -0.14746416 0.29675508 0.9236003 -0.16482905 0.5100954 0.66494495 -0.25336546 0.36451867 -0.22767168 0.84208775 -0.07828839 -0.8140429 -0.44936955 -0.8774069 0.08394166 0.563682 -0.22028886 -0.16958314 -0.1904693 -0.08503237 0.36826572 -0.36723107 0.28718868 -0.29707918 0.007424043 -0.7717822 -0.70767456 0.6253891 -0.9599153 -0.5988547 -1.2907503
60 0.34786767 -0.08919945 1.0401702 0.041603368 -0.6586321 0.115886785 0.0734094 -0.057628535 0.25617534 0.22116686 0.24078356 0.83882415 -0.13977903 0.56358564 -0.16505258 0.3228353 0.7617014 -0.6242139 0.57134104 0.18428892 0.90562606 -1.2563252 -0.39835158 -0.30057272 -2.531461 -0.3253655 0.21270223 0.6493942 0.21817943 -0.77463967 -0.4805498 0.059540283
147 -0.48039353 -0.59149337 0.16419467 -0.047176376 -0.62315214 0.10029944 -0.12329683 0.53236973 -0.25654635 -0.2152488 0.41283628 0.014362941 -0.064117156 -0.48713413 -0.86697155 0.46599123 -0.33460572 -0.029724644 -0.07537518 0.36547795 0.63022494 -0.2938691 -0.3588806 -0.13255267 0.16085112 -0.024318429 0.6399382 0.27998507 -0.2589756 0.11142069 -0.41950315 -1.0100915
3 0.38458982 -1.0355467 -0.7575749 0.26142836 0.73118216 0.24572924 -1.6388898 0.85771894 1.4979528 -2.0345068 -0.8475472 -0.59308743 0.36010647 0.3705375 -0.2376032 1.3701353 -0.07556898 -1.7403771 0.85408163 0.07747739 0.6125878 1.025068 -0.23864847 0.9115913 -0.76957226 -1.0395378 -1.2739545 0.48151714 0.09539433 0.83433026 -0.66684973 -2.1900914
87 0.39667678 -0.24437861 -0.9182141 -0.66460764 0.1355722 -0.5470333 -1.4064721 -0.8055178 -0.23055668 -2.0426996 0.11797 0.8576486 -0.783656 0.53877705 0.13049439 0.5918639 -0.038266797 0.29656032 -0.47166887 -0.9772649 0.8768105 -0.15058178 0.16427872 0.66587543 -0.34110063 -0.87068886 -0.24591194 0.6670979 0.19045469 -0.34890613 -1.2334853 -2.8133373
69 -0.7160457 0.41157246 0.8246955 -0.59672314 -1.0182528 -0.17986956 0.04317395 0.124412104 0.3447133 -0.14261614 0.5473211 -0.14978652 -0.45767376 1.0958239 -0.4380343 -0.104745574 0.38670817 -0.6866393 0.3641961 -0.1240677 0.529071 -0.8620109 -0.022559952 -0.66725785 -2.373586 -0.09735516 -0.20901892 0.612433 -0.074718334 -0.5925647 0.2478322 -0.4686662
35 -0.51237136 -0.08003034 0.28244206 -0.3051917 0.037279204 -0.7411459 0.9368002 -0.43304935 0.11973246 -0.36401436 0.83625185 -0.27986255 0.27004588 0.14413656 0.33683798 0.47277397 -0.38982886 -1.1855124 0.308706 1.1918862 1.4327776 -0.1673771 0.7737204 0.30308908 -0.057840955 0.3614952 -0.22713874 0.8894049 -0.20832573 -0.76570374 -0.3295533 -0.7365066
15 -0.3714948 -0.8032973 0.3555249 -0.12793383 -0.81779677 -0.07103057 -0.12036416 0.75815344 -0.37673768 -0.3740199 0.44051605 0.0040120427 -0.21590622 -0.67911726 -1.0641825 0.3218764 -0.7882183 -0.07275681 0.22921519 0.43147087 0.6257427 -0.29875225 -0.4644731 -0.27642623 0.21885242 -0.3011027 0.5114625 0.35205093 -0.4730652 -0.48743117 -0.35944 -0.9791588
83 -0.14949493 0.05189164 -0.47765037 -1.4921544 0.4266629 -0.47121337 -0.838209 -1.0644904 0.36392942 -0.595886 0.97037756 1.0555311 -0.18893221 0.1836901 0.3036911 0.3228146 -0.7694137 1.1007166 -0.43243822 -0.71426064 0.5130684 -1.4456483 0.0037344247 0.42197067 0.08437183 -0.55563945 -0.586096 0.2266213 0.9974712 -0.4607582 -1.0910727 -2.7635505
84 0.8739046 -1.9370025 -0.05104267 0.67488176 0.27292043 0.32410765 0.6608578 -0.29386875 0.23472 -0.37360296 0.15984385 1.2074355 0.25819263 0.0052228053 -0.321369 -0.18081892 0.05317237 0.19132105 -0.3021376 1.072809 0.8913809 -0.8064229 -0.46156746 0.8689867 -1.3001287 -0.15744905 0.88903785 0.052607488 0.5091837 -0.7626167 0.21010032 -0.091039084
68 -0.16891453 0.26026464 0.7607257 0.74872935 -0.6842474 0.99165523 0.034204457 0.27228034 0.2734143 -0.37395424 0.8939684 0.3490258 -0.41014248 1.3057923 -0.67121184 0.15536816 0.28481725 -0.23798671 0.34630015 -0.052775193 0.44830889 -0.65907764 -0.28456318 -1.2737683 -2.2131386 0.0040092072 -0.36977124 0.06310969 0.47734383 -1.2050567 -0.8676832 -0.46003044
46 -0.7787148 -1.2350372 -0.62518805 -0.31187275 0.09037324 -0.20280622 0.36749104 -0.32788044 0.5878918 -0.37074274 0.17494392 -0.1986709 -0.21200064 0.7998271 -1.3118558 -0.45541778 -0.6556538 0.01749169 -0.57292557 1.2067877 0.7284665 -0.06445507 0.39855772 0.25599623 -0.8869984 0.8926438 0.5583638 0.19756901 -0.15352473 -0.7332191 1.1504664 -1.0294
78 -0.6705464 -0.9972719 -0.03310715 -0.49125633 -0.17977728 -0.73597807 0.17995866 0.32609063 0.16811654 -0.54794025 0.6884435 -1.4413368 0.3951369 0.5268547 -1.3655125 -1.0046082 -0.4480573 -0.40636256 -0.36843762 0.32462433 1.0032927 0.2183899 0.14522408 0.07752199 0.32908005 0.4689558 0.72608787 0.27794954 0.5505128 -0.74443185 0.06812196 -0.9825612
157 -0.66956306 -0.043885868 -0.041013774 0.6373202 0.44303748 0.4692155 0.8034133 0.13310131 0.1262957 -0.94484544 1.0731397 -0.042452246 0.015135864 0.6655928 -0.0041020815 0.109047085 -0.70555073 -0.2191941 -0.09059165 0.83206743 1.0608324 0.52501166 0.37968197 -0.29173923 0.10844534 0.61177075 -0.6064963 0.26468956 0.4198094 -1.0931283 -0.6520769 -0.9160145
100 0.035471305 -0.060926832 0.050116066 -1.283785 0.9933151 -0.04865044 -0.9946044 0.23813051 0.5037012 -1.3833296 0.5174661 1.3363392 -0.6540562 -0.084847495 -0.17812183 1.0680907 0.05601748 0.14024228 -0.57976854 -1.3901417 0.8658931 -0.69037473 1.6661847 0.33999133 0.18266213 -0.86263573 0.13853928 0.18725868 0.7444039 -0.6633386 -0.34093964 -2.102911
99 1.1505189 -1.9353671 0.4723716 0.45500726 -0.025150888 -0.27669847 0.5398842 0.42628974 -0.14375383 -0.549782 0.61074185 0.052659158 0.99972206 -0.1081392 -0.6611698 -0.9197987 0.17005777 -0.26105753 0.12186516 0.1844949 1.1258477 -0.5204582 -0.7893506 0.6477051 -0.16302218 -0.5785015 0.9332002 0.25479573 1.281356 -1.080299 -0.53112036 -0.016515443
21 0.53844035 -0.21780877 0.4017633 -1.804504 0.28943855 1.2659831 -0.008450055 -0.12073786 2.1508057 -0.2026163 1.8249675 -0.4107921 1.0111867 -0.5281645 -0.9998189 1.0528725 -0.9802262 0.29539686 0.59433913 0.8671578 -0.86283594 -0.56780946 -1.1007423 -0.100328416 -0.3015506 0.049285818 -0.4960673 1.0248333 1.7107297 1.3567415 -0.42994243 -1.4233664
57 -0.13914683 0.6278752 1.4873965 0.0117792385 -0.021716207 0.54135233 -0.27327284 0.62257594 -0.033940434 -0.045758728 0.2286226 0.06004943 -0.83066946 0.47744137 -0.32234114 -0.17355214 -0.25322297 -0.55551356 0.69962794 -0.55666727 1.3631879 -1.2946253 -0.9607646 -0.76157504 -2.5516353 0.52283067 0.5182349 0.62306297 0.10050351 -0.2731169 -0.3037517 -0.8019931
86 -1.4169014 -1.3643073 -0.37014052 -0.1382295 -0.41807055 -0.589424 0.57765794 0.38973486 0.39154232 -0.19727604 1.6018194 -1.2293662 -0.7177178 1.365006 -0.9627506 -0.5083093 -1.0784861 -0.34749115 -0.06682642 0.19323254 0.65103376 0.2425813 0.57021844 0.6074473 -0.29846895 0.33440405 0.9686278 0.35811275 0.024588581 0.28852707 0.44535986 -1.0110682
43 -0.1864371 -0.07709977 -0.24521525 -1.0224028 0.4117933 -0.48610556 -0.838026 -0.51614517 -0.48497084 -1.4886006 0.7665219 1.4020699 -0.27875143 0.3798412 0.34657013 0.5990901 0.5829975 0.65883744 0.7303969 -0.45834017 -0.14949286 -0.35337636 0.23752 0.19996552 0.3533698 0.079313226 0.4652266 0.31276166 0.47216213 -0.5492109 -0.22901618 -2.4983394
81 0.5883432 -2.2422953 0.22066475 0.98279744 -0.018824188 0.20900573 0.99387085 0.24077405 0.067632206 -0.1647674 1.4370235 0.7760108 -0.17632961 0.53167063 0.09876585 -0.11845421 -0.298144 -0.12305658 0.37803006 0.32361475 0.7819084 -0.67146784 -0.42803103 1.413664 -0.8407956 -0.82842445 1.1748055 0.16658069 0.7085792 0.1470091 -0.4132637 0.08057917
56 -0.1476941 0.45658648 1.3223767 -0.37566492 -1.1936357 0.13830458 0.21197556 -0.1583413 0.25127587 -0.035751816 0.67898595 -0.29195333 -0.16668855 0.49809211 -0.42196044 0.6437782 0.43007675 -1.5054314 1.1533556 0.36589006 1.0430092 -1.6249828 0.1642441 -0.9686633 -2.274527 -0.05488448 0.039851867 0.2768164 -0.4110728 -0.72077554 -1.1047928 -0.7036698
94 -0.888871 -0.91777176 0.19331767 -0.19886498 0.23292193 -1.1525433 0.5511427 0.57159877 0.7385872 -0.6471698 0.7277204 -1.2685884 -0.3244951 1.2851888 -0.51275486 -0.14791478 -0.7529145 -0.80101085 -1.8068206 0.97334075 0.08221471 -0.045122135 -0.31771937 0.38749373 0.16119802 0.5298143 1.268991 -0.1663148 -0.42327973 -0.83812404 0.038922694 -1.6010259
20 -0.9632874 -0.9858662 -0.015551818 0.52680147 -0.19907448 -0.410071 -0.09656301 0.6615 0.936173 1.9720621 0.7167205 0.388209 -2.0384429 1.7260916 -1.3625894 0.24072978 0.44474307 0.06409729 0.3879353 0.9922383 1.1503711 0.13785177 0.1681411 -0.302956 0.46579108 0.059935875 0.6432193 1.6837095 -0.09824522 0.39541963 -1.2098498 -0.63302267
112 -0.9322243 -1.2864126 -0.27558908 -0.35064083 -0.24424759 -0.77150095 0.43279123 -0.20049803 1.133743 0.13501622 0.018028725 0.654856 -0.9356453 0.92192084 -1.5664566 -0.735824 0.7105998 0.5165271 -1.0332097 0.3023326 0.09563462 0.1003541 -0.3758214 0.18813549 -0.62242204 -0.10371197 -0.32112858 1.4485811 -0.15053974 -0.5550642 1.5431017 -1.0201291
82 0.96664846 -1.8977805 0.67629063 0.7561878 0.39322925 -0.3098754 0.8496581 0.5050947 0.26588824 -0.66611385 0.58733714 0.44999805 0.3924603 0.44928038 0.40175387 0.07796139 -0.1844485 -0.5251407 -1.1109166 0.86869115 0.08905715 -1.0096058 -1.106727 0.9588732 -0.7309968 -0.4921917 1.487582 -0.32538196 0.34054974 -0.9615679 -0.6341367 -0.43356758
54 -0.048467517 0.18986556 1.3984015 -0.03452874 -0.8825733 0.602743 -0.3050576 0.34984747 0.55277944 -0.05017106 0.91615903 -0.5779264 -0.306871 0.12591134 0.10168675 0.027415281 1.1979496 -0.49855727 0.039963596 -0.43361357 0.6461126 -0.7624735 -0.17589827 -0.82757 -3.111374 -0.019423246 0.08724301 0.2066975 0.3877624 -0.2172255 -0.9311526 -0.9231869
118 -1.2247564 -0.9736873 0.29218617 -0.8174311 -0.95445496 -0.24825655 0.39865208 0.48765182 0.19318652 -0.75910133 0.83350617 -0.43617532 0.17275137 0.86648184 -0.92406005 -0.9476732 -0.27340034 -0.5059218 -1.1477046 0.017862566 0.069987334 0.2958149 0.14014634 0.58314997 -0.5649825 0.23696485 -0.024996402 0.48622876 0.14411263 0.10032378 1.0703427 -1.6029121
32 1.0220169 0.5786835 1.503483 0.12093383 1.2822479 -0.5197545 -0.36662394 -0.6776785 1.3779167 0.19164823 0.8698707 0.124833405 -1.4837943 1.1421893 -0.022550398 -1.7544905 0.7545797 -0.17975034 -0.3156202 0.30043706 1.5809689 -0.07608359 -0.8623399 0.06777754 -0.8698428 -0.12960188 0.6058575 0.37176138 0.18750423 -0.1810396 0.37140566 -0.65142465
104 -1.4951403 -0.8719996 -0.64774823 -0.15633056 -0.60511833 -0.3451669 -0.5287821 0.12057624 0.803937 0.6157429 -0.16052769 -0.57189506 -0.5780541 0.5509603 -2.5664952 -0.3568656 -0.13533388 0.26104134 -1.03446 1.0011352 0.67633456 -0.38845065 0.7018764 -0.664178 -0.8567279 1.4295592 0.9549877 0.583056 -0.831393 -0.045710355 0.48735735 -1.4787371
96 -0.7277701 -1.0741256 0.35956335 0.04976532 0.100002274 -0.62594527 0.27440643 -0.6418203 0.39390573 -0.695241 1.3091058 -0.90457964 -0.18580344 0.8274881 -1.5636259 -0.8561699 -0.53868836 -0.74278945 -0.9990495 0.85637045 1.3037078 0.16728812 0.35613152 0.5184228 0.67533785 0.63842684 0.6924266 -0.27834952 0.0007797093 0.30399892 0.3972178 -1.5295192
163 0.13702726 -1.4256508 0.303178 1.162967 0.2175514 0.20446055 0.2638802 0.61737096 0.31100804 1.6912305 1.0270617 0.87422407 -1.4132721 1.0596069 -0.325042 0.5123832 0.42162955 -0.053090133 0.5908914 1.171174 1.5447888 -0.19834435 0.016385628 0.261014 0.24892594 -0.2705843 1.0484601 1.276869 0.49331614 0.30839399 -2.1700523 -0.2192528
115 -0.6738126 -1.2353246 0.32261172 -0.33205345 -0.31399158 -1.1189606 0.48376307 0.31424576 0.7912428 -0.042999566 0.57223856 -0.11368181 -0.6209018 0.6766544 -1.3055748 -1.21979 0.7457591 0.11286703 -0.7029657 -0.13469589 0.43151024 0.42774197 -0.6283834 0.40362945 0.5698301 -0.6953501 -0.27606106 1.4499992 0.49639606 -0.5726248 0.6620377 -0.911904
74 0.502065 -1.9841281 0.24852845 0.38559973 0.15493628 0.07812402 0.8694188 -0.19551101 0.21742503 -1.0908244 1.0087528 0.0031485162 0.4245577 0.3342925 0.24634121 -0.79723275 0.36632574 0.0046838387 -0.87964356 0.61571753 0.6480274 -0.5659432 -0.29436007 1.3537557 -1.1023134 -0.5332066 0.939037 0.10334383 1.2692072 -0.2692965 0.275654 -0.21212338
49 -0.053485088 0.17333603 1.1625457 -0.7353374 -0.16396235 0.79755926 0.84312916 0.10321977 -0.2140953 -0.8996722 0.88690317 -0.045877207 -0.2980822 1.0397036 0.13812104 -0.15882736 0.53769386 -0.6605152 0.5238558 0.11208999 1.2256585 -1.2646368 -0.010367336 -0.55799586 -3.1982868 -0.27906322 -0.4703326 0.19196704 0.54379314 -0.64716166 -0.94233465 -0.86337006
140 -0.8394389 -1.2163681 -0.06045043 -0.5788403 -0.79695463 0.17682421 0.4181446 0.35601965 0.3149238 -1.4933083 1.1525558 -1.5742428 0.13506009 1.3114326 -0.8504369 -0.78597534 0.4803809 0.35912293 -1.3710644 -0.069486775 0.44417265 -0.54784155 0.23402615 1.2680069 -0.0238316 0.059943236 0.17644243 1.0287099 -0.3493579 -0.3145605 1.5327606 -1.847239
133 -0.68332845 -0.94553965 0.16635703 0.5547715 -0.04615676 -0.15336847 0.28257155 0.7595516 0.24652177 1.3053802 1.174722 -0.19270119 -1.2663788 0.8892468 -0.70669466 0.33151424 0.50619715 -0.2398153 0.21187131 0.45762125 1.0819659 0.07408342 0.18132396 0.02263872 0.58926886 0.009531419 0.7361854 1.0368567 0.2224156 0.80220175 -1.8866972 -0.7254024
23 0.19215329 -1.2280035 -0.73505646 0.4243451 0.7272382 -0.24008195 0.29716232 -0.35332456 0.7192385 1.3471359 -0.97163767 1.458857 -0.77308327 0.19121125 -2.3615122 0.3648371 0.9468698 0.44562608 -0.9075623 2.5243948 1.6241024 -0.7061996 -0.05689746 -0.67275727 -0.6331495 1.2045497 0.64572495 1.2712657 -0.4860237 -0.93846166 -0.40964678 -1.1770195
145 -1.125813 -1.118149 0.07905593 -0.6489793 -0.6053409 -0.32344648 0.41582993 0.069646575 0.3413636 -0.8372129 0.49602756 -0.6990678 -0.4903659 0.47841543 -0.70274717 -0.6743839 0.24740365 0.15901375 -0.9620712 0.015764996 0.097099885 -0.0007613121 -0.0548684 0.27817217 -0.30477595 -0.36751828 -0.14306173 0.8606272 0.27512792 -0.076625064 1.057111 -1.2656193
105 -0.7783871 -1.8440614 -0.45438746 0.27363816 -0.36323172 -0.4001409 -0.08400048 -0.018651877 -0.2538159 0.41940534 0.69819134 -1.1733097 -0.28335112 0.024361346 -1.6910675 -0.09910099 -0.23809454 -0.103248656 -1.3889096 0.8340702 0.6982835 -0.29354477 0.68564 -0.1569772 -0.7759172 1.021883 1.2252111 -0.14368302 0.120845795 0.22471781 0.054661304 -1.441556
107 -1.0594422 -0.70611906 -0.046768874 -0.106699996 -0.3271848 -0.27029034 0.095409706 0.22858982 0.27833828 -0.25651053 0.67863977 -1.0747356 -0.057691403 0.3964699 -0.9785233 -0.44427803 -0.24165194 -0.2893023 -0.9326886 0.5204446 0.7306344 -0.12761962 0.42648098 0.1240581 -0.034726437 0.70189446 0.80718756 -0.103459015 -0.09017275 0.28709316 -0.07450429 -1.2150593
33 1.0572983 0.5233996 1.3595128 -0.43327814 0.13434951 -1.2937241 0.012682529 -1.5720974 1.6874573 0.2777993 1.348164 -0.23314518 -0.8987196 1.2958188 -0.07092336 -1.056202 1.3654724 -1.218719 0.1490566 1.216278 1.4500988 -0.46058396 0.27016667 -0.09432544 -0.7131504 -0.84706765 0.3485764 0.118048474 -0.36953145 -0.6223645 -0.112147465 -0.49133396
89 -0.3959483 -1.5424851 -0.21190962 0.7687542 -0.65417844 -0.53935575 0.689441 1.0843774 0.18231234 1.1848773 1.1265754 0.7280089 -0.8642883 0.5163249 -1.8769846 0.7377084 -0.84622407 -0.044828143 0.6199682 -0.060192294 0.73792505 -0.4570853 -0.40895155 0.15435976 -0.04155813 0.2606139 1.515688 1.0523908 -0.73395497 0.6990784 -1.2211207 -0.7636765
50 0.9447315 -2.1426075 0.50504297 0.5982226 -0.14551127 0.07841279 0.8519705 -0.24862055 0.20445552 -1.2487898 0.7803257 0.3452444 0.36143544 -0.4643253 -0.22824527 -0.08657461 -0.36915788 0.012946159 -0.251914 0.67637074 0.6487044 -1.1038162 -0.50912184 0.5257924 -0.99987763 -0.1843045 1.670513 -0.1204576 1.2523319 -0.010912675 -0.7515737 -0.18894462
48 0.368516 -0.3564807 0.96095294 -0.17917044 -1.4582665 1.2400596 -0.5298276 0.7440051 0.37550855 -1.0254459 1.0837324 -0.49824265 -0.39675984 0.7429269 0.3510454 0.43870404 0.7940544 -1.2404847 0.50437117 0.103862725 1.7833679 -1.882018 -0.5353698 -0.31893077 -2.9447381 0.84408593 -0.74718755 -0.412852 0.09806483 -0.5459192 -0.44511944 -0.96753585
91 -0.6707139 -0.8090662 0.18425488 0.66412413 -0.11447511 -0.48386812 0.44618785 0.8861091 0.1926468 1.0407465 1.0226384 0.11140828 -0.86466616 0.34870288 -0.9893248 0.27402508 0.23887369 -0.13194913 0.10777092 0.019409344 1.041476 -0.008138657 0.0011321054 0.32081428 0.654195 0.13880497 0.84153455 1.303534 -0.15392405 0.7109292 -1.808179 -0.7219237
103 0.5315174 -1.0626603 -0.06611385 0.7017952 0.97908574 -0.45320505 0.6835118 -0.11555739 0.3432988 1.0943773 -0.13519956 1.0560439 -0.5751149 -0.2035093 -1.28383 0.25080305 1.2676616 0.21821715 -0.9328351 2.0094209 1.8103701 -0.33843628 -0.19418019 -0.06660868 0.39892265 0.5028905 0.44763544 1.2033389 0.1384466 -0.40389812 -1.4840937 -0.9203162
121 -0.41885877 -1.2092094 0.57595766 -0.8962942 -0.67904705 -0.551951 0.9390278 0.045175668 1.2701209 -1.8602712 1.195725 -1.0928748 -0.7285112 0.06342879 -1.477742 -0.61902857 -0.9081248 0.24999677 -1.2735605 0.5804945 -0.45835233 0.023600625 0.38747954 0.4750362 -0.1366077 -0.28172046 0.28891912 1.7448318 1.087791 0.3600205 1.4456228 -2.0068605
2 0.010422078 -1.0902874 0.03900431 0.14029637 -0.20363668 0.31837976 -0.68353397 0.5234162 -0.07996038 1.1189651 0.03615926 0.8477378 -0.42566517 0.06635207 -1.1143444 -0.13557824 0.3406739 0.6466291 -0.64835125 1.2683885 0.55012155 -0.681375 0.36351293 -0.47880456 -1.6333476 0.6863888 0.07963132 1.6987383 -0.7108279 -0.86923826 -0.15706228 -0.6788131
135 -0.7475318 -0.9653603 0.3340261 0.63875014 -0.0040454133 -0.12860164 0.35268188 0.9121212 0.5306765 1.4822786 1.1217004 0.11929469 -1.374698 0.8354307 -0.8801473 0.37849677 0.5790945 -0.18449819 0.41550007 0.642242 1.3577032 0.02281144 0.018740172 0.18321052 0.73638994 0.024115026 0.66290647 1.2593888 0.09404106 0.80094415 -2.0890007 -0.7257193
65 -0.02283748 -1.0275486 0.46190506 -0.32134536 -0.585802 0.76762724 0.33808264 0.7072012 -0.24935976 -0.8886523 0.687528 0.3880799 1.1951919 0.27526852 -0.5385192 -0.2412152 -0.32289714 -0.3106683 0.27883133 0.15300484 0.70928955 -0.684897 0.016401328 0.49723995 -2.049917 0.47326848 0.71389765 -0.7607378 -0.007744517 -0.02859219 -0.52893704 -0.21465907
72 0.1995272 -1.5751666 0.16317496 0.11754524 -0.22951613 0.17543559 0.46134424 0.5482058 -0.20447862 -0.6537209 0.7913462 0.057326168 0.5163424 -0.016714724 -0.32306904 -0.033215478 -0.6699929 0.050580077 0.2700959 0.49018508 0.71455896 -0.48155633 -0.1978518 0.59029937 -1.3304598 0.055680033 0.89391136 -0.3027305 0.118711516 -0.640371 -0.21781614 0.006741142
156 1.2218091 0.3637904 1.0814118 -0.50281984 0.384997 -0.08083146 -0.4447895 -0.47220537 1.6296648 -0.0887121 1.6658125 -0.13130309 -1.509514 1.416395 0.026057635 -1.9784579 1.0961227 -0.01681219 -0.2064687 1.349902 1.363244 0.5746115 -0.12298987 -0.7117756 -0.66675824 -0.8078779 0.23605911 -0.8022528 -0.17654143 -0.71594715 -0.53103703 -0.7449098
27 0.2807092 -1.3601583 -0.21496856 -0.45247152 0.53707653 -0.71734655 0.0147036975 -0.47031033 1.1827309 0.86373556 -0.5491935 1.5063626 -1.0803841 1.0884947 -0.6142173 -0.09021604 0.8750603 0.087754995 -0.6080581 1.2225587 1.0215439 0.5468106 -0.56889915 -0.3080601 -1.3583983 0.58829325 0.26860324 1.0539687 0.87103146 -1.170474 0.32349914 0.044958927
129 0.44372874 0.44808 0.9957359 -0.3811377 0.4879264 -0.25562808 -0.10748991 -0.7018644 1.0270747 -0.039778963 0.47462437 -0.13624023 -1.0944395 1.256125 -0.27653417 -1.1874709 1.0389327 -0.16471285 -0.14901046 0.7912236 1.04276 -0.14087225 -0.05908206 -0.13938871 -0.45163617 -0.41824943 0.02345743 -0.0036472979 0.12406713 -0.12407109 -0.29159662 -0.56717294
159 1.396917 -2.749627 -0.12328714 0.5959435 -0.9844152 0.7031702 -0.16344333 0.89203215 0.16428736 -1.911118 1.4784831 0.19487722 0.07677722 -0.56965667 0.25459358 0.0022631565 0.52583677 -0.5582493 0.114186704 0.32091382 0.98059046 -1.3886157 -0.7408359 1.6673677 -1.1441172 0.66859275 1.1209737 -0.03879547 0.39362887 -0.7202544 -0.06423071 -0.4138669
26 0.7415058 -0.50629485 0.8525828 -0.56786615 0.30671772 -0.60569406 -0.21387564 -0.35981706 1.3275324 0.62740815 0.5689274 1.0190077 -0.8593136 0.4733218 0.28810072 -0.7779007 1.2198658 -0.11796175 -0.4618329 0.60288954 0.8476784 0.95086825 -0.38771912 -0.09219043 -0.39437214 -0.35635674 0.030216878 0.7154284 0.21272658 -0.52009845 -0.6294301 -0.09077978
31 1.0083319 0.04263189 1.151257 -0.13190337 0.5581768 -0.8066031 -0.14464314 -0.4325732 1.288308 0.65204054 0.9173292 0.7613549 -1.1005492 0.5745311 0.28314102 -1.2054408 1.1607324 -0.26808983 -0.4469969 0.42006537 1.1491015 0.170859 -0.6991973 -0.19293551 -0.59752995 -0.25282964 -0.0030585402 0.7782511 0.09093703 -0.29107973 -0.21226422 -0.19726673
138 -0.68068904 -0.8451843 0.18517122 0.52221847 -0.13829443 -0.040621243 0.2360254 1.0844178 0.53073394 1.5240006 1.2948083 0.18114977 -1.4219517 0.9476863 -0.8818377 0.546546 0.57376945 -0.26663703 0.41608363 0.7212312 1.3072333 0.15067393 0.08134245 0.014175842 0.44145283 -0.010373378 0.9599168 1.2234936 0.2096539 0.8940383 -2.2612014 -0.87860894
25 0.4492926 -0.7769956 -0.14117807 0.33481926 0.73933554 -0.33447894 0.26511854 -0.11470001 0.30288753 0.8810386 -0.21909279 0.769611 -0.3047898 -0.16248961 -1.2399098 0.28995427 1.3224832 -0.0036115362 -1.0344647 1.9930466 1.6299052 -0.42981485 -0.11715318 -0.6955979 -0.10791718 0.9027204 0.4925452 0.8001845 0.08381124 -0.24385439 -1.4192717 -1.0276285
9 0.25462717 0.42132738 1.0035813 -0.05105525 0.03596646 0.017037325 -0.31840172 -0.491511 0.8594346 0.25999498 0.5134903 0.6023474 -0.84533864 0.97563416 -0.22251002 -1.2448536 0.90726185 -0.54245865 -0.37416002 0.6378798 0.97572803 0.042431924 -0.22699772 0.22494242 -0.50881475 -0.082670026 -0.40970698 0.067152925 0.15153134 -0.22685784 0.0043029725 -0.36461005
47 -0.050022498 -1.1540419 0.33562648 -0.7062216 -0.5337967 1.1852763 0.4110008 0.99484754 -0.10038804 -1.1214627 1.1723465 0.46910867 1.6349771 0.21356994 -0.9649594 -0.35836765 -0.4304583 -0.6918063 0.48273802 0.24537024 0.69579494 -0.6740965 -0.07514495 0.7241873 -2.458279 0.40645692 1.0496054 -0.7273785 0.0010651794 0.007892738 -0.72579795 -0.29195625
1 0.06860344 -0.6951414 0.6447117 0.22567801 -0.514727 0.53595847 -0.6213429 1.0406799 -0.65661615 0.84904927 0.6320458 0.37957454 -0.05527746 -0.14026219 -0.18033782 -0.42133987 0.5685622 0.55487543 -0.8191331 0.7387324 0.5555929 -0.7133229 0.39787343 0.06466174 -1.034641 0.063978426 -0.056040734 1.7740095 -0.28296795 -0.2209828 -0.78117555 -0.63514453
123 -0.5481467 -1.8052883 -0.3039957 -0.41433063 0.23772907 -1.7125041 -0.80029756 1.1916816 0.85384077 -2.830233 0.88757515 -0.35879132 -0.13672422 0.404644 -0.6306764 -0.16144612 0.8113929 -0.04940821 0.49161 -0.12504615 -0.3433867 0.35635734 0.9083545 0.8398369 -0.5155975 0.010348449 0.029671993 0.87583965 0.3591989 0.2034762 1.772738 -3.4776914
