307 32
152 -0.027132642 0.5750399 -0.37282327 2.9641004 -0.8527466 -0.1968584 -1.267711 -0.12265973 0.43672 1.3727077 -0.692316 0.43019137 1.0906912 -0.56670994 -1.6648966 1.7183017 -2.5362778 1.5491583 -0.5331495 0.3651144 -0.22610998 1.0075612 0.99272996 -1.668411 0.6419104 0.21582642 -0.8634112 -0.42029312 -1.9079362 0.63707966 -0.5294117 -0.21888328
150 0.09894913 1.1990198 -0.51421213 1.7057651 -0.18323156 0.11832282 -1.5847205 -0.3984798 2.2108924 0.43536645 -1.4075446 -0.03983722 1.1800916 -1.8413543 -0.93895954 1.9741713 -1.8036083 1.1182648 -1.1248968 0.5228887 -0.11291969 1.8150276 0.3481395 -0.59487873 0.4482 0.07688855 0.7321841 -0.85309273 -1.1455469 0.30365777 -0.74936295 -0.61011654
148 -0.038687177 1.1950463 0.24338166 1.1110605 0.36549914 -0.7075287 -1.077871 -0.5632528 0.3377784 1.7376964 -0.7850513 0.2917358 -0.2082699 -1.7694651 -0.6041179 1.5724558 -3.0073645 1.250649 -0.70544106 0.07831313 -0.71571755 0.8003075 1.2371774 0.024091989 0.45727205 0.29487798 -0.17079641 -0.210226 -0.5170333 -0.23462595 -0.9819949 -0.54527897
50 1.9248769 0.47795838 -0.74539953 0.8062359 -0.23858593 0.25557712 0.62222165 0.3207199 0.5918971 -2.1034887 1.0135416 -0.27595794 -1.1545546 1.1982807 -0.2979185 0.8127094 -2.5816987 -0.02214378 0.38247034 -0.47812966 1.355859 0.176726 -1.9363773 -0.3880009 -0.17205043 -0.9214687 -1.8155154 -1.2957844 0.64940786 1.6560262 -0.29313365 -0.15995327
293 0.27635688 0.6586712 -0.33756524 2.4238687 0.24047773 -0.6938043 -0.29130545 0.6368692 0.79278696 0.72326404 -0.11684069 0.7371531 0.74136025 -1.6844753 -0.07324255 1.2413894 -1.4503926 1.0804864 -0.86885655 0.76847845 -0.3274497 1.413608 0.3308568 -0.77306545 1.2465764 0.09287493 -0.6229764 0.70371073 -1.133367 -0.5164382 -1.1912464 -0.74358547
46 -0.21832481 1.1129986 -0.5353977 0.10915177 -0.4589114 -0.37113607 -0.54674447 0.81953883 -0.065473534 -0.06652506 -0.5292671 -0.62967706 -0.68260837 0.16839735 0.062668025 0.67049706 -1.2121159 0.19838084 0.48492718 -0.6463307 0.5647994 0.2491776 -2.4265294 -0.6389115 0.041635875 -0.6108967 -0.39435545 -0.9879004 0.72216535 1.448114 -1.2079946 -0.28472063
238 0.6638242 -0.031571653 -1.0567981 0.2622413 -0.4242178 0.16509831 0.36611 -0.3575498 -0.4385788 -2.3300827 0.38072172 -0.77691483 -0.13959607 0.24666779 0.048086952 1.4178123 -2.4301293 0.5276579 -0.52557874 -0.88510895 0.66288596 -0.21893856 -1.1014731 -0.93371046 -0.29671752 -1.1867515 -0.6622951 -0.13539045 0.31773657 1.9481423 -1.088208 -0.60567385
299 0.09825325 1.517261 -1.0884883 0.56399184 -0.098406576 0.047919184 -1.218504 0.055522464 0.24246605 0.917988 -0.09282223 0.05124536 0.5178854 -0.70902514 0.09209843 1.9270774 -1.4196761 1.2616006 -0.3107892 0.98818946 -1.4922975 1.7675401 0.93465483 -0.71600264 0.53114265 -0.032944765 -0.7114529 -0.5503365 -1.5376165 0.037776783 -0.38066417 -0.8102114
76 0.76729465 0.41269523 -0.923188 1.0920299 -0.18867396 0.07801797 0.24282031 0.9514145 -0.085657455 -1.534368 0.29215452 -1.007939 0.04007392 0.50769746 -0.187851 1.440055 -1.772971 -0.007111769 0.18724315 -0.2274755 0.2232142 -1.2972069 -1.4410203 0.22592573 0.19077688 -1.9813794 -1.2903377 -0.9056339 0.6606786 1.7770022 -1.0709505 0.32062712
121 0.0033510935 0.6603905 -0.45274693 1.6554338 -0.46669203 -0.8549353 -0.90534854 -0.5681673 0.6751882 0.3165786 -0.92204446 0.29058093 0.3840016 -0.37785482 0.024619138 0.83308464 -1.527104 1.6597751 -0.11697909 0.81844425 -0.2693854 0.34548885 1.4512453 -1.1698902 0.89634335 -0.47000176 0.19741872 -0.91509616 -0.113510795 -0.7184031 -0.28453538 -1.0417529
218 1.8930056 0.33920404 -1.2927082 0.7432397 -0.50434464 -0.004054498 0.89626753 -0.5056828 0.051066864 0.11486356 -0.2353448 -0.5581465 -0.46867993 0.20183627 0.08938256 1.1990384 -2.1572418 0.468302 -0.10876247 -0.13633333 1.0647233 0.046227373 -0.934026 -0.38747185 -0.008037235 -1.7285702 -0.95187646 -0.8514789 0.2037921 2.038351 -0.8636431 -0.5102963
110 0.15393841 0.9285076 -0.6303753 1.628842 0.116001196 -0.071719304 -0.6280273 -1.00276 1.0262289 0.919669 -1.0141631 0.731894 0.48254883 -0.6120942 -0.9274675 1.4759853 -0.8998817 0.83431685 -0.42936888 0.5747579 -0.9231334 -0.1040527 0.38255686 -0.539127 -0.3659709 0.70492166 -0.3721232 0.014582762 -0.9394043 -0.11966499 -0.7141026 -1.1723999
216 1.5425212 -0.020381348 -1.7679147 0.88466847 -0.69978565 0.52960306 -0.16889139 0.42113367 0.09988441 -1.053188 0.21434478 -0.99963796 -1.1884233 0.13972501 -0.16421989 1.3239833 -2.0664706 0.53530115 0.7241731 -0.6790072 0.7622722 -0.20321786 -1.4423027 -0.34486428 -0.5367917 -1.2961186 -0.17753865 0.065105475 0.24531673 0.2834043 -0.57935405 0.22384971
290 0.029885525 0.7034014 -0.12520935 1.2429008 -1.2286781 -0.55231553 -0.5235839 0.20898145 0.019830938 0.7754182 -0.402152 1.3394047 0.62051594 -0.56957227 -1.0088068 1.1715214 -1.5029712 0.7373975 -0.8143252 0.13040087 -0.8652654 1.1085035 0.52920616 0.37911502 0.26295078 -0.32150757 0.7117691 -0.38250974 -0.93370205 -0.13856183 -0.08237213 -0.94477266
180 0.0046520615 1.5954914 0.6101366 0.6225503 0.56494915 2.1854675 -3.6352112 -0.2086297 0.80298525 -1.7758467 1.5744331 1.7770215 -0.09498136 -0.45298854 -1.0319273 -0.10274193 -3.3609157 -0.083259284 -0.83623606 2.5742555 0.23481259 0.20469074 0.0012291531 -1.1686045 1.076368 0.07708452 -1.0792038 -0.5841107 0.6550431 -0.017690266 0.23974082 0.04051136
164 0.50922596 0.50610757 -0.06838775 0.20841907 -0.46456343 0.57045484 0.25361788 0.6703942 -0.53196317 -0.21876845 -0.26260296 0.8539162 -0.26632988 0.40162337 0.4457281 0.62252533 -0.8382528 0.9805564 -1.2946663 0.30117747 -0.7639184 -0.0050987466 -1.3516212 -0.1775624 0.90403956 -0.3249656 0.90189856 -0.6985598 -0.2448391 0.3506517 1.0055239 0.12465303
269 -0.8166722 0.34248373 -0.87139475 1.3311137 -0.1745744 -0.7115198 -0.6450194 -0.37213436 0.7746149 0.994128 -0.42100197 -0.43051565 -0.07451147 -0.79438365 -1.0203859 1.2908126 -1.5242901 -0.0037253029 -0.73524135 0.5265386 -0.24913661 0.8389125 0.471044 -0.42696604 1.1751693 -0.011373903 -0.3926827 0.28574067 -0.7676124 0.21103165 0.37433496 -0.98282
198 0.20235705 1.5206429 1.3002727 1.4851037 0.17595981 2.4766793 -2.147646 0.3774387 0.69310504 -1.8410676 1.7286953 2.368929 0.26388633 0.20518343 -0.09827609 0.49812728 -2.3299894 0.4145041 -0.70170325 1.659798 -0.86620206 1.267763 -0.36298183 0.25532687 0.9164039 -0.26108772 0.9889935 -0.5863569 -0.39298788 -0.45570058 -0.19512407 -0.4431543
67 -0.37393203 0.18757953 -0.87805533 0.45960402 0.13679133 0.36482286 0.13975081 0.21107927 0.023073405 -0.013922982 -0.4271679 -0.30478457 -0.6714311 -0.21378906 0.02131354 0.61999416 -0.9060567 0.21531004 -1.3648123 0.630762 -0.13052918 -0.36179614 -1.3863673 -0.8126445 1.4257361 0.12243943 -0.28199694 -0.15469156 0.16079715 0.55134916 1.6383467 -0.026486702
156 -0.34602112 -0.75425076 -0.0986369 1.7603707 0.33899987 0.71964586 -2.3087547 -1.5897268 -2.2378721 -0.09408914 -0.2178946 1.3259922 -2.6366813 1.3529713 0.06883379 1.1127598 -3.0043728 0.88647085 0.37400243 0.54163766 -0.23594038 -2.1258218 -1.5402868 -0.5867484 0.15339811 -1.1772666 -0.80316806 -2.3885124 0.13066113 1.1642952 1.0023202 -0.89020705
196 -0.9718518 0.669853 0.39830896 2.1337137 1.1071246 2.4095795 -1.3187348 -0.26550946 0.9748622 -1.5773156 1.981728 0.3778649 -0.5907105 -0.8907277 -0.13044035 0.115590446 -1.7243451 -0.2352058 -0.33163404 2.2628615 0.4354756 0.8953104 -0.31388915 -0.68116605 1.8023762 -0.023070013 -0.65140504 -0.2586528 -0.38749513 -0.60644853 -0.5303816 -0.60104275
30 -0.09683349 0.90189844 -0.8914146 0.90810645 -0.54411805 0.73500407 0.3391215 -0.052449886 -0.24609977 -0.20079975 -0.65203196 0.8404072 -0.042034846 -0.2309737 -0.09080801 0.36685196 -0.2714783 0.6042313 -1.233476 0.5825576 -0.21283723 -0.67830896 -1.2803777 -1.0865685 -0.4748596 -0.059308287 -0.107051685 -0.704141 0.7111106 0.1420524 0.89128333 0.109594174
282 0.10525875 -0.37655225 0.15828753 0.7563059 0.46830124 0.30616814 -1.1208833 -1.4640728 -0.72944176 0.112049654 -0.5052882 2.5305743 -2.6735578 1.1549412 -0.50007313 1.8415306 -2.9374487 -0.25467744 -0.18376267 0.7360236 -0.48657918 -2.515523 -1.4818646 -1.6693195 1.028174 -0.69806796 -0.18818526 -0.9910292 0.0009233531 0.3859935 -0.40883577 0.27790692
122 0.66996294 0.72049963 0.14438222 -0.19743674 -0.123301536 0.4725779 0.4138661 0.6833651 -0.780337 -0.16228892 -0.79262924 0.5219622 -0.26227352 0.8211275 -0.82811433 0.08797968 -1.9213253 0.36953446 -0.3103492 0.38040847 -1.4689574 0.3226202 -0.7200894 1.1383498 0.3449166 0.05385136 0.5183138 -0.0027308671 -0.1998621 0.11397793 -0.15010093 -1.2632054
194 -0.57488555 1.3929924 1.4167936 2.508263 1.3006299 1.7657113 -2.2539976 -0.98090464 0.60485137 -0.791743 1.1845171 1.3099933 -0.50768286 0.08425186 -0.68583125 -0.051106647 -2.2900558 0.15191789 -0.67002994 0.58451885 -0.08812291 -0.30252677 -0.032853484 -0.28915513 0.19297554 0.3235749 0.07761188 -0.07150111 -0.617845 0.04114452 -0.26153138 0.2101974
119 -0.021940935 0.27642623 -0.29021674 0.50882506 0.8046756 0.6875633 0.52374893 -0.5139612 -1.4091038 -0.30343384 -0.7834958 -0.059670508 -0.4886177 -0.13971935 -0.046016376 0.2697769 -1.0657259 -0.085668735 0.33338705 0.11423098 0.68535894 -0.57307357 -1.8881179 -0.31448728 0.42357403 -0.65414584 -0.06328594 -1.2437959 -0.82542557 -0.01584169 0.0055186027 -0.11741492
253 0.39919972 0.6896269 -0.17839625 0.3515227 0.21054207 0.8404607 0.10965453 -0.10912813 -0.23356675 0.16013946 -0.039233174 -0.09811952 0.09549443 0.54279613 0.94064444 1.2401675 -0.36971596 1.2324178 -0.6309543 0.68626374 -0.7150058 -0.40549657 -1.7100718 -1.2833916 0.21364982 0.19774002 -0.5779784 -0.4339524 -0.27730593 0.029983617 0.68051624 0.08836981
281 1.0491178 -0.43085077 -0.12157425 0.96905065 0.84807754 0.64618695 -0.44995794 -1.8293293 -1.7125927 0.9639185 -1.2700189 1.1613245 -1.8294145 -0.07273258 -0.20813961 2.1486535 -2.3869061 0.8622346 -0.05000146 1.1082532 0.7031956 -1.8041536 -0.90297395 -0.43877506 0.4131009 -1.0951862 -0.078547545 -1.5705383 0.1766987 1.7390999 -0.09313892 -0.7817101
250 -0.23734742 0.39536935 -0.66230226 0.17021082 0.5291876 0.27654612 0.39329284 0.18123475 -0.16174945 0.06761408 -0.86797726 -0.63509136 -0.6355739 0.269204 -1.0982636 0.056825344 -1.9212098 -0.36149627 -0.19732863 0.76942307 -0.7646355 -0.10470877 -0.74594283 0.40572903 0.7172042 0.4870333 -0.67109746 0.56255203 0.26142606 0.26130754 0.35582814 -1.429889
192 -0.6713977 1.0018756 0.024073413 1.2183638 0.5633723 1.7538234 -2.2000892 -0.39489734 1.3797138 -1.0050957 0.61220634 1.0267005 0.21475123 -0.04295056 -1.2825395 0.53323585 -1.8476388 -1.086992 -0.7589429 1.0638968 -0.7825478 0.59881586 -0.39525703 0.4051016 0.881652 0.8523389 -0.10465895 0.27038816 -0.28189573 0.11376783 1.1043317 -0.9607651
124 -0.058732692 -0.45846444 0.425234 0.60945034 -0.896909 0.30894458 0.18761072 0.31502426 -0.19166887 0.22230715 0.124038175 0.27237436 0.48011193 -0.15317646 0.021087075 1.0642966 -0.99041027 0.79025686 -1.033029 0.46548516 0.4535872 -0.5017982 -1.9399501 -0.74828637 0.42465347 -0.078397036 -0.2572034 -0.48415667 0.31476268 -0.3324281 0.89089495 -0.073044874
283 -0.0667593 -0.7685175 0.94585675 0.4593198 1.0968684 1.3159574 -1.2126886 -1.079723 -0.8921721 -1.1458269 -1.0161759 0.8842557 -2.6114995 0.40229046 -0.64945626 1.9726281 -1.9761043 0.5836546 0.2405273 0.61088914 0.14984071 -1.2716515 -1.6418966 -0.07281032 0.11680447 -0.26675636 -0.4142413 -1.9280769 0.94406027 0.6077251 0.13586517 0.5192855
236 0.06382248 1.1125168 -0.7124957 0.5336049 -0.14420806 0.6220946 0.52760494 -0.034259602 -0.5210336 -0.17751957 -1.1558733 0.42108828 -0.1177497 0.15292272 -1.2443898 -0.35549217 -1.4240751 0.04994154 -0.2011961 0.77888316 -0.82879037 -0.4595295 -0.62551206 0.106206596 -1.0547315 0.2675781 -0.51447475 -0.06960892 0.8318049 -0.0735105 -0.39667666 -1.2999253
190 0.008124035 1.7811687 -0.074237235 0.9618041 0.9235905 2.4811401 -1.5911283 -0.538854 0.57653666 -0.9146309 0.9666666 1.0247676 0.18290035 0.29240608 -0.014417939 0.49367306 -1.0204582 0.3282748 0.04939894 1.6577451 -1.1068825 0.37324676 -0.13419054 -0.82425195 -0.32218432 0.60442 -0.9887066 -0.27549407 -0.21837127 -0.24942385 -0.4748223 -0.31609032
113 -0.0018594073 0.8315402 0.22228485 0.8603442 0.041958567 -0.39461547 -0.022171343 -0.21868835 -0.38444102 -0.4441249 -0.018662965 0.49558052 -0.47865847 -0.044500347 0.048389763 1.0139178 -0.06891545 0.7563289 -1.0474505 0.8166788 0.16204605 0.1502578 -1.8451798 -0.708233 0.07842957 -1.0768174 -0.16141334 0.23793322 -0.06961785 0.24934557 1.2057569 0.3369032
288 -0.08574536 -0.51690704 0.34745738 0.4902219 1.2127814 0.6029891 -1.7701535 -0.30906335 -1.6830909 0.29162356 -0.4309751 1.8035083 -2.000492 0.13492267 0.6623111 0.88997823 -1.8871199 -0.47552204 -0.32103226 1.615766 0.42933357 -1.5248916 -1.5606365 -0.45110312 -0.3841149 0.16400003 0.06740298 -0.8793649 0.012491339 0.5751542 0.19329487 -0.58962566
163 0.57049626 0.87753946 -0.032523356 0.041832842 0.69387984 0.7119592 0.37707043 -0.07669586 -0.47546875 0.16460103 -0.47563985 -0.5254496 -0.008727019 0.9781644 -0.16066307 0.5537996 -1.503393 0.71219206 0.53305906 0.9127694 -1.2204406 -0.19998077 -1.0485244 -0.10350722 -0.33740324 0.55268425 -1.0335271 0.29134503 -0.1571554 -0.20585966 -0.69144666 -1.3366392
289 0.02256214 0.9754176 0.7241783 1.833213 -0.5839238 1.7353159 -1.4205904 0.16552736 0.3604584 -1.0373462 1.0208895 1.1365854 -0.17437483 -0.8842114 -1.1193111 -0.63931024 -1.147476 -0.40881917 -1.3866761 1.3656164 -0.23193392 0.26737434 -0.10024949 -0.27470687 -0.12679952 0.60706776 -0.115928754 -0.36869437 0.7242029 -0.4201125 -0.502703 -0.5520222
49 0.50596195 1.89535 -0.47113293 1.4785587 -0.063453645 0.82678956 -2.8226357 0.37865064 -1.2077792 -1.3994347 -0.90814674 1.154762 0.599592 -0.30436632 1.4755054 1.7790937 -0.67177874 -1.2959222 1.7091236 -0.48156625 -1.0019492 1.9303473 -1.0208609 0.47587478 1.319289 -1.8511953 -0.31617767 -0.6244276 1.6984478 -0.26460302 -0.34618247 -0.554058
174 -0.2873243 0.3900358 -0.13125992 0.9405207 0.043172292 0.40048066 0.60126185 0.20394395 -0.04332025 -0.16954044 -0.25845367 0.2381923 -0.48519585 0.20588419 0.56577003 0.8173082 -1.132899 0.61467814 -0.54550385 0.56508285 0.114020996 -0.44804466 -1.5276551 -0.657428 0.10118369 -0.25387844 0.08714666 -0.37751245 0.100941405 0.375216 0.7303087 -0.13820185
267 0.38044992 -0.09344551 -0.29738256 1.0144418 0.88202304 -0.043915898 -0.5862605 -0.55751044 -0.9721446 -0.67029756 0.26878136 1.6738323 -1.5184453 0.005991549 -0.5003417 0.99492997 -2.2970624 1.4381582 0.2333093 0.58065957 0.30449843 -2.0275092 -1.187977 -0.09464438 0.35246554 0.50746506 -0.31657872 -0.71783024 -0.16063485 1.0108886 0.33176604 -0.29826885
278 -1.1213349 1.0499191 0.28816196 1.459228 0.7261831 1.4660218 -0.82638997 4.5718567e-05 0.74639577 -0.7752929 0.49118072 1.7871058 -0.15051776 -0.22666223 0.0598285 0.15667087 -2.3118708 0.25458932 -0.01074407 1.2317698 -0.1982858 0.36907715 0.697263 -0.109741464 0.3294462 -0.21274406 -0.27354574 0.04958388 1.203138 -0.6346857 0.5172646 -0.31500423
22 1.4440321 1.2322263 -1.3073797 0.5402581 0.13139284 0.42664495 -1.4495916 -0.66797525 -0.7349288 -0.2607216 0.21683545 0.91687953 0.9174119 -1.6784667 1.2939104 1.1113718 -1.4309086 -2.0988295 1.8694417 0.2650439 -0.74837554 1.6870695 -1.8077892 -0.043438107 1.0921054 -1.3346875 -0.14555949 -0.5390621 0.46321568 -0.055175267 1.4769394 -0.9905871
176 0.45096588 0.29380837 -0.049430516 0.82980394 -0.08678025 -0.23586299 -0.31705657 0.034925994 0.699198 -0.7957466 -0.6584446 -0.018517332 0.14609343 -0.18028882 1.082541 0.38739902 -0.52897304 0.9540869 -0.9422285 0.649221 0.29552633 -0.8823709 -1.3131615 -1.2870287 0.6918117 -0.21828654 0.500827 -0.9235144 0.23587598 -0.10085418 1.0761118 -0.109280996
287 0.33147103 -0.16171065 0.26975685 0.3446212 1.3859482 0.6723591 -0.84110266 -0.27651072 -0.58332396 0.23624422 -0.08983222 1.1125573 -1.9236076 -0.031674005 -0.15996018 1.3605491 -1.6858845 0.3790969 -0.79389626 -0.73943937 -0.08278475 -1.8033614 -0.89380366 -0.70274997 -0.1283301 -1.1508455 -0.63102204 -1.2115527 0.08321356 0.22790283 0.40552908 -1.1277169
141 -0.37176472 -0.11466015 1.3264302 0.93280596 0.15449373 1.5645646 -1.5486615 0.055973247 0.64964306 -0.22752139 1.3944057 0.9620159 0.8148037 0.08294481 -0.5591603 0.7378851 -2.01016 0.2974147 -0.2064009 1.0961492 0.17795098 -0.031831913 -0.7822634 0.09766359 0.24614546 0.5200014 -0.74619484 0.08615546 -0.07920469 -0.7839935 -0.25968486 -0.75903076
179 -0.81413215 0.39168897 0.11089933 0.71723455 0.53597504 0.71800905 -1.5097237 1.0567503 0.39565223 0.2193477 -0.45887163 0.839101 -0.3567524 0.7872133 -0.09283545 0.52295035 -1.2535022 -0.43639907 -1.0898843 1.5110147 0.3092278 0.28704488 0.58030385 -0.63701427 -0.17411788 -0.25012267 0.09011908 -0.15122384 -0.7782607 -0.008647284 -0.92908126 -0.37091166
23 1.2624017 0.042581704 -0.109998554 2.0142195 -0.60253364 1.1598783 -1.6610892 0.44369176 -0.3497598 -1.2055173 -0.9155857 0.5056097 0.2512351 -0.9337241 0.46204638 0.9705618 -1.2494578 -1.4526275 2.229415 0.3705817 -1.0828246 0.29079318 -1.0520664 0.020568253 0.8003599 -1.1752788 0.26163164 0.0007555325 0.790618 -1.7499478 1.2802547 -0.16944931
142 -0.18101144 0.75384575 0.14938422 0.46647665 -0.88054115 0.0348298 0.58441025 -0.31675628 0.59076756 -0.1847185 0.19448045 0.51963294 -0.3964736 0.04817823 0.52416646 1.1955447 -0.93457913 -0.46759623 -0.4760745 0.5103117 -0.46747112 -0.84333074 -1.5705123 -1.5489955 0.5144351 -0.33387402 0.34672266 -0.27785608 -0.22659005 0.121863954 0.7217815 0.6379031
64 -0.10984439 0.28581712 -0.4134519 0.8849333 0.4540263 -0.1271236 -1.0050976 -0.9311634 -1.2845774 -0.020745648 -0.6531168 0.7740474 -1.4921399 1.4135344 0.12856297 1.9591202 -1.7031146 0.13111316 -0.95875967 0.18035355 0.95513135 -1.3512381 -0.56304413 0.1700905 0.22668743 0.017878007 -0.24261871 -1.4647204 -0.13919435 -0.098642655 -0.06492398 -0.012475839
133 -0.2278199 0.06325709 0.37543994 0.8119934 -0.6848884 -0.13552885 -0.38438016 -0.3020411 0.7839932 1.1189001 0.014234691 -0.069190376 0.79114676 -0.705353 -0.6061185 1.7915425 -1.4918582 1.0509176 -0.014202905 0.8238007 0.15264384 0.7384451 0.15846676 -0.48462823 -0.11112195 -0.18621032 -0.42279315 -0.23021844 -0.41482845 -0.6028808 -1.1655388 -0.9252264
188 0.46860465 0.8665435 0.5468782 1.0576189 0.94038844 0.7596726 -1.8579388 -0.24688229 1.281373 -1.4235244 0.15642375 0.49720433 0.41381785 0.023521902 0.3313724 -0.6014542 -1.2600024 0.48998275 -0.5410635 1.1686702 0.017859453 -0.24338578 -0.3943947 -0.30075276 0.83294064 0.30469215 0.30607972 -0.27024665 0.14076036 -0.6511513 -0.089142285 -0.8426987
213 -0.15815568 0.7010295 0.032560155 0.39510638 0.8940004 1.145138 -0.68447936 1.0720004 1.0466634 -0.30341777 0.44316474 0.5424518 -0.4838621 -0.06465047 -0.6953745 0.40597874 -1.3699696 0.3492423 -0.8492746 -0.21594149 -0.05324813 -0.2368097 0.6005325 -0.64919186 0.06353438 -1.2233214 -0.5407559 -0.28466362 -0.7177638 -0.112494 -0.49843353 -1.0104394
239 1.5349581 0.3093067 -0.80519336 1.6341031 0.9696041 1.7621062 -1.5744545 -0.08388735 -0.052262824 0.3262309 -0.44809446 1.4145218 0.16523959 -0.6305763 0.39871386 1.8102888 -0.0101313125 -1.7380258 1.5420488 0.2760855 -0.4335567 0.37061843 -0.7019073 0.29180068 0.8781604 -1.6501054 -0.5005683 0.30713058 1.0472326 -0.22143583 -0.11628624 -0.93850964
57 1.0564667 -0.8105998 -0.36397523 0.8060115 -0.51374704 0.22425361 -1.0217627 0.15559565 0.84296346 -0.24032994 -0.8297201 0.56137985 -0.3105872 -1.4927571 -0.2244271 1.4868977 -0.8125134 0.04936802 0.5400986 -0.4395019 -1.1855416 0.45897764 0.5352225 -0.7008949 0.82221013 0.1434247 -0.20384617 -0.27688602 -0.35280433 -0.3023434 -0.26574644 0.4596432
178 -0.59808195 0.32876125 0.08779837 1.3293113 -1.0385315 0.25169474 -0.32540247 -0.024217408 -0.15983886 -0.23022665 0.25647438 -0.36693096 -0.16189884 0.19055322 0.8623511 0.635312 -0.7310115 0.5639918 -0.25468117 0.39408135 -0.2928561 -0.24292628 -1.1482859 -0.84073305 -0.29666907 -0.47942263 -0.032909613 -1.0385252 -0.3588489 0.70632446 1.849941 -0.15132684
159 -0.1542083 -0.8072607 -0.05562784 0.9613058 0.24039431 0.2751217 -0.7501367 -1.367985 -0.51602817 0.17677155 -1.146405 1.4365246 -1.7249798 -0.019766897 0.6931604 0.5600824 -1.6284957 0.8611261 -0.60447586 -0.12124092 -0.33872232 -1.1325521 -1.3763758 0.27524075 0.27835992 -0.31394187 -1.0279696 -0.60482925 -0.34918475 0.6195425 -0.34815657 0.10810592
78 1.5886467 0.18279983 0.6588466 0.79100794 0.38569027 0.71714306 -0.08852877 1.7009318 -0.36404356 -0.94185376 -0.48769835 0.8057232 -0.58372283 1.2661422 0.99164957 -0.33687136 -2.484274 -2.1154158 -0.08832146 1.9796606 1.3790004 0.44392225 -2.210697 -0.8769476 -0.571219 -0.39014682 -1.9658284 -1.068082 0.018886669 1.9409716 0.18896212 -0.030371565
252 -0.5689673 0.7422977 -0.6964042 0.4358983 0.7435641 0.88246316 0.4885136 0.13553537 -0.22307275 -0.59997064 -0.4286124 -0.3970821 0.32343227 -0.21194255 -0.43429366 -0.4842904 -1.4010662 0.22405648 -0.05635743 0.2713315 0.3046247 0.37298688 -1.127435 -0.06537089 0.45161596 -0.83799887 -0.10128469 -0.6248239 -1.2062114 -0.14696206 -0.9280929 -0.043902017
254 -0.2484965 1.3701656 0.7667935 0.98807526 0.9160553 0.54676706 -1.4619776 -0.15040733 0.07510302 -1.2026118 0.8106099 1.0590465 -0.25200886 -0.03942327 -0.7923349 0.13385467 -0.92817545 0.16557847 -0.65118307 1.4719056 -0.116929986 0.96529466 -0.774289 0.056034222 0.1719017 -0.80549675 -0.7374862 0.91622525 -0.11484262 -0.28701022 0.094259754 -0.07256188
177 -0.4753492 0.8838332 -0.7104077 0.8543833 -0.057265863 0.41578668 -0.7693998 0.40298167 0.89316374 -0.79449147 0.31041804 0.53661895 -0.35347238 0.5006402 -0.08751969 0.6058933 -1.5601969 0.5032056 -0.95001405 0.5672268 0.54893184 -0.079520166 0.5495342 0.7233189 0.2728967 -0.06906078 -0.68829507 -0.2420766 -0.8505013 -0.04868622 -1.2233638 0.10318296
9 1.2917097 1.0545554 0.049662646 1.2166216 -0.60810924 0.19828147 -2.4701748 0.20087215 0.7181406 -0.5099158 -0.4634245 0.16109857 0.3649159 -0.3037504 1.6054841 1.1125133 -0.6120888 -2.5530815 0.8520074 0.44270533 0.23959295 0.43960017 -0.41950148 -0.23419411 0.97032017 -1.6659765 -0.6842551 -0.37013468 0.60083246 -0.28814888 0.40558746 -0.36341932
25 -0.11399557 0.14909436 0.70544666 0.71292126 -0.14001799 0.85662645 0.3542943 0.1263857 0.7384835 -0.6297071 -0.79651386 -0.26744658 -0.46403238 -0.36211056 0.25615287 1.7710941 -0.5029788 0.56021243 -0.6607577 0.6833883 0.1510283 -0.026751906 -1.2674581 -0.71664083 -0.23080549 -0.064482816 0.3315219 -0.87044674 0.109450124 0.6878185 0.98368526 0.6342142
160 0.9009076 -0.7104681 -0.77252203 1.152372 0.23944435 1.040875 -1.0850859 -0.4793299 -0.8382506 0.11272481 -0.4014197 0.7130712 -2.0647538 0.4189547 -0.1989358 1.1751543 -1.6527791 0.57119846 0.5071814 0.16117693 0.4498518 -1.1904193 -1.1672363 -0.44700918 -0.10058533 -0.5288995 0.42708385 -0.027176185 0.053449217 -0.33732018 0.28830352 -0.011026302
1 -0.13524568 0.92696375 0.23451652 1.212092 0.83392835 0.32686716 0.8485478 0.33749118 -0.7976495 0.43583688 -0.46080777 -0.28684932 -0.41691875 0.30785015 0.3283409 -0.33773565 -2.2520678 0.8235369 -0.34201658 -0.38057294 0.16760541 -0.1092382 -0.8118262 -0.60367996 0.23978129 -0.18380713 -0.009199927 0.27963722 0.6419935 0.2779781 -0.005376164 0.52618164
243 0.5135158 -0.9618216 0.37300867 1.0996952 0.3980354 0.24916625 -1.0549879 -0.31426063 0.18214098 -0.3024964 -2.0471015 1.2987248 0.32866254 -0.3010114 -0.17609547 2.361041 -0.8246642 -0.80628496 0.81712896 0.32506806 -0.13161281 1.9234942 0.8646919 -0.8253064 0.35026962 0.26400858 -0.043306395 -0.1817653 -0.37456897 -0.16886802 0.25216988 -1.1512225
62 0.85661805 -0.30743673 -0.54452467 1.9517926 -0.00038215864 0.31841004 0.14126545 -0.5641917 -0.54428464 -0.47456673 -2.6298559 0.55761033 1.5252652 -0.07719273 0.4622638 3.062738 -1.7846245 -0.9974552 -0.2519979 -0.7464697 -0.28717092 1.6831229 0.3825111 0.083251625 1.1731788 -0.9055862 -1.7728852 -0.73732805 -0.6206062 0.05623595 0.87796175 -0.15155867
36 1.2808846 -0.18707944 -0.43404686 1.0827259 -0.044101313 1.2384828 -1.1493492 2.3735924 -0.5681187 -1.3639029 -0.52960736 -0.1069462 -1.2725991 0.70848966 0.61286014 0.24165085 -2.524656 -1.4114552 0.7618761 1.2481921 0.92695934 -0.15547661 -2.565205 -0.8204887 -1.087767 -0.38529342 -0.54699665 0.22171189 -0.12670451 0.113000415 0.15077904 0.6495029
116 0.0077627436 1.0458864 -0.49957776 0.25963333 -0.17358251 -0.28695735 -0.5524827 0.8674857 -0.8305614 -0.41371423 -0.87349325 -0.5544036 -0.50684744 1.0364832 0.67053396 0.8847462 -1.9129285 -0.85899186 -1.200835 0.5550152 1.0276303 0.11824802 -1.2529805 -0.13243702 -0.5435479 0.03545924 -0.49884677 -0.85873085 -0.4111383 -0.09382842 -0.5244225 0.31159988
185 -0.34369305 1.2220643 0.5562711 0.47549492 -0.2353159 1.0082235 -0.7482741 -0.2623602 1.0566406 -0.87609726 1.0705838 1.0793041 -0.25877064 0.27871394 -0.33598727 -0.07014481 -1.9626604 -0.9289798 0.014721586 1.2576278 -0.7868841 -0.36284304 -0.4223871 -0.9383514 0.882112 -0.07716243 -0.083688214 0.3141558 -0.23175222 -0.4429873 -0.5594141 0.062770136
175 -0.34445214 -0.2104456 -0.76860136 0.66990095 1.0761161 0.017880287 -0.80924237 0.6786837 0.9498956 -0.16992567 0.8999324 0.31400475 -0.045996316 0.3057979 -0.7966798 -0.07126341 -1.6511152 0.449914 -0.74081403 1.1477177 -0.76812965 0.23208402 -0.12937528 -0.15728302 -0.2775724 -0.41972554 0.06480324 -0.6095468 -0.14047371 0.38130224 -0.94904715 0.35865465
248 0.06654371 0.51413786 0.19141161 0.63121396 0.3444083 0.4837487 0.203484 0.7112273 0.6616386 -0.09652186 0.409913 0.21965231 -0.62547356 -0.7084472 0.89954215 1.3984114 -0.50742143 0.11117835 -1.2002425 -0.3283045 0.055809923 -0.7801803 -1.305329 -0.94124573 -0.44543618 -0.76346076 -0.14740068 -0.64126587 -0.1942526 0.097018406 1.1230068 -0.86868143
51 0.9831589 -0.4404327 0.26944074 0.82509124 0.7842449 0.7132155 -0.37266296 -0.8412402 -0.5316001 -0.0075224275 0.026025053 1.6121252 -1.518345 1.1958874 -0.097238466 0.43750107 -1.4404846 -0.071239 -0.047173217 0.60034114 0.79091465 -0.5972873 -1.0393107 -0.44288778 0.38489872 -0.15003131 -0.7682114 -1.1327331 0.38683453 1.010682 0.50036573 -0.3896977
208 0.1712222 0.34647307 -0.0072399015 1.0816517 0.20919298 0.81922174 -0.6974424 -0.5006783 -0.03757026 -0.23651685 -0.63918877 0.44419706 -0.08529523 -1.0580784 0.39761764 0.7794791 -1.0001328 -1.6672873 0.27525318 -1.3689106 -0.503804 0.68439084 0.040930238 0.63497025 0.73014295 0.19268532 -0.5664753 -0.99524015 0.55688715 -0.16718863 0.58844346 -0.47111785
306 0.5094004 1.6501724 0.22056806 1.7911879 0.36202368 -0.30287254 -2.4239647 -0.44211718 -0.24976698 -1.1908201 1.8380634 -0.7206041 0.12052346 -1.0385176 -0.11984525 2.1078231 -1.3169006 0.30521286 -0.09996314 0.93293315 -1.6995147 -1.4676499 -2.049753 1.0114298 1.5401206 1.1411281 -1.1148307 -0.18405688 1.7800149 0.23278527 -0.28988832 0.95543605
70 0.49701717 0.50968915 0.75348294 1.7070853 0.47657967 0.13993488 0.4330617 0.110906035 -0.95106626 0.3757681 0.014888225 -0.7919702 -1.1820725 0.33218148 -0.17891105 -0.47081524 -1.5868496 0.53506887 -0.8020301 -0.15154184 0.042942844 -0.58678377 -0.7917232 -0.6165567 0.058834735 0.31710836 0.18122844 0.19072735 0.12124476 0.61589134 -0.7017179 0.014837262
104 0.5971295 0.24955282 -0.4258225 1.3857384 0.43657857 0.65456384 -0.6514472 0.5113806 -0.20294507 -0.90166384 -0.013336225 0.66024244 0.68796474 -0.9800275 0.40921414 1.0162866 -0.761715 -1.3304672 1.0413369 -1.0408885 -0.16704287 0.801596 0.19428445 0.6849554 0.38398945 0.24160895 -0.61136615 -1.1374962 0.16879302 0.02073527 0.18140371 -0.23900771
184 -0.7629435 1.0003732 0.40143222 1.2345603 -0.26323006 1.1638175 -1.6288836 -0.08724022 0.019849248 -0.94129837 1.0467217 -0.1626669 0.033255544 0.9038511 -0.44330844 -0.34040818 -1.7133561 0.25676933 0.11985755 1.2363312 -0.20439263 0.46357927 0.17081363 -0.42616624 0.14961463 -0.35094973 -0.1622036 -0.641797 -0.20449871 -0.0018013747 0.50583774 -0.7400926
274 -0.67850614 0.6691243 -0.30714503 0.76327634 0.49031198 1.141765 -0.7252428 0.61269873 0.24562083 -0.069417164 0.05873123 0.13679671 0.59436965 0.07713883 -0.34911537 0.19019005 -1.1946363 0.15550727 -0.6759825 1.1404572 -0.15111116 -0.61037177 0.15127529 0.18868758 0.5211201 -1.2191002 0.02799381 0.10053315 -0.31619638 1.045986 -1.2935541 -0.18633188
182 -0.33538654 0.79839426 -0.3739547 1.2720629 -0.53362197 -0.187807 0.10702446 0.07236495 0.19499075 -0.47976795 -0.0018216275 -0.026074162 -0.37417066 0.5984579 1.1487448 2.064075 -0.53805435 -0.0376309 -1.2246763 0.4491303 0.89211994 -0.45215303 -0.9384849 -0.2068761 -0.067030124 0.13944216 0.06831512 -0.924042 -0.21421812 -0.21323839 0.6798837 0.08727865
111 -0.09011113 0.14052431 -0.31903154 0.47010973 -0.5350261 0.10511659 -0.62099606 0.4204106 0.2866296 -0.45667657 -0.9599194 -0.29388747 -0.7030192 -0.3406971 1.3688456 -0.30498433 -1.9447232 -0.27533287 -0.8976413 0.26862046 -0.25273132 0.26185706 -2.3977094 0.3174238 -0.6421243 -0.6115761 -1.2556435 -0.123856835 -0.35992494 0.8809975 -1.1504668 0.6122546
162 -0.10140576 -0.49542361 0.11699414 1.2445078 0.7433369 0.66581875 -0.73718184 0.06329466 -1.0636264 -0.27301988 -0.31663895 0.7940179 -0.6413423 0.72756845 -0.13317159 1.0855144 -0.8701066 -0.04758411 0.0309027 0.64751357 -0.20808484 -2.1564384 -0.89496875 0.13640599 0.6182313 -1.044492 -0.46294278 -0.65405095 0.4881569 1.0313358 -0.21230607 0.13261996
127 0.56286615 -0.1849803 -0.33237126 1.3006359 0.2852255 0.1971571 -0.9265979 -0.6866027 -0.13546816 -0.95181334 -0.16568398 0.38526586 0.12178786 -0.71736854 0.28481027 0.6883448 -0.6430622 -0.9858116 0.8856977 -1.0927781 0.063307606 0.80191135 0.06476371 0.2370783 0.9108556 -0.11406055 -1.1573505 -1.0854229 0.44334078 -0.2130849 0.5185385 -0.54780203
262 0.49159878 2.583401 -0.21786506 2.3506606 -0.9231419 -0.53971094 -0.9626606 -0.19213131 -1.1670599 -0.042834133 1.2450289 0.81616205 -0.060380194 -2.2185931 -0.36868277 1.3966618 -0.48326826 -0.6766223 -1.2830298 -0.020769466 -1.226658 -0.88347447 -1.4572742 1.1442289 0.96945417 -0.07756443 0.42802194 -0.017556204 1.1274501 0.8292914 -0.7697088 -0.22206587
19 -0.21946345 -0.36726686 -0.12238841 0.66011703 0.27327868 -0.46485558 -0.75381553 0.32813874 -1.1123317 0.38798887 -1.0991243 1.0596207 -1.5746301 0.47743526 -0.15716183 0.94147336 -0.6326782 0.29127544 0.7129222 -0.28809112 0.38019407 -0.46689042 -1.6677577 -1.1322864 0.46916905 0.032642793 -0.40108198 -1.2528557 0.31773916 0.90770906 -0.49405307 -0.48083776
183 -0.18642904 0.81227875 1.2522851 0.3487786 0.5212888 1.8055426 -0.7150912 -0.08928076 1.0352334 -1.2839608 -0.015070681 0.06712508 -0.5047216 -0.20055446 -1.0013644 0.49224785 -1.7496103 0.482898 0.048056312 1.4981371 0.010877613 0.38824177 -0.25503725 0.03188987 0.087471284 0.09984134 0.122552864 -0.25036073 0.2692273 0.36124492 -0.17274961 0.16275364
82 -0.77858406 -0.008212119 -0.3779527 0.22507158 0.20663965 0.7016788 -0.63277847 0.057301268 0.069688424 -1.1312487 0.08178521 0.46684602 0.06804714 0.15760018 -0.14168008 0.11223776 -1.7413424 0.5111284 -1.0156561 0.36983553 0.16765617 0.49979946 0.034038305 -1.0461639 -0.06404334 -0.20051277 0.21839616 0.66531557 -0.5423239 1.0242089 -1.2869803 -0.8096465
126 0.15258934 0.35204762 -0.25088567 1.2903887 -0.15915243 -0.19051856 0.3577421 0.3604295 0.5243964 -0.8958016 0.69944423 0.7044911 -0.062387634 -0.8159835 0.83260226 1.3848116 -0.72539294 0.57965183 0.019622223 0.6954411 0.5135574 -0.8379506 -1.4787413 -0.34468654 -0.21669795 0.6709346 0.14527576 -0.34599492 -0.4603942 0.97871673 1.0843854 -0.086182795
215 0.2461438 -0.2008897 -0.94249153 0.1485776 0.61866826 -0.48090073 -0.616578 0.6194936 0.001809844 0.046055827 0.14209335 -0.9680286 -0.14146395 0.18010592 0.20394136 0.088265754 -1.9436443 -0.54163635 -0.7966493 0.8265405 -0.47155273 0.58843863 -2.196267 -0.5518174 -1.0771352 -0.778875 0.08972189 -1.0904619 0.3307498 0.78105885 -0.81960285 0.6393877
210 0.06242628 0.003047094 -0.62666893 1.9463992 -1.1073399 -0.28363588 -1.7037506 -0.7130663 -1.0356084 -2.0414116 1.25933 -0.73188806 -0.19487518 -2.5942647 -0.27256572 1.9800118 -0.9315119 -0.65797496 -1.0962095 0.3397758 -1.603459 -0.76289153 -1.1625085 0.6809181 0.8284635 0.045540623 -0.07917275 0.56316096 0.69552517 -0.4337912 -0.14183529 -0.5222021
105 1.1032559 0.17668208 -0.40499377 0.9490578 -0.7187613 -0.7312724 -2.316233 -1.3175024 0.23545568 -0.8386748 1.6633512 -0.14357463 -1.1767218 -1.0697342 0.85173446 1.3017273 -1.4108411 0.6455673 0.96900034 1.1938214 0.5051582 1.8784755 -1.5732498 -1.9756984 0.6660674 1.2662435 -0.19794105 0.15166368 0.89432216 0.65487707 -0.8446988 -1.5833396
61 0.20896919 -1.4472682 -0.73393196 0.7942209 1.1762521 -0.63699555 -0.4292833 -0.20445842 -0.82324415 0.32872882 -0.30091 0.54256284 -1.044023 0.59832996 -0.25951105 0.7269632 -1.2774664 0.09463743 -0.28570992 0.47628543 -0.5112373 -0.38034406 -1.3862809 -0.88799757 -0.3981528 -0.3437527 0.025424756 -1.3791947 0.11226866 0.41027144 -0.16655129 0.28823802
240 0.5376571 0.6461325 0.8121985 0.7689691 0.40003172 -0.20162159 -2.1154933 -0.3581958 -0.5977416 -0.3539314 -0.007491205 0.23752888 0.675222 -0.8684451 -0.2971591 1.3505883 -0.3748537 -2.0679474 2.0717025 -0.31565136 -1.2701752 0.14911315 -1.4259441 0.15221986 0.41751364 -0.4764193 -0.34803447 -0.9384661 0.7544397 0.33350718 -0.06791235 -0.16009136
204 -0.13158667 0.36526138 0.08955092 0.43306187 2.4014742 -0.5019213 -2.1243844 -0.838383 -1.9251597 0.81536496 0.9017743 -0.18123493 0.1335585 -1.796036 0.21805671 1.4827394 -1.8757362 -1.6389617 -0.105546154 2.533048 -0.5653339 1.1246681 -0.081902646 0.037628494 1.4297097 0.9168536 0.2416322 -2.0372248 -0.64357245 0.755406 0.4499207 -0.82800496
143 1.3434253 0.27236483 -0.20406504 1.6512431 0.2996171 -1.7213029 -1.4393632 -0.7903901 -0.047168154 -0.09398846 -0.71531147 0.54946446 0.2871324 -1.1894493 -0.4690064 2.337226 -0.3900813 0.6659286 0.41290602 0.6196611 0.025070556 0.5778491 0.7544077 0.30061966 0.2573669 -0.6868063 -0.10207623 -0.022728499 -0.877501 0.7719193 -0.3800628 -0.03643847
207 1.0452256 0.34809518 0.22757684 1.282254 0.15746406 0.6827065 -0.77808845 -1.2548939 -0.04176559 -0.33142972 -0.8108321 0.72034085 0.23275617 -0.99601674 0.98739254 -0.057184666 -0.63222575 -0.5767883 0.5597545 -0.6864138 -0.59500325 0.86377746 -0.2482449 -0.009773495 0.5480093 0.3750464 -1.33865 -0.9408584 0.3475809 -0.42188415 -0.19480303 0.042269576
181 -0.61963475 1.4175868 0.36773613 0.00042887017 0.5920555 1.1223352 -1.5287218 -0.37134218 0.76482356 -0.1190003 1.2396973 0.36580166 -0.6616346 -0.41945827 0.23027444 -0.013164611 -1.930436 -0.07472328 -0.72669864 1.2213556 -0.018466504 -0.015169044 -0.7227566 0.3511529 -0.42410424 -0.20044042 0.34925267 -0.11820594 0.17669918 0.16850092 -0.4726361 -0.753788
234 -0.9652151 1.0374987 -0.2580988 0.5045172 0.16342252 0.59340835 -1.1026351 1.11009 0.6781923 0.17178755 -0.008166837 0.5762312 -0.4643741 0.2900572 -0.6449645 -0.23018351 -0.89526117 0.62640196 0.12832536 0.4170639 0.27195582 0.36649022 -0.8765137 -0.44998816 0.6188553 -0.15093762 -0.04087989 -0.27612868 -0.04911075 0.9277288 -1.5161 -0.4565724
235 0.56543344 0.56594926 0.11846686 0.62988627 0.4732431 -0.496544 -0.09617277 -0.2119098 0.38001105 -0.5762964 -1.4294735 -0.2206179 0.26998675 0.7314497 -0.42990533 -0.27276215 -1.809549 0.31470725 0.070339024 0.6028058 -0.50705826 -0.49558866 -0.9653955 0.3909611 0.20491102 0.04563368 0.21802676 0.15500158 0.37305263 -0.51712036 -0.10265676 -1.9089756
296 -0.09796732 0.29678157 0.031144613 1.2224338 -0.57522386 0.5428068 0.7074459 0.16177498 0.12252503 -0.556647 0.64033735 0.26736367 -0.816898 -0.53140783 1.2676288 1.3785033 -0.33163193 0.44004023 -0.42536774 1.3041412 0.11616237 -0.30189997 -1.4231755 -0.6593062 0.3710399 -0.52019554 -0.07491935 -0.6657575 0.79943126 0.22256866 0.89557576 -0.2795559
31 -0.26762486 -0.019421602 -0.2610359 -0.24365555 -0.14269754 0.41888034 -0.73355967 0.16067046 -0.86326313 -1.3788347 -0.2727662 -0.6832564 0.1704248 0.1369333 0.90726626 0.40665495 -1.7695208 -0.9358489 -0.8855089 0.27106693 0.32748452 0.38995162 -1.7369183 -1.0600237 -0.7812201 -0.6954467 0.032581087 0.15719965 0.22565892 1.47983 -0.99488425 -0.34680316
211 1.6591909 0.8064013 -0.5736181 1.728247 0.27777252 -0.54804796 -1.2326487 -0.65436435 0.2960948 -0.4684984 2.413173 -0.30303702 0.41418064 -0.95953894 -0.14962237 2.1740465 -0.5396215 -0.8219467 -1.2230842 0.094048314 -1.1713647 -0.38592297 -1.3563962 0.9736371 0.41992423 0.20040877 -0.95420074 0.029877836 0.83441883 0.13807076 -0.001664232 -1.3634865
40 -0.064862594 0.2825895 -0.59234107 0.8111052 -0.21042597 0.5667857 -1.8330736 -0.0018283713 -0.12576203 0.53881955 0.3620543 -0.2175635 -2.078746 -2.1655536 0.056999587 1.9397935 -0.8560206 -0.3512175 0.5623543 0.43449286 0.41859287 1.5726979 -2.205911 -0.91070837 -0.31829774 0.15041421 0.8122104 0.07831679 0.2276545 -0.63293445 -0.9947993 -1.7869582
68 0.46000063 -0.44116205 -0.107264526 0.7178463 0.12736447 -1.3247187 -1.9896827 -0.06128779 0.8301385 0.38972118 -0.7526926 0.9950023 0.08304119 -0.13786891 -0.2727445 1.1920744 -0.6570536 -0.57576543 -0.21346283 -0.4696049 -1.3450294 0.90222883 -0.13913706 -0.65279233 0.7181175 0.23445515 -0.47124445 -0.963804 0.03937987 -0.5981373 -1.0285742 0.5524068
120 -0.35928652 -1.2151623 -0.048634943 0.27756685 0.43141037 0.23469871 -0.59303063 -0.69126636 -1.5504107 -0.986626 -0.58986247 0.84944355 -0.6558802 0.5425522 0.3436159 0.9300025 -1.0488483 -0.13892631 -0.46364143 -0.03634386 0.24338531 -0.462335 -0.7613301 -1.3979356 -0.10432511 -0.16642697 0.11903349 -0.054252256 0.06272438 1.043811 -0.35089162 -0.6953954
268 0.5376523 1.6636821 -0.17966767 1.2231461 0.12811361 0.2747406 -0.942295 0.1272379 -0.5407823 -0.7935227 0.38235214 0.46675447 0.1447733 -1.4991789 -0.17714906 1.1162004 -0.3251639 -1.4798138 0.8729193 -0.0013772497 -0.73003745 0.527313 -0.15842272 -0.5474138 -0.20539846 -1.536097 -0.6016859 -0.62015265 1.8848504 -0.20944285 0.79803485 0.25928682
81 0.9661506 1.2625669 0.41221818 0.41229293 1.4492927 -0.21502645 -1.2124655 -1.2467011 -0.66867185 -0.45152107 1.3851359 1.0660818 -1.1241094 -1.3836776 -0.3840729 0.8729852 -1.3581971 -1.5132536 -0.8362245 1.0860343 -0.7724341 1.331541 -0.40812755 0.47205386 0.48132977 0.9090424 1.4044434 -3.0853264 0.3364771 -0.7783256 -0.04249189 -1.3243273
223 0.0066680945 0.15167159 0.524947 1.5553327 -0.09288858 -1.5302093 -0.86073 -0.40347525 0.38007042 -0.67973864 -1.0165606 0.50842804 -0.38844886 -1.4057536 0.47127086 1.992446 -0.8610918 0.2819508 -0.007764108 -0.21016641 -0.6961079 0.40360153 1.0703676 -0.69829994 -0.2816221 -0.036720097 -0.6785333 -0.943467 -1.8986719 0.1514752 -0.12264097 -0.2536423
33 -0.21057671 0.9623696 0.255997 0.85491943 0.4736279 0.72635925 -0.9356331 0.7563543 0.45232707 -1.0447928 1.0504872 1.0617096 -0.3297757 -0.43523496 -0.19576167 -0.464745 -2.0299156 0.42582014 0.32789594 1.7728387 0.16462629 -0.5592935 -0.22468878 0.026666803 -0.055568904 0.22068757 -0.18563616 0.2318395 -0.7396337 0.8341906 -0.08930729 -0.68239856
39 0.21570612 0.17646956 -1.1409863 1.0063245 0.02964612 1.335206 -0.85316855 0.74134517 0.4623653 0.036699977 -0.076468796 -0.07292841 -0.6558822 0.1962586 -0.45342097 0.055495072 -1.7078147 0.5261617 -0.01326542 0.7016229 0.31064126 0.21087134 -0.5190534 -0.39976147 -0.16787186 -0.8123569 0.6369079 0.80376244 -0.6480447 -0.17814931 -0.9380755 -0.013808442
186 -0.22604087 -0.15444764 -0.060790017 1.758745 -0.62049824 0.35225487 0.12354562 -0.26489168 1.0112402 -0.52868646 -0.20641613 0.4536509 -0.6694726 -0.41242063 1.541816 1.0551776 -0.5387446 0.32479683 -0.74877554 -0.005611905 -0.146779 -0.31582952 -1.6547189 0.06830648 0.018597955 -0.30022672 -0.6125151 -0.27269787 -0.29719162 0.49138433 0.3388577 0.18325523
125 0.130223 1.2818092 0.6128974 0.83366704 0.6115135 -1.0064349 -0.1290898 -0.63780904 -0.34345302 -0.62411743 -0.7811691 0.1412826 -0.33409724 0.7035711 -1.1790477 0.43582997 -1.1815562 0.11931291 0.050877914 0.9027353 -0.5106868 0.38339266 -1.4983114 0.61632466 -0.53809917 -0.9689888 -0.3779796 1.1767311 -0.09930328 -0.13918921 0.32855928 -1.3116393
226 -0.26678735 -0.37129685 0.15346347 0.4930482 0.18126734 1.0597732 -1.3994766 -0.33114776 0.77285445 -1.9142318 -0.5833444 1.2573065 -0.09392261 -0.37881538 0.24222562 2.0470977 -1.4915711 -0.38925388 -0.27148247 -2.0626156 -2.3179746 2.2994635 -0.32476428 -0.79324275 0.5404764 -1.4096587 -1.8219889 -0.6991254 0.37026072 -1.0577165 0.18176705 -1.6471937
255 0.28401214 -0.24427754 -0.106560126 1.6146739 0.119515285 0.5839774 0.025428053 0.34797072 -0.71275693 -0.83119476 0.09017511 -0.8479966 -1.5901431 -0.01882786 -0.07318116 0.2018963 -1.0382861 -0.67141783 -0.14885414 1.1047013 0.9794182 -0.4298698 -2.18876 -0.6914309 -0.37939999 -0.7167242 0.02601622 -1.0323732 -1.5339495 0.9620233 -1.9091977 -0.909357
128 -0.81848896 -0.16170655 -0.06573324 0.87194735 -0.08341289 0.80230725 -1.3975981 0.3020488 1.2814416 0.12980352 -0.25715303 0.9018286 -0.5367961 -0.41504273 0.269521 -0.18581833 -1.3645006 0.65932643 -0.7637192 0.80264914 -0.8398486 0.21943441 0.26357096 0.056096725 -0.032481045 -0.8576254 -0.82030654 0.08431498 -0.7075175 0.5815012 -1.2154994 -0.1721
92 0.564845 0.095566735 0.7011819 0.6989246 0.013006662 -0.6448943 -2.4259572 1.0913651 0.026075536 -1.2222604 -1.2807988 0.88735324 1.4643066 -0.49363357 -0.34101388 2.0741751 -0.8473554 -1.373475 -0.6617706 -0.13952592 -0.64153403 0.5436955 1.1609484 -0.89021885 1.2005308 1.3821774 -0.9239568 -0.86585635 0.7869382 0.75348824 -0.70682204 -0.38430327
201 1.1576893 1.2767805 0.41241205 2.4077446 -0.5955788 -0.35963583 -1.0410389 0.32142723 -0.79483914 -1.635171 1.1285132 -0.631298 0.7111736 -1.2915276 0.61447144 1.0095702 -0.47127712 -0.7958388 -1.265593 0.3286127 -0.70571834 0.2249441 -1.1441951 0.96204674 1.0841002 1.186692 -1.1081053 -0.67066485 0.33293638 -0.11527995 -0.83609414 0.1678007
16 0.120852664 0.9111374 0.35906407 1.257388 0.007731772 0.52146137 -2.173653 -0.49390933 -0.9458593 -0.96989715 -0.3643053 -0.63996893 -1.6490167 -0.108502604 0.7585122 2.6503186 -0.23366848 0.18115835 0.67889935 1.2640047 -0.30190635 1.1490211 -0.9316774 -0.70193815 -0.47867322 1.8628006 -0.1919901 0.2622125 0.3173485 -0.018393453 -0.7326089 -1.0224558
88 0.41786733 0.17925227 -0.41918623 1.0810628 0.24480027 0.7046681 -1.7776409 -1.0544556 -1.1702957 -1.0533347 0.4059194 -0.0753843 0.8701501 -0.9920737 0.773816 1.205575 -0.9319473 -1.8931731 0.7208638 -0.5757525 -0.5876334 0.25027606 -0.10468917 -0.11309138 -0.12406632 -1.3408295 0.36596018 -0.1358439 0.43711662 -0.4369306 -0.3537592 0.017257372
264 0.12968905 -0.20750992 0.5391683 0.2179754 -0.4822751 0.22704476 0.48896995 0.45583344 -0.62360656 0.25771716 -0.15211856 -0.19067828 0.17114778 0.15136942 -0.99662113 0.25465596 -2.0628653 0.29860657 0.010186218 0.82281876 0.033201102 -0.2475617 -1.3486098 0.23935485 -0.068528235 0.13105322 -0.7049801 0.1488077 0.4475051 -0.43218336 -0.5540874 -1.3080877
2 1.0614177 0.054446615 0.17388722 1.1325558 0.3028531 -0.98763645 -0.3444941 -1.9518385 -0.81114167 -0.8256264 1.6844842 0.06960763 -0.08479901 -0.74132913 0.8819746 0.8107786 -1.6221335 -0.9562702 -0.6803477 2.4641585 -0.056059107 1.2409027 0.15201095 0.42905438 0.9042459 0.79378194 -0.54746115 -1.8908604 0.5192832 0.18325925 0.8898269 -1.0560781
169 0.73220676 -0.13851908 0.728971 1.2800047 0.07680075 0.93684787 -0.5378271 -0.78724945 -0.20249748 0.6508386 0.083576925 0.0145793045 0.48436236 -1.1180035 1.013474 0.5608083 -1.5517237 -0.37767914 0.8608048 -0.78027093 0.20159511 1.3081378 -0.4097399 0.059139114 0.8496548 0.42076188 -1.4599894 -0.7583396 1.3019125 -0.8716872 -0.47047824 0.08572473
55 0.3614718 0.66968006 0.41019627 2.0150259 -0.51371974 -0.4620053 -0.9640365 -0.3889192 0.042971157 0.9016651 -1.5463243 0.40776736 0.3875223 -1.2708131 0.47003445 2.209145 -0.50554156 -0.65594536 0.1587682 0.76692176 -0.7241478 0.18265781 1.0654893 -0.81211185 0.5748174 -0.4461069 0.17079845 -0.50774765 -1.1568009 0.27094117 -0.3372145 0.36894923
118 1.009708 -0.038296737 0.3137981 1.3190666 -0.051692877 0.43827876 -0.9541456 -1.407424 0.46708894 -0.2908744 -0.8820156 0.5993849 0.4407889 -0.84149283 0.6243733 0.14566955 -1.0514674 -0.34729218 0.43539968 -0.72362435 -0.4582878 1.1814193 -0.28632876 0.6775752 0.39198315 -0.0056506563 -0.9302756 -0.68894315 0.8634588 -0.15083833 0.046793055 0.031169178
69 0.52665406 0.42068025 -0.3265228 0.6594406 0.32903862 0.8944113 0.031237755 0.025734318 0.71696043 0.57150114 -0.00749255 0.6791563 -0.16425963 0.6837416 -0.13295975 -0.4700215 -1.5112284 -0.020871663 -0.6347911 1.217284 0.77582854 0.92259073 -0.19697097 -0.491126 0.21681127 -0.712242 -0.34860674 -0.17615312 -0.46629578 1.2407233 -0.8810992 -0.59170145
271 0.99445766 0.6746541 0.11079892 0.91633177 -0.08124802 -0.8145123 0.11338912 -0.9669726 1.1357877 -0.068512514 0.054337952 1.153531 -0.48756406 -0.5170903 -0.57837737 1.813915 -1.0166767 -0.97659117 0.3645674 -0.27470678 -1.094599 1.1000022 0.6675744 -1.4883885 0.3574573 -0.3639636 -0.1265744 -0.4041258 0.19378346 -0.18643875 -0.42632198 0.8423796
187 0.71435213 0.09391667 -0.20728078 1.730662 -0.3651717 0.3940354 0.5765321 -0.34328264 0.4316472 0.5014559 -0.054880265 0.31523082 -0.23895757 -0.158114 1.0921223 1.5489612 -0.38732293 -0.17341875 -0.47375408 0.70411474 0.6215623 -0.121533915 -0.8724209 -0.5903531 0.20385034 -0.7228309 0.024651319 -0.6782848 -0.03369031 1.2838618 0.42407092 -0.5859535
161 -0.0036815407 1.2593434 0.50171065 0.27808574 -0.40124872 -0.61088926 0.45778993 -0.7339616 0.63835484 -0.38628158 -0.587557 0.13020442 -0.31353423 0.8490319 -0.6262809 0.3770659 -2.185983 -1.1235133 0.7003679 0.5716962 -1.2328361 -0.68685544 -1.0718132 -0.25565502 0.04276542 -0.26665634 0.2365898 0.56569666 -0.22628455 -0.3014956 -0.19301143 -1.0317912
166 0.25155795 -0.8727213 -0.7409823 1.7540799 -0.071863905 1.4122256 -1.1522257 -0.8848376 1.4691243 -0.6312258 -0.23508862 0.8367356 0.39409897 -0.86561245 -0.5577182 2.0883877 -0.47045028 -2.0737855 -0.6682322 -1.3086678 -1.0039368 1.2026123 -1.2639302 -0.94124836 0.3136784 -0.34200662 -2.6292298 0.44706917 0.22798745 -0.28968102 0.12120677 -1.4488089
132 -0.16396713 1.2649174 -0.27794012 1.0899835 0.2723574 -0.6859584 -1.0308559 -0.08050848 0.4385574 0.038395092 -0.2755347 0.8816442 -0.62957317 -0.8198608 -1.1749882 1.1778708 -1.4491618 1.6167853 -0.5855633 1.7113643 0.22451149 0.57884735 0.20385392 -0.5144331 -0.055685658 -1.2897991 -0.2843518 0.30324867 -1.2957234 0.8367086 -0.98197144 -0.3709742
0 0.44802496 0.91033906 0.65961844 0.40544176 0.42890128 -0.2178152 -0.23182695 0.061248515 0.10124694 -1.1556878 -0.82583433 1.7673993 1.5339651 -1.2686871 -0.87667346 2.272351 -1.5255711 -1.2246038 0.36922228 -0.18266098 -0.4142934 0.654067 1.1296746 -2.200928 0.9237814 0.72561485 -0.51244766 -0.37888494 0.88391554 1.3888439 0.56650466 0.024773255
220 0.6112956 1.4811717 -0.47064865 1.1798944 0.108400345 0.16422053 -1.3112181 -0.406526 0.27526814 -0.92971194 1.0314138 -0.2673664 -0.11850481 -2.1311655 0.9798712 0.9145308 -0.08924276 -0.025389468 -0.6567776 0.21553667 -2.3606858 -1.0651834 -1.1114346 0.16736642 0.95760864 0.5457727 -0.6858256 -1.1855998 0.4458177 -0.3407366 -0.94061744 -0.7258137
202 0.76629514 0.022488235 -0.12375483 0.8796491 -1.8818547 1.0882702 -1.8296019 -1.0147516 -0.9858076 0.10190559 0.7268744 -0.4324002 -1.0687865 -1.0464758 0.6610576 2.1091049 -1.5746865 -0.27349916 0.068672635 0.9148378 0.0060742283 1.7664132 -1.0648787 0.2966965 0.45923787 0.76275635 1.0838151 0.56556034 0.9000824 0.5576303 -0.010726904 -1.52334
71 1.0926762 1.1952658 0.5681718 1.4095135 0.5439077 1.1350143 -1.4668828 -0.16823888 -0.5694692 -0.5198473 0.23116197 -0.527345 1.0215364 -0.40715218 0.0029782667 0.76227415 -0.2439558 -1.0566118 0.5606558 -0.9664478 -0.8005326 0.84736717 -0.8524519 0.041083675 1.020792 -1.3558799 -0.1842526 -0.77781886 0.34633714 -0.43109033 0.78917044 -0.8877655
90 -0.33840021 0.48668668 -0.2382983 1.1745188 0.80769 0.22744738 -0.11020206 -0.8264776 -1.5211716 -0.27757254 0.3742897 0.45944163 -0.43699545 -2.1340914 -0.35555118 1.0778061 -0.23792747 -0.8763665 -0.6910193 2.7374723 -0.26425058 1.4253306 -0.4746714 0.5831009 -0.12834556 -0.02184823 -0.34958044 -2.218658 0.12737328 -0.7950513 0.38065252 -1.1125575
79 0.65910155 -0.56498086 -0.100509584 0.35159218 0.9606242 -0.044211954 -1.1639694 -0.6816457 -0.7302546 0.10132583 1.4592478 0.5581398 0.1440963 -1.0229886 0.57498544 1.7017937 -0.19105029 -1.1635115 -0.4709015 1.6057358 -0.8495253 0.76413006 -0.33592302 -1.0594091 -0.07164474 1.0251367 -0.24547048 -1.1031128 0.06296742 0.50460947 -0.7429682 -2.4052434
72 0.33942556 -0.08520215 -0.32598254 1.6748656 0.09837696 -0.1751486 -0.6273517 -0.09026751 0.10675036 -0.18198624 -0.49529576 0.29646668 -0.9161992 -0.9440956 -1.0843916 1.5136373 -0.23974827 -0.33837393 -0.5009763 -0.0076403446 -1.3027834 1.5955936 0.78460413 -0.6868718 -0.49270394 -0.72076637 -0.643514 -0.8222509 0.6837471 -0.8215099 -0.637374 0.82651395
34 -0.40562886 0.746089 0.4755161 1.18224 -0.46643385 -0.38300365 -0.41520828 -0.40731212 -0.111105114 -0.46092752 -0.62567055 -0.8265948 -0.14935485 0.9577298 -0.26741078 -0.1239303 -1.9458463 -0.017808584 0.8587053 0.5245572 -0.91764015 -0.012260327 -0.5995113 0.45578158 -0.8159895 -0.44747278 -0.13175766 -0.2779328 -0.30090746 0.29909107 0.8559936 -1.8186866
140 0.62799895 -0.048022617 0.15044813 1.8346409 -0.060910754 0.5111152 0.32003427 0.41657016 0.93210685 -1.0510089 0.8477661 0.6567271 -0.7003492 0.53915465 0.8181735 1.0976474 -0.37454408 -0.599738 -0.09629698 0.3186163 0.6929506 0.3059294 -1.3102952 -0.6149367 0.08972669 0.13547355 -0.5381512 -0.8593219 0.24937521 0.71219057 0.80439365 -0.25566036
168 0.4231157 -0.38171571 -0.3317311 -0.16147505 0.22271726 0.6091547 -1.5464095 -0.9214784 0.2546519 -0.8047012 0.08009252 -0.06330554 0.6056032 -1.6890403 -0.49948427 0.9790781 -1.5815171 -1.8052135 -0.16640683 -0.9897062 -1.2988566 2.3779163 -0.9869952 -0.7152724 -0.21794952 -0.4947928 -1.9386777 -1.2095942 -0.76504076 -0.11723217 1.0055634 -1.4014262
131 -0.20754132 1.4251597 -0.8028713 0.50348485 -0.7015927 -0.38903975 -0.25474033 -0.0036416715 1.1056256 0.42416292 0.21799147 0.74381113 -0.33141282 -0.75448877 -0.46778452 0.62726784 -2.4262698 0.22454122 -0.0034057242 1.2788517 -0.26800016 -0.32278705 0.048490036 -1.396477 0.5903852 -0.6435793 0.3725508 -0.046486653 -1.5251129 0.6830093 -1.6903585 -0.19179054
117 -0.21465953 -0.015974997 0.021775428 0.978216 0.4081207 0.4783616 -0.9105999 0.90724677 -1.0503727 -1.2876781 -1.5001737 0.9003159 0.84240764 -1.668234 -1.278423 1.7791067 -0.52884275 -0.53981245 -0.64128596 0.3713842 -0.5839338 1.3205363 1.1260576 -1.2329527 0.0163027 0.3993923 -1.2354308 -0.8899839 1.5109699 0.5642479 0.38610387 0.17618816
221 -0.25534958 0.4564648 0.086934954 1.4991153 -0.91856056 0.8347181 -0.75990933 -0.34101808 0.11767857 0.00657273 1.0745953 -0.9415271 0.19264266 -1.552815 0.3501405 1.8246657 -0.93964195 -0.54546773 -1.0335108 0.5433079 -1.623399 -0.19865556 -1.0739112 1.7556206 0.9071405 0.3285697 -0.59537613 -1.0437831 1.4179205 0.19549616 -0.22654724 -0.107070416
63 0.67277867 0.66095006 1.1359138 1.095952 -0.42103377 -0.011586459 -1.8332458 -0.1350888 -1.2899059 -0.96203756 1.2926345 -0.1023735 -1.559804 -1.2563617 0.10997508 2.131209 -0.8175836 0.19057415 0.71894956 0.5384489 0.17683733 1.2754003 -0.7901603 -0.97300166 1.0508188 0.49065185 1.7082217 0.11843159 0.5818481 -0.3072246 -1.3888644 -0.94112825
232 2.9572713 -0.021664286 -0.30860797 1.3555677 -0.41127607 0.527588 0.3012003 0.4119476 -2.124553 2.4879851 -2.478175 0.6683124 0.09476529 -1.1252948 1.5438105 0.7785672 -3.2329075 -1.1418707 -0.10307183 3.9368494 1.349047 -0.48146638 -1.0103606 -1.5114453 -0.38609502 -1.8252974 -0.6595803 -0.23872523 -0.9765106 3.504054 -0.44483626 -1.1610374
222 0.07823106 -0.5912549 -0.025760012 0.73098594 -0.05829857 -0.5024089 -1.171463 -0.38925466 -0.47814536 -0.16967465 1.066833 0.37488604 -0.08086101 -0.87197864 -0.2609195 1.3593684 -1.1262364 -1.6742079 0.66879654 1.5424734 -0.5601955 1.282356 -1.0770471 -0.080719024 -0.49707505 1.9758029 0.5067017 -1.8512465 -0.3981033 0.22716357 -0.13858 -0.39139262
54 0.64493084 0.2224313 0.17605947 0.09834403 0.60902524 0.31730542 -0.25861502 2.10456 -0.55638975 -0.23884837 -0.844856 -0.046504974 -0.8278026 -0.4944332 0.76118225 0.47897315 -1.8271934 -1.052126 -0.8947671 0.08218354 0.06894116 -0.41976568 -1.3235142 -1.1091596 -0.93626606 -1.0470351 -1.2384207 -0.5289723 -0.568451 0.28779024 -0.045323413 -0.6768143
47 0.5374857 0.8944601 0.23242915 -0.012141723 -0.21415333 -0.6655783 0.07495006 0.493584 -1.3707277 -0.8918117 -0.56482875 -0.24474113 -0.94480646 -0.22629395 -0.6919713 0.02962974 -1.0828557 0.45038438 -0.56713253 1.7348138 -0.6519796 0.6520835 -0.8359405 -0.46997464 0.37321043 -1.1258608 -1.3686845 0.05868759 0.5727576 -0.67754436 -0.34320349 -0.640385
300 0.0931175 0.67397714 1.1884053 0.5511708 0.41329843 0.10929792 0.27060056 -0.32178533 0.88117594 -0.91383106 -1.6205083 -0.62212163 -0.5435247 0.3305431 -0.8324151 1.0338633 -1.7451707 -0.1762563 0.5934306 0.7910421 -0.5225498 0.2144061 -0.7625672 0.6429329 -0.8314251 -0.1137548 0.2934981 0.02575163 0.08424236 0.33581084 -0.0022687048 -0.98857284
172 0.76874447 0.24932633 -0.2878419 2.8717139 -1.95134 0.3894451 -0.3860195 -0.6427662 -1.4622554 -2.292314 0.3591384 0.9933164 0.6939718 -2.001832 0.012880209 1.0130243 -1.2927358 0.8749469 1.92014 1.20363 0.48452085 1.3963729 -0.8017241 -0.076475 -0.29236677 0.55697453 0.48483568 -1.9515512 1.4399549 -0.19201446 -1.1160294 -1.0109836
95 0.72487557 -0.48393145 -0.7211273 1.4888453 -0.17116489 -0.22335383 -0.961371 -1.0589596 -0.044311628 -0.557724 0.08015355 0.15863521 -0.12214975 -0.31631094 0.058862492 1.557541 -1.1708264 -1.0066026 -0.74796426 -0.73890793 -1.0043801 1.0664017 0.7833612 -1.082978 -0.11028114 -0.28044516 0.5565783 -0.010117562 -0.2955468 -0.78689003 -1.3399872 0.4370332
279 0.36566243 -0.76787424 -0.8059937 2.589831 -0.30005932 0.7244454 -0.34509107 0.8507929 0.53942907 -0.6027533 0.40892795 0.25598773 -0.86998755 0.028401101 0.63093466 1.9731494 -0.17777891 -0.042428616 0.17896403 0.20307311 0.032910876 -0.47868568 -0.8528008 -0.65954095 0.049212307 -0.4936758 0.43332642 0.030787352 0.0641561 0.18192436 0.12882626 -0.028598767
139 1.5154922 0.7726758 -0.98136455 1.3533212 -1.1959903 0.02474635 -1.9833351 -0.778814 -0.59142166 -0.9273662 0.6908979 1.8123538 0.53269047 -1.0942147 -1.124112 -0.2501816 -0.9780486 -0.6224463 0.85906047 -0.017477276 1.0562326 0.78663796 -0.43665925 -2.1991565 -0.018196901 -0.6518754 0.84532905 -2.7883365 -0.19082631 0.59342 -0.16728097 -3.2296944
297 -0.55226356 -0.5663444 0.47172573 1.8706812 0.11989392 0.674768 -0.987952 -0.74456453 0.8320396 -1.1348339 -0.75764865 0.66803586 1.3905373 -0.65506035 -0.6349435 0.63919806 -1.8111674 -1.1075027 0.20962566 -1.6191726 -1.2280456 1.0842501 -1.1248045 -1.2016888 0.08027238 -0.99946064 -1.4162127 -0.4198143 -0.3211051 -1.3506134 1.2791847 -0.6460823
173 0.09153351 -0.5259833 -0.5607893 0.71025664 0.119228244 0.50208473 -1.2185019 -0.34360555 -1.2677032 -1.7588468 -0.69898415 0.8664744 1.811384 -1.0039742 0.12022706 1.6564163 -1.5793617 -1.2736428 -0.9265294 -0.5351455 -0.28872287 0.6420143 0.96405035 -1.519486 0.33810666 0.89391804 0.15346745 0.11888801 0.5265822 0.37973666 -0.3526751 -0.14083232
101 0.022821816 0.7211137 -0.10910438 1.9668534 -0.4413623 -0.32653838 -1.1691214 -0.2194876 -0.32258865 -0.743355 0.63382876 -0.5959888 -0.55759186 -0.8946112 0.2529621 1.430969 -0.07928453 -0.8487498 -0.36323848 0.45771775 -1.0719112 -1.3449018 0.013409084 0.9639271 2.0065172 -0.24949242 -1.3634131 -0.23918729 0.5749036 0.5189867 -0.4230515 -0.84742945
17 0.3932803 -0.11556957 -0.0738029 1.0608977 0.25039998 0.28748998 -2.112891 -0.69128746 0.009913321 -1.2358772 -0.32268766 -0.6797022 -1.1875709 -1.3278779 0.8420493 0.9183054 -0.78685844 0.65764165 0.36335862 0.71675426 -0.5613063 1.4827226 -1.5113825 -0.13542558 1.0920688 1.1681341 1.2855247 -0.15658508 0.41274852 0.27650106 -0.14510728 -1.7895321
10 1.765993 0.7642236 -0.39710248 0.6337074 0.56769246 -0.14522585 -2.0242949 0.51233745 -0.30875787 -0.27902642 0.08851874 1.5016742 0.37637728 -0.04448427 1.1201739 0.9300156 -0.97742355 -1.367057 0.9458074 -0.13747747 -1.0811956 0.5162658 -0.49636254 -0.2456362 0.48512197 -1.1681345 0.62543654 -0.73430663 1.2314264 -1.2325851 0.48394388 -0.89548635
59 2.0204067 -0.38373893 -1.1837571 1.5568815 -0.68797034 1.0445558 -1.1744812 1.8011327 -2.0174875 1.092783 -1.9613631 -0.2432074 -0.5900867 -1.2384444 1.113721 1.228703 -2.7881124 -1.0212233 0.81830055 2.6825178 0.58092666 -1.1177047 -1.4439932 -1.1274995 -0.9980294 -1.7734321 0.38210228 1.0171789 -0.9866222 1.1414554 -0.36236215 -0.00023997937
29 1.1866238 0.20021251 1.0216719 0.9458314 0.40645483 0.79225117 -0.10286462 -1.3578478 -0.75139374 0.5732208 0.31295297 -0.35484397 -0.5555326 -1.4130903 0.7614517 1.1146879 -0.8581145 -1.3131045 -0.061616022 1.9081093 -0.42374882 0.91469663 -0.14088778 -0.5807325 -0.20937899 1.1399927 0.56019145 -1.4048846 0.08101055 0.37291524 -0.8594634 -0.4593505
230 0.40130308 0.8732909 0.124723546 -0.38705826 -0.95454526 -0.31691235 0.5881875 0.5101332 -0.5997698 -0.63097 -0.4434204 -0.21290901 -0.9762042 -0.12771732 -0.17541327 0.029185567 -1.8763052 -0.5447241 -0.17096244 1.4208148 -1.105002 -0.23474507 -0.62430406 -1.3166633 0.84303224 -0.65523785 -0.8653806 -0.40415975 0.38086793 -0.72031426 -0.84203273 -0.22784418
265 0.9562466 0.62934935 -0.07021172 -0.022393942 0.12444882 -0.36687008 0.020123262 0.6547362 -0.32535723 -0.99618155 -0.70657843 -0.4100746 -0.5495054 -0.51731414 0.10733709 -0.6914118 -1.6797252 0.99128926 -0.27119425 1.5345803 0.046179138 -0.6516734 -0.744369 -0.5278596 0.6814678 -0.1627757 -0.14452368 -0.57909226 0.5790278 -0.18243174 -0.4448881 -0.99729323
27 1.8164397 1.0278299 0.16245139 -0.5177319 -0.9633115 -0.024864033 0.586303 1.7038772 -2.0445614 -1.3653309 -0.50026894 0.11137904 -0.85682404 -0.9341541 -0.6527423 0.7381719 -1.8846499 0.40173557 -0.56003296 0.07440963 -1.6643049 0.7092393 -0.8824225 0.2694915 0.8470972 -0.15254967 -0.41038576 -1.3594186 -0.75383246 0.3772005 0.21024784 -0.24608462
58 2.0994744 -0.074688494 0.096917294 1.5930557 0.3313935 -0.52784395 -0.80424136 0.11953398 0.66498345 0.5426306 -0.17028555 -0.14558221 -0.46835926 -0.40383115 -0.4080711 1.2589517 -0.8486388 -0.9077417 -0.6821537 -0.5114304 -0.8468104 0.8793611 0.9421376 -1.2323644 -0.23084848 -0.6556268 -0.12888221 -0.92675215 -0.23365305 -0.39571878 -0.29308102 -0.3844776
280 -0.75937915 -0.538127 -0.44105458 2.3086545 0.97880983 -0.027100177 -0.4926568 0.119197525 1.072345 0.37418306 0.7383901 0.65240365 -0.13150328 0.034719903 1.1358624 1.6316288 -0.33242878 -0.38343146 -0.31746814 0.34520137 -0.4275238 0.26044965 -1.2757255 -0.44497782 -0.19021904 -0.2116658 0.6595266 -1.1036252 0.7870926 0.71419036 0.09620969 0.23148127
305 0.963049 1.2646048 0.4647199 1.3171499 -1.6975952 0.68294877 -1.1840831 -0.5252306 -0.46943247 -0.32569814 -0.40996578 1.2468586 -0.29116243 -0.6287293 0.39170548 0.6989839 -0.4530474 -0.8053761 -0.60852253 -0.82944334 0.7320124 0.3766898 -0.72130346 -1.1165572 1.6296809 -0.75251 0.67298156 -1.9158832 0.8218566 0.3192172 -1.4658003 -3.3054347
144 1.8681443 0.8387591 0.49638563 1.8026584 -1.4952492 0.8345677 -0.59394646 -0.026806265 -0.359499 -0.40858424 -0.3749647 1.4429355 0.60315555 -1.9410661 0.1462979 1.1768585 -0.5160108 -0.28878498 0.17071235 1.8595703 0.9197997 2.6057367 -1.3192173 0.74145406 -0.19280629 -0.8865846 0.75305015 -1.4912331 1.204527 0.613886 -1.2657999 -0.5438907
109 0.14788447 -0.37362435 0.076785155 1.5409399 1.0580825 -0.7986497 -0.8394178 -0.6847547 -1.3015332 -0.79997313 0.13779648 0.54762655 -0.09867337 -0.9888659 0.86135876 0.6688196 -0.90170234 -1.4988878 -0.8836517 1.489572 -0.84196454 0.6936047 -0.026316987 -0.17991808 -0.29776484 0.7272826 1.4055994 -0.77801734 0.16369376 0.38136166 -0.6076124 -0.77328306
8 0.20346738 1.0427138 0.6868177 0.58892775 0.82989854 -0.25251013 0.11845997 0.28024873 0.8145543 -0.42391196 -0.3402931 -0.16520424 -0.7243869 0.03930039 -0.16640265 0.73312443 -1.7710179 -0.684002 0.0012973732 -0.25726807 -0.6782197 -0.5742 -0.8504796 0.36215737 -1.0884674 -0.8830214 -0.22549705 0.16155319 -0.29583395 -0.20041916 0.17678298 -2.4533265
170 1.7449943 -0.17367189 0.23495752 0.8423302 0.7135371 0.44169712 -1.0735725 0.89792377 -0.18450095 -0.48770925 -0.9044413 0.9011587 1.3847321 -1.1432979 -0.35095188 1.4046378 -1.1371417 -1.1402004 -0.96007955 -0.4189735 -0.23723216 0.3180542 1.2868639 -1.4412826 0.29604593 0.21565363 -0.7588154 -0.8251367 0.7458146 0.17511635 0.9226572 -1.3462365
84 1.4491252 0.036866523 0.04073054 2.0216897 -0.09896662 0.24949703 -0.6634055 -0.5276517 -0.045016184 -1.0511433 0.25623176 0.32291824 0.8472171 -1.7724711 -0.33744738 1.2217033 0.08554428 -0.1005516 -0.20949182 1.2927034 -1.1675848 -1.0403713 -1.0396271 1.2334719 0.9602775 0.1779677 -0.56578356 0.05015579 1.2557061 0.024237921 -0.7730464 -0.34590617
106 0.9576 0.35200417 -0.31078005 0.9732974 -0.07767845 -0.49029103 -1.6266893 0.014867177 -0.33018878 -0.31606564 0.65453017 0.51460075 -1.726892 -0.81221384 1.5322754 1.621171 -1.0145895 -0.17267825 -0.32897717 1.3323298 -0.5539767 1.5846628 -0.9556288 -0.34548452 0.397601 0.92171896 0.79796064 0.5069208 1.1714898 -1.3313884 -0.4666429 -1.129034
147 -0.22950883 0.26862332 0.879543 0.09486807 -0.5728382 -0.27467525 -0.769566 -0.8066787 -1.3403567 -0.50993955 0.53941965 -0.149741 0.14493912 -0.97941214 0.9609606 1.7224544 -0.91234374 -0.8799841 -0.27780643 1.7289966 -0.7173769 0.92859954 -0.20409507 -0.35357496 0.5248909 0.29828888 1.166436 -2.1328654 -0.41430783 -0.18509336 -0.43393293 -1.2453171
171 0.7756739 0.7760354 2.3561757 1.3299196 1.4262716 0.20321625 -0.9456994 -0.093031004 -1.2688898 -1.5653455 0.5297492 2.1481369 2.0260615 -1.1191342 2.0406587 2.22081 -1.7817258 -0.32512978 0.28263292 0.56406033 -2.8544097 0.016201433 -0.035884157 1.8853003 2.1133451 -2.8390968 -1.7609949 -0.43346584 0.9295179 0.73881924 0.7558627 -0.1916351
214 0.64151925 0.5111948 -0.9017359 -0.050319348 -0.24027689 -0.3137785 0.60741776 1.1151091 -1.3631469 -1.071222 -0.51064134 -1.1520517 -1.3606772 -1.612073 -0.9032142 0.7886975 -1.8551936 -0.526223 -0.40480825 0.5828146 -0.68935186 0.17217341 -0.9643715 -0.58689964 1.4125776 0.3575865 -1.859819 -0.65503657 -0.13085154 0.64467686 0.9268504 -0.4002616
136 1.613799 1.5791363 -0.1418763 1.8264463 -1.6874682 0.70172095 -0.8631018 -0.28270328 -0.2556094 -0.8253385 1.3205156 1.2762067 -0.32725206 -0.62892026 0.35264614 0.34933504 -0.82388234 0.32839522 0.9179207 -0.8339115 -0.8625385 -0.015452083 -0.8430842 -1.6232493 0.41241482 0.93380505 0.48473212 -2.139403 0.66712695 0.061944712 -1.2834545 -2.5480535
15 -0.19875748 1.3382468 -0.034860168 1.278198 -0.027131306 -0.9999048 0.011848162 -0.15100917 0.2934925 -0.93428594 -0.7072214 -0.34595737 -0.461985 1.3994055 0.091882296 1.5454819 -1.7817006 -0.9057338 -0.09410259 0.53783643 0.15623525 -0.1833881 -0.41170925 1.2428254 -0.71608293 0.14699446 -0.048011534 -0.11397991 -0.3418148 -0.50375634 -0.39769438 -1.486312
206 0.4314664 0.7976735 0.2706729 2.1913807 -2.6962814 0.5803235 -0.06357486 0.36299706 -1.562493 -0.827 -0.16053626 1.9713348 -0.49359524 -1.2396353 -0.6260007 1.3695669 -1.2722478 -1.1503057 0.7572455 0.4877311 0.13536566 1.3213601 -1.2759514 0.55028117 -0.25114158 0.4890447 0.61648864 -0.87623394 -0.22572957 -0.78418547 -0.93614876 -0.29224774
42 0.8174662 0.3217074 0.86748797 1.9956505 0.4257198 -0.03468813 -0.6655928 -0.5424021 0.369407 -0.19832529 -0.11486399 -0.4453112 -0.47210246 0.05550783 -0.8926147 1.6499959 -0.35974088 -0.10066968 0.083246194 -0.8185297 -1.4430928 1.2444371 0.3795654 -0.84678715 1.0038646 -0.3559806 0.35471582 -0.89294654 -0.44730455 -0.14127994 -1.0848324 0.41726732
77 0.5057258 0.5680454 -0.20918089 1.1827828 0.4023088 -0.16436598 -0.19389154 0.190005 -1.2042722 -0.04089919 0.64393973 0.63920736 -0.398573 -0.68258655 1.1407534 0.70552236 -0.74773014 -0.30751562 0.3727045 1.5812293 -1.8915055 1.3361461 0.36123636 0.08792447 0.23616748 0.91781723 0.5453372 -2.040737 -0.022781128 0.6477339 0.22514291 -0.92477787
189 -0.58233976 -0.8116278 0.13771045 2.8476071 0.4057351 0.6538664 0.0054597626 -0.36722928 -0.12983672 -1.0846139 0.65508825 0.596827 -0.15571839 -0.04551229 1.1657183 1.7584785 -0.13242936 -0.503606 -0.8100658 -0.26014158 0.091723055 0.017309321 -0.3759352 -1.1177968 0.3636375 0.07395716 0.42061442 0.029514845 0.29623428 1.3701468 -0.5691309 -0.9000529
146 0.6566822 0.04104837 0.7968804 0.42482507 0.62580377 1.373713 -0.839009 0.15598054 -0.76825917 -1.1693081 -1.0341443 0.21395019 1.2144916 -0.35853034 -0.64527243 1.9708725 -0.4893511 -0.3258133 -0.40124646 -0.66948354 -0.8463911 1.5810226 0.29908398 -1.0606965 1.5623059 0.26640224 -0.40862176 -0.72956324 0.047212716 0.8382937 0.32178855 -0.57100964
37 0.3458516 0.59788346 0.41277182 1.2305399 0.22178885 0.0046766265 -1.4057668 0.20826054 -0.8076083 -0.9752944 0.76457655 0.3905693 -0.10628432 -1.1386311 0.24262503 1.9716128 0.28447887 -0.02326073 -0.78745073 0.40358627 -1.7578472 0.13985194 -1.160388 1.5029377 0.593363 -0.58455247 -1.5219958 0.45121312 0.71543896 0.079169504 -0.7165577 -0.31399724
272 0.048371192 0.2824423 0.6205998 1.2786369 0.052757196 -0.38430083 -1.6786488 -0.087518476 -1.1452805 -0.41806504 0.8897209 -0.4658787 -1.5729082 -1.3841882 0.43072602 1.1561974 -0.77796364 0.40840173 0.53910106 0.95146394 -0.69007105 2.1918304 -0.7894454 -0.65690535 -0.6298041 0.26545313 0.20765899 0.111694686 1.1020637 0.63859063 0.26327303 -1.4305555
231 0.6368164 0.04001174 0.53725594 0.39613444 -0.03361287 0.69325906 0.21700642 1.2351493 -0.6311685 -0.38308233 -2.275327 -0.84666324 -0.9119737 -0.25525096 -0.13651496 0.9029821 -2.1136117 -0.12356623 -0.54105383 1.1048143 0.045003846 0.34725013 -1.2405556 -1.0854073 -0.50034535 -0.6428996 -0.60922414 -0.71015775 -0.29191944 0.8306878 -0.4722048 0.44580027
43 1.0720377 0.22794518 0.8145933 1.3605874 -0.018791543 -0.085021265 -1.0526708 -0.8996404 -0.45309094 -0.26219654 -0.50465846 1.1664873 -0.1811198 -1.0188693 0.69207036 0.6354352 -0.91183776 -0.49316645 0.14498998 -1.1503552 -0.21179307 1.3823062 -0.6000166 0.6418976 0.3949989 -0.027676698 -1.5993814 0.20102361 -0.18395816 -0.55680543 0.28098276 0.470932
292 1.2566226 -0.76124096 0.8659482 0.9962269 0.6370498 -0.36386392 -1.1634591 0.0022119917 -0.19803801 -0.09444772 0.33011273 0.2877091 -0.14712448 -1.1693985 0.22506778 1.1435697 -0.27850166 -0.63483274 -0.09573466 2.3722858 -0.69261676 0.7150474 -0.28493622 0.5323766 0.79611063 0.4724643 1.1079472 -1.8302325 0.44479352 0.49724698 -0.2618456 -1.0889144
75 1.1303804 0.36548775 0.6464556 1.9226 0.5770474 -0.31916216 0.5360267 -0.8567487 -1.0200288 -0.3177156 0.072563194 0.60691607 2.036841 -1.368463 1.7699392 1.9012744 -1.5938765 -1.4245082 0.84363073 0.38029605 -2.7783852 0.55500686 -0.48410457 1.1834127 1.3079988 -2.7513978 -1.6126902 -0.52788615 1.1345878 0.43801215 0.29080266 -2.2304325
86 0.93642074 1.2623147 -0.946972 0.35357758 -0.9861833 0.11753529 0.79004043 0.8635452 -1.7863332 -1.226705 -0.7035421 0.30473495 -0.64633083 -1.6150066 -1.0197061 0.35874146 -1.2146915 0.044425566 -0.29457256 0.55879426 -0.67002416 -0.24999844 -0.80333644 -0.82468164 -0.6917731 0.19829611 -1.6031293 -1.3022959 0.53161407 0.21547303 0.057037093 -0.16423155
294 0.4936485 -0.11672621 0.41935673 0.46639276 0.5634375 -0.4957599 0.0022876328 0.22466005 -0.3813663 -0.69243723 0.46862188 0.53823596 -0.679938 -2.639257 0.86472887 0.4765563 -1.2903574 -1.2905881 -0.25372535 1.4796826 -0.9702146 0.47840947 -0.17769578 -0.447782 0.7031647 0.8198895 0.44204855 -1.5026848 -0.43247953 0.42381337 0.65037936 -1.2806374
285 0.29640085 1.0157611 0.1820042 1.3793498 0.44387388 -1.17909 0.07474283 0.03736197 0.61816704 -1.5654287 -0.18152161 0.2530147 -0.28960857 0.0345182 -0.14742555 0.52758116 -1.9739283 -0.3736968 1.2680464 0.8509778 -0.43319046 -0.55625474 -0.8904423 0.92277515 -0.7261598 0.20459111 0.2730099 0.46374118 -0.5935025 0.8972295 0.0256019 -1.6618465
191 -1.1782863 0.07991229 -0.37028784 3.0339708 0.6990363 0.9057753 -0.11691523 -0.120668046 0.7614073 -0.19932579 0.38669747 0.81601864 -0.18509789 -0.36527184 0.47512844 1.7903814 0.7343728 -0.37571752 0.52840644 0.023637863 0.3969277 0.09269053 -1.4582285 -0.3033927 1.1236613 -0.39041054 0.33403847 -1.3695854 -0.38073507 0.63013506 -0.72406924 -0.9724873
108 0.23369896 1.060626 1.395543 2.1759672 1.0781727 -0.1146942 -0.48636585 -0.32109645 -0.5470379 -0.4467173 0.98522526 -0.9278976 0.25464624 -1.2225428 -0.56547433 1.6687514 -0.2669839 -1.1530715 -0.3880973 0.4703443 -1.8961611 -1.2106941 -0.30112812 -0.014067925 -0.25489214 -0.89647853 -0.4364575 -0.85215986 0.58185935 0.19927536 -0.75576115 0.30252707
303 2.0054998 1.4965314 -0.68713045 0.6110752 -0.5011981 1.0944717 -0.5916386 0.09549928 0.40520248 -0.36635974 -0.030966185 1.5189968 0.61639464 -2.307867 0.71524864 0.28535616 -1.0870256 -0.84254587 -0.13553828 -0.14098172 0.01588126 0.27195573 -1.3066739 -1.1789722 0.10534288 -0.1356753 1.4079647 -1.890435 -0.20692687 0.12466145 -1.3144839 -2.484318
96 0.9712805 0.04669443 -0.41109493 2.141108 0.8394024 -0.8479999 -0.5768767 -0.51658577 -0.034815945 0.3030663 -0.3235667 -0.27181038 0.20863594 -0.6631081 -0.8274603 1.0778488 -1.4440042 -0.5004086 0.72751224 -0.4175409 -1.1128976 1.1914386 -0.19273266 -1.336823 -0.2806878 -0.20658754 0.49256295 -1.0989289 -0.6969423 -0.71534264 -0.23888966 1.1844921
48 0.19247481 0.90628 0.7748321 2.75146 -1.4988354 -0.08490521 -1.2790596 -0.4283531 -1.7349542 -2.2564237 -0.96893954 0.7194326 0.28126577 -1.3897554 0.40636304 1.030732 -0.46372125 -0.5974099 -0.7785571 0.6204864 0.57886314 1.6019971 -0.97044444 0.3294036 -1.1200445 -0.38690814 0.59222215 -0.6369563 1.1108785 0.07522502 -0.90993357 -0.79313534
123 0.59952223 0.30592865 0.027769132 1.9547454 -0.92255837 -0.33961064 -0.7991327 0.3810543 -0.5497556 -0.6273131 1.1786793 0.5324378 1.1325544 -0.619601 0.31240726 1.2143915 -0.73019403 -0.49679324 -0.15869057 0.4188224 -2.5664299 -0.8809728 -0.5630548 0.5173198 0.7034683 0.18576428 -0.77367955 -0.33791608 1.0395862 -0.5783361 0.06528455 -0.5230392
41 0.58513886 1.0850486 -0.760892 0.50227135 -0.31591246 -0.014827607 -1.0726472 0.1246879 -0.5158158 -1.0916255 0.5930778 -0.28132793 -1.762528 -2.105715 0.53654677 1.7512276 -1.0457765 -0.41830423 0.7052449 1.4247991 0.07798742 0.70906025 -0.19119218 -0.7013084 0.5283806 1.3246772 0.8305864 0.21619223 0.4864543 0.33719903 0.51702267 -1.7759901
18 0.4784738 -0.009968272 -0.16020207 1.4693594 -1.1092502 0.6474417 -0.5814708 -1.1551626 -0.17743394 0.32710037 -0.43959147 0.6510295 0.51696604 0.11579326 0.82530946 0.33519107 -1.062377 -0.52007526 0.7467013 -0.54257476 -1.4025728 1.1251465 0.15286916 0.16618294 0.34925276 0.024118891 -1.7102653 -0.96417964 0.22073261 -0.2207921 0.29116416 -0.28418538
35 0.8094673 0.28179953 -0.3251503 0.49046892 -0.8162587 -0.28335196 0.15341966 0.5893317 -0.92124283 -0.7242532 -0.87489873 -0.9008406 -0.53483987 0.14454332 -0.37390852 -0.39941975 -1.556858 0.4914981 -0.7080409 1.0001373 -0.7749097 0.32118776 -0.5961652 -0.70364666 0.8292835 -0.5263722 -1.0139798 -0.6963717 0.2871955 -0.53035897 -0.8980464 -0.74271506
91 -0.23199207 -0.15976624 -0.33487093 1.5593721 1.2436131 -0.34507084 -1.2264949 0.2239603 -0.06245051 -0.3108059 0.3159001 0.31416452 1.6967723 -1.6126415 0.38095686 0.6458978 -0.46654803 -1.253614 -0.7951427 0.6591001 -1.6151682 -0.47803745 -1.0628039 0.5527212 1.7652825 -1.3057711 -1.160766 -0.7333645 1.1015989 -0.31561565 0.09806692 0.3131356
52 0.51711303 -0.67386526 1.7003005 1.2054405 0.10484155 0.12798727 -0.055559494 0.29517362 -0.15596463 -1.8759582 -0.37383777 0.033460636 0.7886075 -2.174749 2.0771296 1.3585943 -1.4449135 -0.50137323 0.7322864 0.4344308 -2.363116 -0.0547834 -0.12993176 0.5119198 1.8379583 -2.263695 -0.766163 -0.8776294 0.9380303 -0.30918923 0.81591356 -1.3158733
11 3.9836665e-05 0.49654487 0.08544186 0.4674615 -0.9791115 -0.14226027 -0.15110604 0.9530221 -1.460562 -0.71669585 -0.24814367 -0.85678244 -0.8719551 -0.014382511 0.17635736 -0.50416327 -1.8236461 0.3513393 0.06115093 1.4464417 -0.7297046 0.15643997 -0.5040777 -0.80626935 0.070972845 -0.7121389 -1.2095447 -0.997511 0.16840343 0.08960663 0.13203473 -0.7469489
115 1.4051353 0.936895 -0.26783493 -0.15407246 -0.003577126 0.22480881 0.68363965 0.8018961 -1.7630539 -0.7541982 0.13165453 -0.49948046 -0.42473197 -0.64228636 0.17695887 1.2779603 -1.3100907 0.7735775 0.53399533 0.73453236 -0.9500121 -0.042604417 -1.2622904 -0.9476513 0.17695634 0.6060357 -2.069908 -0.7604044 -0.47159827 0.11252287 -0.25504148 -0.16453326
66 0.57407165 0.4212116 -0.19656871 1.2685238 0.23462422 -0.00030784687 -0.3815103 2.1097386 -2.0475159 -0.019630825 -1.6392261 0.08405849 0.8136042 -0.7929547 0.79039645 0.9747132 -2.4970534 -0.92158484 -0.3019762 2.536798 0.069539465 -2.1980162 -1.6086574 -0.30785546 -0.064123556 -1.2064022 -0.8598226 -0.23748617 -0.7939014 2.6016932 -0.7890433 0.18643534
302 -0.35563397 0.8609262 0.25341135 0.23042327 -0.014447086 0.97055405 -0.22354633 0.52566475 -0.72685385 0.11991432 0.529483 0.14078985 1.139798 -1.4478042 -0.038352977 2.4982576 -1.7073189 -0.83762544 0.96626675 -0.637372 1.55415 0.05621286 -0.34755695 0.672135 0.8769105 0.2870882 -0.7595629 -1.4124367 1.1538742 -1.8169967 -0.40003765 -0.8379284
100 0.65898377 1.5382661 -0.14404003 1.2203654 -1.6353893 0.18335001 -1.0094141 0.25884932 -0.57300967 -0.39072502 0.30144995 1.2773162 -0.68019974 -0.9376125 -0.86039245 0.80348545 -1.0351287 -1.2338524 0.71967196 -0.43660253 -0.8913183 0.096751146 -0.5463733 -1.7962306 1.0188209 -0.41298416 2.2318454 -1.8085805 -0.27823 0.02034654 -1.2397898 -1.7302469
56 1.570531 0.73624337 -0.79229194 2.428493 -0.564936 -0.51177007 -0.8610579 -0.42428014 0.6739628 0.0522263 -0.31870103 -0.29576898 -0.83726627 -0.6283197 -0.12791803 1.3478305 -0.6896352 -0.739186 0.18196192 -0.6080824 -0.21375766 1.7724085 -0.019385753 -0.5218463 0.49574053 0.43950576 0.2048216 -1.6779407 -0.5131161 -0.44200462 -1.3641235 0.729183
193 -0.31077576 -0.24017005 0.10501681 2.8841927 0.35816652 0.57429063 0.41648126 0.54313356 0.4310627 -0.24296902 0.14535747 1.5691994 0.22674835 0.7458168 1.3655934 2.3422525 0.023677776 0.27856097 0.002716489 -0.17382896 -1.1659633 0.62393975 -1.1581357 -0.31682888 0.8938902 0.08408333 0.9019628 -0.63083255 0.31271136 0.63649374 0.06670714 -1.1124073
291 0.6234704 1.0624774 0.84765965 0.8137643 -0.13136575 -0.71775335 -0.9003508 -0.2769023 -0.96249896 0.18763882 0.41753602 0.8482683 -0.5774046 -1.2193531 0.26596662 0.88738877 -0.8135786 -1.7239518 -0.83759737 1.6133366 -0.90517277 1.3077793 -0.004941636 0.3353266 0.13334829 0.10120482 0.71822745 -1.2983716 -0.18644886 1.922465 0.76948214 -0.9772159
245 1.9347374 0.12388196 -0.58429754 2.4411714 -2.3739762 -0.23189566 -0.4813764 -1.2159333 -0.9363874 -1.6001831 -0.40262613 1.9770427 0.29810628 -1.076347 -0.44853637 1.4712014 -1.2295249 -0.48213637 0.10316154 1.450951 0.68419117 1.0082629 -0.46860528 0.3509588 -0.17229946 0.023564698 1.4882355 -0.20402975 1.1535244 -0.21888502 -0.56025255 -1.3563563
102 -0.13584977 0.33065706 0.20665519 1.7032448 -0.2388833 -0.24564388 -0.053214762 -0.47407368 1.0701312 -0.9885269 -0.89275837 -0.012833517 -0.73060817 0.3050889 0.56521744 0.4706503 -1.743107 -0.674144 0.33048043 0.19561806 -1.1581753 0.23516685 -1.2552774 1.4441031 -0.56404436 -0.4974176 -0.56190413 0.59495246 -0.16255087 0.30331078 -0.9072427 -1.4579129
217 1.6240414 1.1865587 0.21068278 -0.48373714 -0.20619251 0.204488 -1.2136921 0.29620945 -1.3413733 -0.19985224 -1.5603645 -0.67510325 -0.09578046 0.2384611 -1.6924559 -0.3748918 -1.8406718 0.12937495 -1.8316439 -0.25049275 -1.5602582 -0.122931615 -1.7683742 0.4137012 0.7328494 0.7133759 0.2310099 -0.841657 -0.81998235 0.3521288 -0.1299254 -0.6207793
241 -0.6362061 0.25523075 1.417691 1.6232193 0.61118674 -0.33847904 -0.7820272 0.01471319 -1.1822711 -0.28060052 2.0130596 -0.06652132 1.4084771 -1.9613389 -0.5985408 1.4088875 -0.762072 -0.1485426 0.58438885 0.377661 -0.69059604 -1.1438241 -1.0895902 0.09880821 0.7032343 -0.44157735 -0.6467987 -0.90663636 0.79373306 0.5866456 -1.1689204 -0.75707394
137 0.56591713 0.7360897 0.034059532 0.93704754 -0.019784259 -0.029342165 -0.100000635 -0.47342944 0.25909087 -1.0559996 1.3242741 0.06983918 0.5096433 -1.4817542 0.40025282 1.7872914 -0.640593 -1.150713 0.10130931 0.5829414 -2.0430605 -0.08847776 -1.0284361 0.36906123 2.1592932 -0.20970385 -0.5914828 0.41815823 0.4658527 0.48541102 -0.27277988 -0.027963279
12 0.53331214 0.9348658 0.6308633 0.98277974 -0.09002893 -0.48717242 -0.9575983 -0.6410704 -0.60914373 -0.48648283 0.72444814 0.69808364 -1.3655643 -1.3985629 0.89293337 1.7695966 -0.38547903 -0.12858853 0.3546782 0.95527464 0.16462533 1.958632 -1.5940892 0.43422684 0.6779249 1.1183645 0.10135736 0.5717034 -0.5824805 0.5297121 -0.1414303 -1.5739524
242 0.73718923 -0.3396415 0.002437982 1.2865795 0.061086424 -0.28139132 -0.21502772 -0.77156514 0.29023612 -0.15204126 -0.96809626 0.5345934 0.22024593 -1.1707419 0.55458605 0.38480532 -0.95450145 -0.7936701 0.33133888 -0.40053824 -0.85069937 1.5943086 -0.18679264 0.04992165 1.0187534 -0.106300615 -0.9937086 -0.21624306 0.3816738 -0.61228734 -0.536428 -0.6440591
225 3.993402 1.1560528 -0.9650831 0.22021797 1.119389 0.8552759 -1.9774587 2.2519634 -2.5841823 1.0022842 -3.9334314 1.0316912 1.8959194 -0.7968392 0.6839468 0.22328432 -4.1586447 -1.8434005 1.4483192 3.050657 -0.017426647 -1.3960344 0.2569318 0.42415136 1.0730581 -2.055419 -1.3680838 0.080327764 0.90525407 2.0059571 0.2925986 -0.46125078
258 1.2390575 1.8663985 0.51937973 1.3715788 -1.734339 -1.2272475 -0.9185487 -0.15982738 -1.0484838 -0.13576251 -1.275363 1.4437222 -0.049321327 -2.3942063 -0.38615963 0.45307693 -0.20710152 -1.571182 -0.6703164 2.8173697 -0.25660723 -0.75890756 -0.46896446 -0.5902489 2.8087444 1.7863603 -0.5646248 -3.2473598 -0.11339825 1.4709368 -1.4352015 -1.2623602
276 0.18214214 -0.40141168 0.43417427 1.2196648 -0.5818187 0.092587456 -0.3483671 -0.090937674 -1.009326 1.2784945 0.90279585 0.63866425 -0.26009724 -1.0726645 0.8830863 0.9772847 -1.5564604 -1.5378232 -0.6200224 1.3744147 -0.98979956 0.8281709 -0.06935231 0.7684439 -0.043962017 0.44954804 0.93991756 -1.3421352 0.31800878 0.26844442 0.4763387 -1.7225839
85 1.0188596 0.01821437 0.40483588 1.1792196 -0.5958469 0.6229896 -0.82444054 -1.2895741 -0.097809166 -0.2261583 -0.48614803 1.0326176 0.36512044 -1.1760064 0.33259115 0.0058377353 -0.7174502 -0.7144092 0.3684359 -0.81640136 -0.123369314 0.9359927 -0.28277284 0.3950337 0.8161599 -0.09082625 -0.9982518 -1.2214592 0.53123313 -0.4160512 -0.3628778 0.041531626
28 0.00059102237 -0.4428422 -0.3251545 0.8638334 0.37490642 -0.3272235 -1.291972 0.054914758 0.5980986 0.14373505 -0.5880155 1.4129919 0.386903 -1.1569828 0.27742234 1.6601914 -0.24393882 -0.17286883 -0.19325788 -0.8421173 -0.6469851 0.88443106 0.4484037 -1.030626 0.52447754 0.059572063 -0.3769576 -0.7905594 0.33009037 0.6081877 -0.2928103 -0.10125192
65 0.3570328 0.024951795 -0.0056755487 -0.16487207 -0.5516195 0.04231787 0.19164775 0.5040166 -0.5074913 -0.6115747 -0.83224094 -1.089398 -0.98066396 -0.6578336 0.20051794 0.11727659 -1.5472568 0.3401094 -0.6251895 1.8075639 -1.5748386 0.76324105 -0.53790855 -0.036286898 0.24768697 -1.1442697 -1.3697925 -1.0205555 1.5453159 -0.92205584 -1.1350582 -1.0494169
114 1.2263625 0.4500949 0.88050956 2.164323 -1.0184697 0.2467788 -0.36375186 0.178224 -0.626355 -2.2641633 -0.5907858 1.955827 -0.9817825 -1.3822955 -1.377331 1.5614005 -0.027023295 0.47860396 0.7967065 1.0850518 0.7144408 1.8702662 -0.7728939 -0.014757863 -0.37653783 0.124533996 0.50632507 -1.0732152 0.6473812 -0.13595705 -0.24359877 -0.7676941
263 1.7680733 0.7096746 0.026609259 2.4529839 0.45757583 -0.33835778 -0.49676558 -1.4466395 0.99362916 -0.19602387 -1.2813169 -0.32029176 -0.3498629 0.11099664 0.1889667 1.531842 -1.0318515 0.27418005 -0.7673855 -0.25427988 -1.12232 1.3415383 -0.033987354 -0.4651366 -0.29097447 0.4290223 0.6540099 -0.82616615 0.40543678 -0.76975495 -0.120515846 0.5514825
295 0.43406734 0.573913 1.0200714 1.8787918 0.23797765 -0.90759814 -0.09359464 0.5939552 -1.7752085 0.30740952 1.0488657 1.0945503 -0.5570689 -1.070698 0.13844733 0.4908888 -1.0156304 -1.5391334 -0.11193174 1.2356254 -0.30225363 0.7231552 0.20409188 -0.2193249 1.604804 0.6149286 0.660194 -1.3156748 -0.17988415 0.37125072 -0.23159544 -1.124951
244 1.1413655 0.9967162 0.056323234 1.434603 -0.6932421 0.15294787 -1.549262 0.6612491 0.06908285 -0.757012 0.42400247 2.013551 -0.45185006 -1.7514464 -0.86810136 0.5063064 0.41268572 -0.3337812 -0.5910463 -0.3551661 -0.30446655 -0.23163813 -0.87176555 -1.9794605 0.10178314 -0.07667807 0.38478264 -1.7427909 0.5530766 -0.2281278 -1.0668274 -2.8314981
286 0.48052147 -0.21097368 -0.53298753 1.9834114 0.57108754 -0.29607138 -0.5465889 -0.21660832 0.95599335 -1.3391032 0.37510908 -0.21857372 -0.8486824 1.0136396 -0.8704851 1.2216091 -1.5105423 -0.7339288 0.70673937 0.127582 -1.1169201 0.3711965 -0.31404355 0.47418332 -0.6302658 -0.6292561 0.9397592 0.22295931 0.23168595 0.24777429 -0.7527907 -1.6755865
219 0.7799824 0.8983947 -0.59304535 -0.1970982 0.34364557 0.10677021 -1.2482415 0.020028444 -0.80138195 -0.04492256 -1.6428765 -1.6522801 -0.5454894 -0.21208131 -1.9812702 -0.2704963 -1.9419123 -0.66214496 -1.9422147 -0.07592525 -1.1852927 -0.28554118 -1.853184 -0.04642077 1.404981 1.0920289 -0.63169867 -0.3280501 -0.6404211 0.76765954 0.6403298 -0.70282775
165 -0.3054353 0.8384505 0.46555313 2.3746316 1.4969637 -0.5968408 -0.6924358 0.05874762 -0.9401249 -1.0326642 1.3792248 -0.45564583 0.53373575 -2.0321167 -0.2780043 0.52779704 -0.97714174 0.06436505 0.26053524 0.56124103 -1.7012411 -0.48539242 -0.15938695 0.32534707 -0.08840527 -0.6540953 -0.4436647 -0.4935835 1.717589 1.7186289 0.3407016 -0.44111434
246 -0.12239664 0.75704724 -0.33742797 0.38675418 -0.6507239 -0.5121421 0.74031764 1.200686 -1.0788174 -1.0354031 -1.2502913 -0.7764659 -1.1215935 0.36503813 0.71714336 1.6830025 -1.71224 -0.28471848 -1.077011 1.8811407 -0.24159929 0.5864631 0.34148738 0.48165765 0.12655196 -0.32403216 -1.5777844 -1.117927 0.93034875 -1.6064718 -1.3482009 -1.0536454
129 0.06325765 1.4366732 0.3853358 3.7005987 -0.028599098 -2.03047 -7.883014 -2.6553402 3.1643338 -3.4934614 -0.9537459 0.9303975 1.5163432 -0.7666068 -4.497462 -0.12162172 -1.9462209 1.3024759 1.0647265 -2.2332177 -0.65017056 -0.24742211 -3.40963 1.3608552 0.32032502 1.1343747 4.053437 -3.7877247 -0.54417926 4.2191124 0.92408925 -1.0711801
103 0.10475332 1.7821132 -0.33267707 0.2371873 0.03132753 1.0882415 -0.49841624 -0.1222389 -0.76376116 -1.1016057 -0.4666078 1.0432826 1.0631496 -1.5735178 -0.00051517884 1.7714427 -0.5247462 -1.1749908 0.8236312 -0.50281155 0.7572533 -0.7211633 -0.032289702 0.30038878 0.6073372 0.4110269 -0.8252896 -2.268747 -0.11741151 -1.7667483 -0.49009213 -0.9321497
209 -0.1246083 1.1106657 -0.18705802 0.9261394 1.6671729 0.6358423 -0.265712 0.5794535 -0.3023583 0.13883772 -0.14494805 -0.7046153 0.84022975 -0.9144658 1.3921479 2.5364692 -1.9060966 -0.20064864 1.261628 -0.39688745 0.27979678 0.31473306 -0.027994864 0.045220427 0.44159982 1.5733097 -1.1746697 -0.45520777 1.335495 -1.2150229 0.32917616 -0.45858908
195 -1.3138573 -0.14875513 -0.31188414 3.3239062 0.33389118 -0.5268885 0.06405344 0.83396006 1.296543 -0.24594668 -0.3028321 0.048265923 -0.41095865 -0.17425546 0.40580255 1.8789932 -0.1630216 -0.9185593 -0.21535163 0.019450603 -0.42530364 0.4861061 -1.4713758 -0.85524744 1.4923258 0.12775087 0.25308624 -0.34709844 0.7626271 1.1468714 0.33095723 -1.378207
45 0.7957343 0.49865863 -0.058855455 1.5185093 -0.533003 -0.1384277 -1.8291255 -0.14725229 -1.1578627 -0.18153311 0.5406865 -0.7327265 -1.6404307 -0.76459605 0.38206255 0.69290984 -0.31781805 -0.86352056 -0.3730673 1.1555094 0.3042224 1.7894326 -0.9935417 -1.2196409 1.2210206 0.9932496 0.27597088 -0.40261838 -0.011746632 -0.3997722 0.3780921 -1.4941963
251 0.786134 -0.085719705 0.3222014 1.296566 -0.13981444 0.5038665 -0.8413989 -0.93526745 -0.17525586 -0.06324424 -0.4437908 0.8014576 0.1062699 -0.89780426 0.6415539 -0.030918473 -1.0932078 -0.81517065 0.549728 -0.6845223 -0.5654127 1.241092 -0.31288046 0.2812728 0.9103001 0.10711004 -1.4483348 -0.4598163 0.53367186 -0.3201087 -0.021520535 -0.15409458
247 0.62761277 0.44194537 0.4235543 1.3961484 -0.14215563 0.59182423 -0.6543303 2.2931075 -1.6405442 -0.096924506 -1.3212003 -0.21333085 0.995643 -0.13799874 0.7474417 0.9129065 -1.6026075 -2.01469 0.31051162 2.4574103 -0.37694514 -1.7523428 -0.9134525 -0.24537452 0.17689507 -2.4754717 -1.4720145 -0.43386045 -0.06996067 2.213525 -0.64337605 0.011798494
266 0.2885918 -0.6315743 -0.35753024 0.43075657 0.42146763 -0.31199163 -0.043187797 0.09910147 -1.5074345 -0.2530102 -1.0038463 0.57195663 -0.74282414 0.2206353 -0.012546708 0.64541763 -0.9884139 0.058681574 0.15343212 0.006509382 -0.02518898 -0.32608646 -1.2994287 -0.92125016 0.33004555 -0.23119183 -0.57831883 -0.9661265 0.12359606 0.28177807 -0.0013110575 -0.07372591
249 3.7069888 0.6890029 -0.9088782 0.002828189 -0.2508125 0.8163114 -1.072264 0.68297565 -2.018663 1.5739238 -2.8227792 1.0610754 0.70786834 0.102983944 -0.119067155 0.31008616 -3.1287217 -2.350273 0.8837583 2.5068235 -0.06775346 0.43383282 -0.1537317 -0.027347472 0.25516683 -1.339182 -1.8402168 -0.06437936 -0.28394383 2.0541315 0.36710778 -1.3165346
4 -0.5293093 0.41536033 -0.11369258 0.473692 -0.6833016 -0.7616177 0.25109726 1.657906 -0.7713731 -0.5076983 -1.228592 -0.020229228 -1.6853391 -0.14852586 0.27718922 1.2258246 -1.0016127 0.2584715 0.05151441 1.298521 -0.97800314 0.8993434 -0.36116976 -0.28489876 0.5991807 -0.45119068 -1.6440386 -0.995447 1.5412263 -0.37784585 -1.8789811 -1.3580111
205 0.4040751 1.5465223 -1.005429 1.090019 -1.1241125 0.014198153 -1.8409686 -1.0380069 -0.51171243 -1.6864635 -0.08648051 1.3646252 0.5625869 -1.0312021 0.94841856 0.25748947 -0.6464089 -0.2490034 -0.05560532 -0.065839514 -0.23412819 -0.16663486 -0.26844427 -2.0925076 0.38698357 -0.3583535 1.3236125 -1.7615492 0.23670535 -0.66725725 -1.4458427 -2.8077614
158 0.7430562 0.60100484 0.12878104 2.135237 0.68779427 0.5339035 -0.1452845 -0.92613167 0.8895669 -0.51832926 -0.34650007 0.421557 -0.19280234 0.87774086 0.55783194 0.7894733 -1.4997576 -2.13821 0.35234255 1.1475042 -0.064418554 1.0305421 -0.14405446 0.83858865 -0.40762645 -1.1352683 0.7569067 0.22439514 -0.2442123 1.4414505 -0.696847 -2.294546
154 1.3128062 0.68846565 -0.19476877 2.6040092 0.37496886 -0.642248 -0.45272103 0.09347105 -0.21823534 0.67253256 -0.5401575 0.023088122 -1.2171655 0.5252121 0.54046404 2.3781254 -1.5672435 -0.10755628 0.15588264 -1.0346385 -0.46590397 1.8100393 -0.53149354 -0.25830323 0.16504368 -0.010264506 -0.38573334 0.2107829 -0.3266919 -1.4397566 -0.42892024 0.5333791
74 0.68021834 0.39294872 1.0014398 1.3222306 1.0664241 -0.88352394 -1.1377323 0.47066477 -1.2469072 -0.36257303 1.3978307 -0.5155823 1.2437117 -2.4012907 0.74686354 1.4550196 -1.7317139 -0.6855172 -0.4088608 0.5359275 -1.3076439 -1.4535587 0.08714848 0.025053253 -0.050515097 -1.0706695 -0.06394863 -0.25637013 1.1515003 1.5801642 -1.1149113 -0.052244116
259 0.23238327 0.9533782 -0.27281153 0.36195177 -0.05270107 0.9495652 -0.7852985 -0.5942695 0.58124393 -0.9926675 -0.74601716 0.6623037 1.5043905 -1.3140271 -0.24061231 2.2016687 -1.221401 -0.5747478 0.58924663 -0.505732 1.0974842 -0.16152161 -0.28579512 1.5310624 0.3253718 -0.04177019 0.27558652 -2.0763035 1.3248295 -1.0233462 0.14050332 -0.74191487
130 2.3955169 0.65163493 1.0086488 3.2999177 -0.53629506 -1.3092121 -6.5594354 -2.3843892 3.6347094 -4.022321 -2.1501162 1.5593022 1.7588294 -1.3064252 -3.2074592 0.102022916 -2.3804483 1.892303 2.8142521 -1.3968624 0.7543372 0.00231668 -1.6120131 1.0374486 1.1865537 2.3659003 5.105988 -4.6606026 0.47736874 2.718523 0.36516228 -1.4739692
89 0.89955336 2.8393736 1.0707992 2.8326135 1.1440818 -1.5691459 -6.3931446 -2.9509752 2.951493 -1.9584557 -1.3214209 0.92775404 1.0382085 -0.55244005 -1.5502998 -1.0026199 -1.6831126 2.733888 1.5137362 -1.803746 1.7702364 -1.1064187 -3.4203577 0.79881346 1.8499025 2.3244116 3.5532975 -5.2599816 0.016421013 2.6458256 -1.1393886 -2.7622108
277 0.6935667 3.800236 1.1057135 4.8521037 -0.1439072 -2.0164468 -6.275987 -3.2772925 1.8766736 -2.0063732 -1.4381098 1.9609388 1.3744572 -1.4828763 -2.4914854 -0.6924128 -1.3538563 0.9768129 0.6568619 -0.9910374 3.1265564 -0.074116364 -3.9060128 0.6573395 -0.92238134 3.2663767 4.638378 -4.082862 -0.6140418 -0.7929714 -1.454858 -2.1179202
97 0.14307934 1.5577308 -0.19973424 0.49262455 -0.91459084 -1.0779684 -0.98927045 -0.18096676 0.8873397 -0.19322665 -0.58138615 1.7358489 0.121523276 -1.9217707 -0.7716422 1.4430449 -1.1397634 -0.42459545 1.0878546 -1.3816956 -0.8448155 0.7087797 0.092070706 -2.4616234 0.28876755 -0.08247198 -0.61932546 0.35233682 1.0645536 0.99402153 -0.75219464 -0.121869914
284 1.2068688 0.57149243 0.63205993 1.5637072 -2.259566 1.0126446 -0.7884902 -0.6974565 -0.3512816 -2.4087749 -0.82029235 1.0303289 0.6815623 -2.1109016 -0.2876349 1.2362633 -1.2904892 -0.55393386 0.43822223 0.9330124 0.34378946 1.189792 -1.1919522 0.09411193 -0.3142447 0.68676513 1.5206033 -1.024087 0.55805725 0.31888077 -1.7814918 0.16441856
149 0.09215591 0.532014 -0.7117526 1.4261705 -0.3985436 -0.6927808 -0.5336361 -0.7518686 -0.5320631 0.65278083 0.17799318 0.99018586 -1.2072331 -1.3248202 1.1143953 -0.28366336 -1.0354857 -1.8795683 -0.93403715 1.4908147 -1.0477923 0.9304953 -0.3768875 0.4316578 2.2078865 0.33780774 0.31381997 -1.7822009 -0.02945221 0.7690218 -0.19215168 -1.3169674
298 0.42978314 2.0899112 -0.77199847 0.83718836 1.829285 0.80342054 -0.41255176 -0.017363396 -0.48845723 -1.0577482 -1.1544183 0.112401925 0.69814414 -1.1835461 1.4011221 1.7995406 -0.7792992 -0.5408686 1.1324046 -0.29430252 -0.4142987 -0.5531346 0.20427892 -0.3343164 0.26674572 1.749582 -1.321626 -1.2751465 0.060963947 -1.2309266 0.13678612 -0.5372744
94 1.174585 1.7116493 -0.6525499 0.37155282 -0.57055485 0.48038703 -1.2217631 -0.25012323 -1.0955335 -0.3145811 -1.9965394 -0.54631233 0.20064752 -0.21470678 -2.104211 -0.70319295 -1.325537 -0.22944096 -2.0850267 -0.27098224 -1.3359219 -0.6361237 -1.8093272 -0.41583708 -0.58934367 0.8966851 -0.3614669 -1.1611797 -0.18723615 0.4099976 -0.1938927 -0.46351975
197 -1.21626 -1.5717118 0.08212465 3.1015644 1.1025606 0.12266125 0.63938385 -0.3338796 0.8076717 -0.4582251 -0.027079046 0.21259524 0.0809642 0.09175813 0.7487393 3.0801725 -0.6341182 -0.6100681 0.39904934 0.29905453 -0.39595234 0.37287036 -1.3867606 -1.1070391 0.8275245 0.36541975 -0.17692043 -0.82595396 -0.6360362 0.067278825 0.6149362 -1.9200085
32 0.7115606 2.4228756 -0.5688757 1.2470846 -0.07085892 1.5717424 -3.5444326 -0.71480656 -0.7089651 -0.6653228 0.5235457 0.21133108 -0.0883872 0.06097451 -0.18125698 0.38219687 -0.5038625 -1.1764412 2.9877763 1.6292962 -0.8003595 0.956408 -2.5208619 -0.903178 -0.5840912 -1.2092942 0.76885647 -0.62693244 1.2480253 0.30461308 -0.12643293 0.22509216
98 1.7630197 0.20528595 0.6765668 -0.6898607 -0.9357574 -0.26640162 -1.3506063 0.024257982 -0.5690718 -0.5425116 -1.2011461 -0.82418704 -0.118667446 -0.5619951 -1.4042991 -0.06939104 -1.4641802 1.1429256 -1.7949055 1.1269113 -0.78157324 -1.1862293 -0.83712834 -0.42409855 1.0254669 0.7771721 -0.4644825 -1.2394443 0.24047866 -0.592477 0.10356769 -0.87861985
53 -0.8562103 0.20653522 0.14279671 1.0651128 -0.07995415 -0.37766802 -0.85961825 -0.7161521 -0.32757428 0.084170364 0.4103678 -0.08804443 -2.0241396 -1.1486899 0.27093223 1.4089048 -0.55690366 -0.6694731 0.1771393 1.4776033 0.008757823 1.6691144 -0.79086334 -0.4702447 1.4347001 1.1411642 0.06875212 -0.4306153 1.664964 0.3762681 -0.676438 -1.5065993
135 0.20541105 -0.8014767 -0.58532995 1.2393793 -0.44629928 -0.2816508 0.31675193 0.49637172 -0.6523814 -0.8129976 -2.1426294 0.72422975 -1.2317498 -0.11844292 0.9557323 0.14397088 -1.9903982 0.6658962 -0.5353516 -0.55575716 -0.72438884 -0.18463133 -1.9854763 -0.34457245 0.2722047 -0.5719353 -2.469397 -0.4635004 -0.74881786 0.40930238 -0.60499597 0.6832924
233 1.3173338 5.2344837 0.20242721 3.0406864 -1.9987575 -1.1187749 -6.098714 -2.4839144 0.90478474 -1.8087028 -0.07471995 1.3690593 -0.3724579 -1.3331283 -2.0619624 -0.7006627 -1.3781148 1.6953177 0.35985225 -0.54984117 3.364812 0.8490029 -3.8150508 1.9968959 -1.2728688 1.7535585 3.9649663 -5.4904532 1.0251942 0.28589922 -0.91777945 -1.8600429
20 1.9285499 2.6593115 -0.39163807 3.133502 -0.2241139 -1.2612437 -5.7663655 -2.854112 2.7760286 -2.6237116 -0.7538974 0.70611405 0.7168063 -1.24705 -3.4343162 0.9798974 -0.2425337 1.0324422 0.28894663 -0.7071813 2.259401 0.88892716 -3.341428 1.0828134 -2.0572531 0.46402663 3.3691778 -3.6890638 -0.18373953 1.8809052 -0.070638865 -0.9689843
229 -0.6015671 -0.7044138 0.16509649 0.22537023 -0.2713678 -0.065421484 0.24100927 1.0867003 -1.581993 -1.9556257 -0.9131048 0.09218365 -1.0214324 -0.18444043 0.8802574 1.3564383 -1.4605494 -0.5922338 -1.0955487 1.7936563 -1.2187642 0.99349827 0.66710746 -0.7710972 0.029982543 -0.7472479 -1.307036 -0.07198819 1.1702441 -0.24134669 -1.6883678 -1.4132732
167 0.49948546 1.3605669 -0.8382387 0.90021384 1.8349878 0.71648806 -0.7868401 -0.44305918 0.9128366 -1.1324813 -1.532747 -0.34031436 1.2317656 -0.98074335 1.1705706 2.223343 -1.4622799 0.09602377 0.9481292 -0.32151166 -0.21404839 -0.17563716 -0.028796209 0.7911028 -0.09129752 1.4142418 -0.30753222 -1.1502825 1.5622247 -0.35088813 0.7656065 -0.3392252
26 1.7071648 1.5428753 -0.014888592 -0.14438161 0.30394188 0.54346746 -1.419954 -0.364632 -0.9137585 -0.030191982 -1.27614 -1.4873179 0.38580167 0.6225195 -0.953571 0.3794411 -1.2454993 0.307607 -1.3246734 -0.25509745 -1.8036634 -0.3180024 -2.2501469 -0.6242594 0.07450859 1.2485689 -0.91667616 -0.7419133 -1.3326031 0.36727712 -0.4671222 -0.40323806
199 -1.8944861 0.47229114 -0.2606661 3.9836829 0.84349453 -0.18671694 0.86405116 0.39336282 0.6883158 -0.57021266 -0.4884272 0.6450871 0.20792064 0.21757795 0.7802128 2.9522376 -0.45407227 -0.56593156 0.77137524 -0.06361711 -1.2408217 -0.5027299 -0.7775888 -1.5234807 -0.360558 -0.074715495 -0.6712239 -1.3016429 0.21696068 0.8108531 0.032528676 -1.2635834
83 0.6816 2.6485379 1.7512525 3.6130626 -1.0660056 -1.6593732 -6.614809 -2.6535614 2.210922 -1.4197319 -1.4472779 1.6106683 1.0930225 -0.5400981 -3.1052804 -0.9188291 -2.4214885 0.8848717 1.2347354 -0.87774885 1.37209 0.06391209 -3.2156558 2.46978 1.1177216 1.0807717 4.3866677 -4.070185 -1.7916102 1.2195888 -0.85397893 -0.56536025
138 0.7887123 -0.0367619 -0.389743 2.359144 -2.157009 0.6331336 -1.1719483 -0.10258246 -0.91737205 -0.8042292 -0.3685457 1.0536745 0.47679752 -1.870597 -1.4413224 1.1725531 -0.27146342 -0.19497006 0.24448456 1.3030434 0.7274037 1.0764428 -1.5670007 0.6401737 -0.8210018 0.29077196 0.38177264 -1.6620209 1.6136862 -0.28972998 -0.75983864 -0.7161905
151 0.004512855 0.9413316 0.3146607 2.2664568 -0.83190084 -1.1557994 -1.0121119 0.05949039 -0.96118647 0.16162138 -0.24453466 1.1220915 -1.3077395 -1.7467203 0.76927644 -0.16994537 -0.5690178 -1.2490608 -1.2932998 1.457574 -0.64356333 0.012198578 0.44267887 -0.5613056 0.5749541 1.4414996 -0.38093254 -2.1613882 0.75145274 0.7250178 0.47461677 -2.2923007
5 1.5084621 -0.73476654 -0.09155508 2.0001287 -0.30305335 -0.49597487 0.10949732 -1.0642501 -0.4744011 0.27840006 -0.49003914 -0.05864769 -0.6907982 0.5666192 0.10221696 2.172617 -1.567118 -0.21710311 0.22094505 0.21659629 -0.8836242 2.209857 0.16372891 -0.30323455 0.043548003 -0.32232523 -0.08204327 -1.446405 -0.34026986 -0.33606952 -0.3339665 -0.05799337
270 0.59652185 2.7447767 -0.59433925 1.4369678 0.20051482 0.6430192 -2.946645 -0.682951 -0.28209236 -0.3816631 -0.47218004 1.403705 -0.7166387 0.09049536 -0.504523 0.62497973 -1.2230601 -1.5684608 2.9434168 -0.015388952 0.4105905 0.9978019 -2.1261268 -0.71896416 0.86695623 -0.7235863 1.7541914 0.4156533 0.08896276 0.18582606 0.063115485 -0.0055981623
7 0.8045965 1.9892435 1.4561286 3.8362226 -1.0228525 0.20706265 -5.4826503 -1.2403854 1.6685984 -2.4778845 -2.0793118 1.0178812 1.1499583 -0.9390093 -3.6125264 0.116476595 -1.0803963 1.3184828 -0.17024441 -1.0924373 3.0527842 0.81990445 -3.4027796 1.9533845 0.39326143 2.2364852 4.5397186 -4.022371 -0.44582275 2.0012758 -0.49444214 -1.9155947
14 -0.51500034 4.177662 0.006980624 2.7258084 -0.7771374 -2.0124185 -7.417777 -3.7927942 2.8415656 -2.041315 -0.33945072 1.2870339 1.6400336 -0.91533595 -1.2461945 -0.8120158 -1.7357206 2.1682942 0.51671225 -1.5095518 1.7077914 -0.38929576 -4.221832 0.29240602 -1.1475098 1.1777122 3.7031293 -4.522087 -0.81131077 2.5680943 -0.6218141 -2.4069533
228 1.9411749 2.3558447 -0.7352457 1.6108463 -1.0541583 0.17459473 -1.7420479 -0.70482004 -0.00084721256 -1.0921618 0.20915903 1.2447891 -0.6017775 -0.9641151 -0.3334241 -0.5374512 -0.34478483 -0.6501362 0.10569714 -0.7415626 0.6485118 0.37765938 -1.0902668 -1.2639625 1.2023687 0.024780577 1.0520922 -2.2698658 -0.4605946 0.107697204 -0.6066997 -2.3211598
24 1.3454745 2.7623706 1.9224994 3.3248718 -0.6406855 -1.5161217 -5.5196075 -2.094499 2.6094959 -2.824207 -1.3898773 1.8817842 1.2021188 -1.1053019 -2.8044457 -0.360686 -1.6054527 3.4158254 0.8332406 -0.6449142 1.1811736 0.91908765 -3.846432 2.168886 0.40778083 2.4874935 3.0492966 -3.1769872 0.93304056 2.3394125 -0.5878916 -1.3866395
157 0.12943622 0.5756792 0.8008972 2.6088722 0.16765551 0.36587167 -1.1201668 -0.38400128 1.5685132 -0.38970605 0.74687845 0.30554438 -0.20409597 0.70000505 -0.46564054 0.75803226 -1.4185934 -1.7739094 0.9105167 0.22730388 0.31654644 0.9410301 -2.3008218 1.2338685 -0.657271 0.1970465 0.9504185 -0.3384213 0.32305384 0.52474535 -1.0051901 -2.183779
107 0.6923549 0.5199218 0.6367428 3.358752 -0.3624666 -1.4765068 -6.766965 -2.5135295 2.9569397 -4.093266 -1.8499703 1.1690456 1.9279188 -1.0946561 -3.5573049 -0.028583422 -2.2384546 0.91608703 1.4236338 -1.8440042 -0.069892585 -0.44617832 -2.0717468 0.35664538 0.342496 1.9902976 4.388493 -3.8785481 -0.39865246 3.2109008 0.7183545 -1.4087981
80 -0.44349042 0.8640269 -0.51463497 1.1616635 -0.8162967 -0.33865485 -1.737728 0.74745363 -0.09158267 -0.22178988 -1.2653375 0.90265644 -0.29854983 -2.2397826 -1.3786026 1.1420437 -0.28913903 0.28350618 0.168017 -1.2267246 -0.9611466 1.2126784 0.12978277 -1.789682 -0.4350013 -0.52557045 -1.1980143 -0.13688679 1.5412308 0.42047027 -0.9859557 -0.31045848
38 0.25725445 0.96105826 0.19340768 -0.37379703 -0.62384766 0.3132697 -0.48500142 0.9276024 -1.2125206 -0.9017501 -0.9323185 -1.1179444 -1.0092502 0.034242816 -0.018678028 0.7145279 -1.1138929 -0.16840951 -1.2172625 1.1956575 -0.27674446 0.3860409 -0.17024264 -0.16414522 0.8430627 -0.59413004 -0.9315406 -1.3206998 1.3115095 -0.78578746 -1.4230824 -1.3551852
275 -0.49532446 3.7870283 -0.052516613 3.6508455 -0.32504523 -1.7897911 -5.842151 -2.872602 0.95848686 -2.6518548 -1.1146694 1.1982342 0.30270886 -0.7620292 -3.0629442 -0.03684626 -2.1186566 1.0882572 1.5094883 -1.5961087 1.6358287 0.017675506 -2.592474 0.99559605 -1.4285029 1.8451942 5.7509227 -4.133766 0.15685059 2.4323623 0.056073315 -0.54396856
87 0.23631692 0.40766054 1.0062277 1.192983 1.4113765 0.16854677 -0.18393672 -0.08256441 -1.4370915 -1.2342514 1.3616737 0.20486304 1.5498859 -2.6049573 0.5049091 1.0502903 -1.4645201 -0.9549352 -1.6559435 0.59623694 -1.771402 -1.4748353 0.13601236 -0.6200305 0.19801961 -0.3487156 -1.3751574 -0.38505828 1.6683853 1.1657014 -0.48257506 -1.1319829
260 0.15092063 1.1963464 0.3777369 0.35320693 0.24580026 0.22022805 -0.7479311 0.13948953 -0.6811746 -1.0767685 -0.2907187 1.2804711 0.59704274 -1.4166116 -0.23352334 2.4114573 -1.113429 -1.0426128 0.32536614 -0.7078414 1.3177072 0.22950754 -0.6713089 1.5697703 0.51998144 -0.020279266 -0.66862285 -0.67155224 0.16879474 -1.5518054 0.38411278 -0.64337254
